#Parameter# /W1 {20,37} 11841 ZERO_GRAD
+4.48510163e-02 +1.94785789e-01 -1.19412355e-01 +2.36120388e-01 +7.01981559e-02 -7.16082156e-02 +1.27556741e-01 +5.19902594e-02 -2.32927650e-01 +5.54607846e-02 +1.22235648e-01 -1.50850803e-01 +1.05707996e-01 -8.41070339e-02 -1.88515410e-01 -1.59609094e-01 -6.98976442e-02 +1.92921206e-01 +1.32193416e-01 -2.56198764e-01 +1.78960115e-01 +1.20167799e-01 +1.08882040e-01 +3.01627070e-01 +2.08631083e-01 -1.63203016e-01 +3.03882748e-01 -2.76912957e-01 -1.38293564e-01 -1.30147219e-01 -2.11478844e-01 -1.93883806e-01 -2.06735209e-01 +4.50199544e-02 +1.34684891e-01 +3.91243920e-02 +1.83038682e-01 +1.22110806e-01 -1.83680624e-01 +1.24547906e-01 +9.98458341e-02 +2.98044663e-02 +2.10985243e-01 -1.91043526e-01 +1.42351240e-01 -1.03307329e-01 +1.98472172e-01 +3.23299259e-01 -1.56263947e-01 -5.72426431e-03 -3.19447070e-01 -1.79605454e-01 +6.26504347e-02 -3.05395335e-01 +2.71192133e-01 +1.61201298e-01 -1.66216306e-02 +3.29633445e-01 +2.84151614e-01 +7.50494376e-02 -9.62796137e-02 +2.73858160e-01 -1.39862880e-01 -1.60793498e-01 +2.13241115e-01 +1.57268658e-01 -2.61550490e-02 -3.40367258e-01 -1.15961947e-01 -4.74659819e-03 +8.51221234e-02 +1.16908588e-02 +1.38552368e-01 +3.11116308e-01 -5.36832176e-02 -1.18484415e-01 +4.16127630e-02 -2.61160225e-01 +6.28621355e-02 -2.07729405e-03 -1.98521718e-01 -2.62358040e-01 -6.37325197e-02 +2.28416979e-01 -1.53235450e-01 +2.09228694e-01 -1.57692581e-01 +1.10086292e-01 -3.67416553e-02 +1.44415513e-01 +3.05137008e-01 -1.30396083e-01 -2.75407016e-01 +1.25525787e-01 +1.69799998e-01 -3.47244143e-01 -1.73835382e-02 +1.66578263e-01 +2.71321148e-01 +1.24722719e-01 +2.71124512e-01 -2.26120651e-01 +8.19591880e-02 -1.35051861e-01 -3.31927478e-01 +5.91136962e-02 -7.15736598e-02 -2.17657797e-02 -1.97601303e-01 +1.13131933e-01 -1.86601609e-01 +1.58781260e-01 -3.36053461e-01 -1.78509027e-01 +1.39673606e-01 -8.80549252e-02 -2.07047284e-01 +2.65120149e-01 -2.73729712e-01 +1.91583540e-02 -3.30338739e-02 +8.31389502e-02 -2.91809198e-02 +3.10583204e-01 -7.25471526e-02 +2.13639051e-01 +1.59504920e-01 -2.57074863e-01 -1.62414327e-01 -1.63336203e-01 -4.78388816e-02 -2.34884188e-01 -1.44751698e-01 -2.28448987e-01 +2.33008936e-01 -1.12773210e-01 +2.29675651e-01 -3.40135455e-01 +1.11140721e-01 -4.12336253e-02 +1.23689264e-01 -1.03357106e-01 +2.42250878e-02 +2.39683568e-01 +1.85091257e-01 -2.07597211e-01 -1.30120888e-01 +2.22574189e-01 -1.98043346e-01 -2.28107870e-01 +1.36302933e-02 -2.89354503e-01 -7.24049956e-02 -1.43565491e-01 +1.44258201e-01 -5.27423294e-03 -2.40335371e-02 -3.42310935e-01 +2.25523472e-01 +9.68500078e-02 +1.03789262e-01 +3.14227968e-01 -5.10356650e-02 +1.26782730e-01 -2.77509868e-01 -1.01398662e-01 +1.75809830e-01 -3.96248065e-02 +4.08476591e-02 -1.03483638e-02 -6.36336058e-02 +3.09563994e-01 +8.00931733e-03 -1.98799759e-01 -2.33966544e-01 +1.20975725e-01 +1.01752281e-02 +3.06312680e-01 -1.78148061e-01 +9.77772176e-02 +2.41324484e-01 +1.54897377e-01 -1.27098173e-01 -2.37151504e-01 -2.40245193e-01 +3.18228632e-01 -1.91960812e-01 +1.99214518e-01 +2.53240049e-01 +2.64546335e-01 -1.62098154e-01 +2.46512502e-01 -6.22437261e-02 -2.57692993e-01 +6.11200742e-02 -2.00107113e-01 +6.71826601e-02 -1.56604856e-01 +2.75993109e-01 -2.28976592e-01 +2.10482389e-01 +2.59464204e-01 +1.80719346e-01 -1.35383189e-01 +1.92487657e-01 +2.76842475e-01 +2.55836338e-01 +3.46492268e-02 +2.79422067e-02 -1.90527871e-01 -2.20220625e-01 +3.54877971e-02 +2.05528647e-01 -1.08641043e-01 +2.85182118e-01 -2.63654411e-01 +3.18677187e-01 -1.87065184e-01 +9.54968929e-02 +2.65555620e-01 -1.32525206e-01 -1.30405828e-01 -3.98809649e-02 -3.69047024e-03 -1.16486400e-01 -2.87311882e-01 -2.47825176e-01 +3.41895193e-01 -4.98651080e-02 +2.17425615e-01 -1.52556524e-01 -3.08616251e-01 -1.18543953e-01 +1.48666054e-01 -2.52655208e-01 -2.85917997e-01 -1.54017597e-01 +1.65668547e-01 +2.53419518e-01 -1.98136255e-01 -2.39539117e-01 -1.06779613e-01 +3.15377831e-01 +3.32559735e-01 +2.17675745e-01 -2.01391533e-01 +8.99604484e-02 -8.40870664e-03 -5.80433682e-02 -3.38126242e-01 -2.35692739e-01 -3.19264561e-01 +3.62892658e-01 +2.24488303e-02 +1.67928711e-01 -3.95442396e-02 -2.70103008e-01 -2.37036929e-01 +1.77892208e-01 +1.89018235e-01 -2.09628135e-01 +2.67207939e-02 +1.09364048e-01 +1.19023897e-01 +1.75336733e-01 -1.07163608e-01 +1.97619483e-01 +1.25178739e-01 +1.29574284e-01 -1.89990893e-01 +1.13875255e-01 +6.25887839e-03 +3.45076799e-01 +3.40922661e-02 +1.95487350e-01 -1.06040435e-02 -2.08939746e-01 -2.25745320e-01 +3.03924680e-01 +1.72551394e-01 -2.63235778e-01 +2.44427592e-01 -2.74619281e-01 +1.20303124e-01 -2.74297267e-01 +1.27060171e-02 +1.95709988e-01 -1.04782745e-01 +1.19182743e-01 +7.82106072e-03 -3.09221834e-01 +1.83867455e-01 -1.46626830e-01 +2.51592904e-01 -1.73103571e-01 +2.03543261e-01 +1.11576937e-01 +3.36044021e-02 -1.28243715e-01 +5.86482100e-02 +3.28978270e-01 +1.33835733e-01 +1.35789603e-01 +1.38787255e-01 -2.29264855e-01 -1.48653671e-01 -3.23187411e-01 -3.36634547e-01 +3.41319203e-01 -2.91578472e-01 +2.84051877e-02 -1.17341675e-01 -5.71036302e-02 +3.59137841e-02 +1.66655287e-01 +3.48004013e-01 -8.20761248e-02 -2.91400701e-01 +1.77372903e-01 +1.25318587e-01 -2.62023151e-01 -1.06325135e-01 -2.28663296e-01 +9.80300456e-02 -9.18335393e-02 +5.00968024e-02 -2.61275589e-01 -2.56514609e-01 -1.29034370e-01 -3.42307277e-02 +9.41402540e-02 -2.92964190e-01 +4.51971218e-02 +2.06041053e-01 -1.34411469e-01 +2.47114465e-01 +3.18591058e-01 -9.63651091e-02 +3.32070068e-02 -1.25141084e-01 -4.96132337e-02 -2.98647280e-03 -7.34679922e-02 +1.42828673e-01 +1.58919334e-01 -4.55710292e-02 +2.62780994e-01 -2.02416167e-01 -2.85845935e-01 -3.33335400e-01 -2.62211829e-01 -2.73313466e-02 -1.00826949e-01 -1.07721403e-01 +1.78001836e-01 -3.11660115e-02 -1.94920391e-01 -2.15536281e-02 +2.61611491e-01 -2.30166279e-02 +4.70772833e-02 +6.72903284e-03 +1.01039127e-01 +1.64124206e-01 +8.46132711e-02 -1.52935028e-01 +8.18794817e-02 +6.58519119e-02 +1.88930765e-01 -2.36912891e-01 -2.30058268e-01 -6.91266060e-02 -2.75902271e-01 -1.76824287e-01 -1.88723534e-01 +1.70225412e-01 -1.30842060e-01 +2.48309262e-02 -9.58240554e-02 +3.34278882e-01 -9.19443816e-02 -1.57903228e-02 -1.23335667e-01 +3.20653439e-01 +1.94382876e-01 +7.95091782e-03 +1.90408856e-01 -1.33237660e-01 -9.66163203e-02 -2.26217508e-01 +2.22651288e-02 -1.04186989e-01 -1.65984407e-02 -5.85051365e-02 -1.38759360e-01 -1.56270504e-01 +2.41247281e-01 -3.06801766e-01 +6.13415986e-02 +2.64726073e-01 -1.43078566e-01 -3.08756322e-01 -2.73335934e-01 +2.65411347e-01 +1.48151040e-01 -1.49214029e-01 -1.40704811e-01 -2.37871945e-01 -9.75145623e-02 +3.19691122e-01 -6.99761882e-02 -1.55756444e-01 -2.62101889e-01 -3.06513369e-01 +1.65098324e-01 -3.04428965e-01 +1.05657801e-01 +2.76151657e-01 +3.05845588e-01 -1.96406439e-01 -1.01346977e-03 -2.46954486e-02 +1.67709157e-01 +6.11903518e-02 -1.24628387e-01 -3.36591676e-02 +2.88965315e-01 +7.30959028e-02 -1.24924153e-01 +2.74433643e-01 -1.80547670e-01 +2.19066948e-01 +1.59782648e-01 -2.65840560e-01 +1.38870284e-01 +9.65860710e-02 +2.63172686e-01 +1.50797486e-01 -1.01415202e-01 -9.59344506e-02 -1.37452215e-01 -2.61468887e-01 +1.39063686e-01 -1.94400385e-01 -1.92668945e-01 +1.45152897e-01 +8.45471546e-02 +1.05869263e-01 -1.49800956e-01 -1.49428263e-01 +7.89973065e-02 +2.65015334e-01 -2.89663464e-01 -1.15492240e-01 -5.40307686e-02 -4.31410670e-02 +3.17680717e-01 -1.91919968e-01 +1.77410573e-01 -1.66891128e-01 +7.72719607e-02 -2.84600198e-01 -2.83919394e-01 -1.91962928e-01 -4.27378416e-02 +3.07853937e-01 -1.56507224e-01 +2.10158870e-01 -2.87945837e-01 -2.57996116e-02 -2.60834754e-01 -2.97685981e-01 +1.08739711e-01 +2.18449444e-01 +1.96166739e-01 +3.27451617e-01 -1.01915807e-01 +2.22110763e-01 +3.11223805e-01 -1.33541435e-01 -3.22799414e-01 -2.90935244e-02 +2.94009089e-01 +1.16283201e-01 -3.42576295e-01 -1.00979537e-01 +9.67541337e-02 -3.54802549e-01 +1.05341755e-01 -1.48638412e-01 +3.36579420e-02 -3.52844708e-02 +2.35358551e-01 +4.57739197e-02 +1.58886656e-01 -2.17493147e-01 -3.15928221e-01 +3.17573190e-01 +2.27840230e-01 +1.06472142e-01 +1.02927670e-01 -8.79803970e-02 +1.84202850e-01 -2.12636203e-01 +2.68080860e-01 +9.94937271e-02 +8.13170597e-02 +5.16802855e-02 +2.03971192e-01 +2.29712903e-01 -2.78955221e-01 +3.07572097e-01 -1.39851481e-01 +2.91155159e-01 +2.55553961e-01 +2.02654049e-01 -2.24841863e-01 -1.11702017e-01 +1.24597892e-01 +9.84735116e-02 -2.25159571e-01 -2.03879643e-02 +2.93552727e-01 +5.93484119e-02 -3.10221203e-02 -3.55374180e-02 +2.39541456e-01 +2.99836487e-01 -5.55551536e-02 -1.19859561e-01 +2.75924593e-01 +1.32114515e-01 -2.94828594e-01 +1.24680646e-01 +3.16783458e-01 +7.14818165e-02 -4.60761003e-02 -2.54823506e-01 +2.81942517e-01 -1.26727819e-01 -1.28609851e-01 +2.90421434e-02 +2.45400384e-01 +3.21406499e-02 -7.08450973e-02 -4.87292797e-04 +2.31897056e-01 +8.55600983e-02 -1.54381692e-01 +9.49300975e-02 -1.74598053e-01 -2.54006356e-01 +6.81139976e-02 +8.30144733e-02 +1.34628177e-01 -7.63767585e-02 -1.84899896e-01 -7.93606266e-02 -1.29970849e-01 -2.15485632e-01 -2.30817482e-01 -6.91942424e-02 +1.36371285e-01 +1.32992985e-02 +1.30864084e-01 -3.13615620e-01 +3.08749117e-02 -1.45230740e-01 +2.30878219e-01 -2.71203607e-01 +7.56339133e-02 -2.42697462e-01 +3.80028971e-02 -9.62832123e-02 -2.38552019e-01 -2.48196661e-01 -1.78093463e-02 +1.84846714e-01 -2.22710103e-01 -1.35310903e-01 +2.41654576e-03 -3.25961858e-02 +3.01363796e-01 +1.47731593e-02 -9.78942886e-02 +6.66544065e-02 +3.17615658e-01 +6.63001612e-02 -2.27630474e-02 -1.38519809e-01 -2.41086453e-01 +1.93815097e-01 +1.46377295e-01 +3.37100565e-01 +1.19172670e-01 +1.73392594e-01 -1.78943366e-01 +4.17313874e-02 +2.22479880e-01 -1.27034813e-01 -1.32081121e-01 -3.17304641e-01 +5.10755703e-02 -4.15091515e-02 -2.76063979e-01 -2.08236620e-01 -2.57988542e-01 -5.35991080e-02 -5.13979122e-02 -1.22983418e-02 +2.39691794e-01 +4.45063598e-02 +2.68985957e-01 +1.51019888e-02 +3.04053724e-01 +2.49681592e-01 +1.37598803e-02 +3.44518125e-02 +7.90771693e-02 +1.43203229e-01 +2.58896291e-01 -3.03654909e-01 +2.53442198e-01 +5.33061509e-04 -3.33372876e-02 +7.80716212e-03 +4.87584397e-02 -3.11869502e-01 -7.96409696e-03 -2.43539512e-01 -2.70778567e-01 +3.09956044e-01 +2.39253223e-01 +3.11018378e-01 +1.62711993e-01 -5.12206042e-03 +1.55794039e-01 +1.40108630e-01 +2.15019315e-01 -1.59201592e-01 +1.92088574e-01 +7.07858801e-02 -6.85681179e-02 +2.20252141e-01 -1.64927930e-01 +2.29320899e-02 -2.68655047e-02 -4.29749936e-02 +7.53772352e-03 -2.74694055e-01 +1.85787186e-01 -2.05605011e-03 -1.29439458e-01 -9.04981717e-02 -2.59733319e-01 +2.72213966e-02 +2.07486600e-01 -1.28197894e-01 +2.02735644e-02 +1.21589363e-01 +1.97716936e-01 +7.91952983e-02 +1.33810326e-01 -6.79685026e-02 -8.71953219e-02 -3.04701835e-01 +3.04238498e-01 +2.79601157e-01 -3.74473892e-02 +2.36412138e-01 -2.52857953e-01 +2.53885716e-01 +2.11708382e-01 -1.69439271e-01 +2.64572203e-01 -1.50347613e-02 +2.26674482e-01 -2.49994740e-01 -2.48571336e-01 +2.08555520e-01 -1.23057403e-02 -1.26600415e-01 -1.05469458e-01 +2.75202483e-01 -8.63614082e-02 +2.00085461e-01 +2.66068846e-01 -1.31018892e-01 -6.50721043e-02 -1.59789518e-01 +1.03697538e-01 +3.13347042e-01 +6.02366626e-02 -3.11359853e-01 +4.13036756e-02 +2.00265385e-02 -1.60551995e-01 -1.46503851e-01 -1.39437959e-01 +6.54175580e-02 -1.03558086e-01 -3.16807330e-01 -2.40146443e-01 +7.06882402e-02 +2.97433883e-01 -1.78712606e-01 +1.85352758e-01 -1.32896468e-01 -2.64082789e-01 -2.24854127e-01 -8.70474800e-02 +2.38516167e-01 -2.04504952e-01 -2.94079453e-01 -5.92768081e-02 -2.95373887e-01 -2.48758540e-01 +3.75467390e-02 -1.52128741e-01 +1.68451145e-01 +3.61842901e-01 +1.11578465e-01 +3.02034527e-01 +6.04814887e-02 -1.89706162e-01 -7.68114999e-02 -3.43669057e-02 +1.59488186e-01 +2.37289861e-01 -2.73094267e-01 +5.60937077e-02 +3.04380327e-01 +1.49629995e-01 +1.17510960e-01 -1.75416306e-01 +2.92777181e-01 +3.44163775e-01 -1.19781941e-01 -1.16010968e-04 -1.88397437e-01 
#Parameter# /b1 {20} 321 ZERO_GRAD
+2.28860930e-01 -1.62042171e-01 -2.94661939e-01 +7.09812865e-02 +3.51112843e-01 +3.69402438e-01 +3.36917192e-01 +3.13886970e-01 -1.30043849e-01 +6.66609406e-02 +2.94804722e-01 -3.41318697e-01 -2.95943320e-01 -2.53054112e-01 +7.76802972e-02 +2.74343610e-01 +2.91933119e-01 +1.69027463e-01 +1.61505826e-02 +2.73956060e-01 
#Parameter# /W2 {20,20} 6401 ZERO_GRAD
-1.33336997e-02 -1.31553248e-01 -8.80831555e-02 +2.86636055e-01 +2.04323277e-01 -2.17131570e-01 +2.08867073e-01 -2.50611633e-01 +2.52485842e-01 +5.20414114e-02 +1.76365003e-01 +2.54787784e-02 +3.35053772e-01 -2.87852716e-02 -1.26167700e-01 -2.52262294e-01 -3.66029382e-01 -1.53764738e-02 +3.05149317e-01 -2.50502259e-01 -3.02792668e-01 -2.53383428e-01 -1.91502735e-01 +2.12887764e-01 +1.65224567e-01 -9.55348387e-02 +1.08226188e-01 -3.13077003e-01 +1.50021344e-01 -6.52387887e-02 -1.72163937e-02 +5.31055816e-02 -1.17120534e-01 -2.83287108e-01 +8.38616118e-02 +3.24712247e-01 -3.32654059e-01 +2.91761667e-01 -1.40768155e-01 +1.90633595e-01 +3.20647001e-01 +1.90201089e-01 -1.38164684e-01 -3.07294399e-01 -1.10322736e-01 +3.36743563e-01 -1.58135951e-01 +2.77667609e-03 -2.71018744e-01 -3.00289392e-01 +2.47915179e-01 +1.85983598e-01 -1.53861865e-01 +1.01570919e-01 -2.58509278e-01 +1.32926390e-01 -1.36842474e-01 -3.87085408e-01 -1.42920151e-01 -2.51009732e-01 -1.39657203e-02 -3.87999532e-03 +3.94349962e-01 +4.79003340e-02 +3.50634083e-02 +3.07628900e-01 +2.92032927e-01 -3.78559619e-01 -3.65349621e-01 -1.50888801e-01 -1.50494531e-01 -2.25191817e-01 +4.05797809e-01 -2.25887433e-01 +3.62219125e-01 +5.06477915e-02 +2.72261530e-01 -1.23023123e-01 -3.16235960e-01 +2.64963537e-01 +3.17312092e-01 -8.76060501e-02 -2.75333554e-01 +2.73315787e-01 -1.77291349e-01 -5.75035228e-05 -2.50784047e-02 +1.12111732e-01 +8.81208628e-02 +1.56904846e-01 -4.17659193e-01 -2.53341198e-01 +3.73940140e-01 -2.20569536e-01 +1.29925922e-01 +1.50013393e-05 +1.43975437e-01 +1.45219162e-01 +1.77303508e-01 +4.02523369e-01 -6.40976615e-03 -2.53058583e-01 -2.57746249e-01 -1.82217896e-01 -2.72015542e-01 +5.86226918e-02 +3.00178647e-01 -2.99050193e-03 -2.84353793e-01 +1.80663854e-01 -1.45310208e-01 -1.11032300e-01 -1.80432633e-01 -3.18779856e-01 +1.62088081e-01 -2.13921815e-02 -9.61237922e-02 +5.09468168e-02 -8.94692242e-02 +3.77423391e-02 -1.57891169e-01 -3.23161244e-01 +2.82863081e-01 -3.68729591e-01 +1.75851882e-01 -3.16265762e-01 +1.30116232e-02 +7.81493485e-02 +1.87120482e-01 +1.06845230e-01 +1.37884498e-01 +4.44463119e-02 -1.01680852e-01 -1.13027863e-01 -3.26499343e-01 -1.03493534e-01 +3.22367936e-01 +1.74707770e-01 -2.03744788e-02 -4.91483361e-02 -9.25826747e-03 +7.24863410e-02 -2.45766401e-01 -7.95510039e-02 +8.00302699e-02 -2.34759122e-01 -3.17636341e-01 -2.06941918e-01 -8.21307525e-02 -2.32679155e-02 +1.47550806e-01 +1.32026240e-01 -5.43640070e-02 -4.25597429e-01 -2.37271756e-01 +1.84163660e-01 -3.85014445e-01 -9.92712677e-02 +2.82422721e-01 -1.17687568e-01 -1.08966649e-01 -1.13921449e-01 -2.12974072e-01 +1.16742276e-01 +3.16649526e-01 -1.06816515e-01 -1.26972958e-01 +3.33269417e-01 +3.57705414e-01 +2.55412012e-01 +6.19730242e-02 -1.22411840e-01 +1.43965438e-01 +2.54949749e-01 -7.72220194e-02 +2.76729494e-01 +2.51194239e-01 -1.30984291e-01 +2.40557060e-01 -4.19707000e-02 +1.18074402e-01 -2.24970669e-01 -1.88502699e-01 +2.66903806e-02 -6.89435378e-02 +2.75074780e-01 -3.14013064e-01 +3.45628202e-01 -9.65225175e-02 -1.56171322e-01 +2.65387505e-01 +1.94690764e-01 -2.23850876e-01 -2.91283846e-01 -1.78426966e-01 +3.36220115e-01 -1.53575959e-02 +6.60902038e-02 +8.32908750e-02 -4.10789669e-01 -1.24295339e-01 -5.76013103e-02 -1.97297081e-01 +3.10698766e-02 -2.44975656e-01 -2.59572029e-01 +2.57934004e-01 +2.01514602e-01 -2.72865176e-01 +2.65812755e-01 -9.12707392e-03 -2.09237844e-01 -1.00591540e-01 -2.64324285e-02 +1.36260778e-01 -1.38505414e-01 -3.64767462e-02 -2.40735650e-01 +1.92892402e-01 -2.34075040e-01 -1.86403543e-02 +8.90816748e-02 -1.11043215e-01 -2.19831303e-01 +3.40742767e-01 +2.22710505e-01 +1.88084930e-01 +1.44368306e-01 +2.46991858e-01 +2.12953404e-01 -5.35964929e-02 +2.39681184e-01 -7.70174116e-02 -8.74720290e-02 -3.79915416e-01 +1.33299142e-01 +2.03926563e-01 -3.64060938e-01 -1.55573487e-01 -4.53445092e-02 +2.94619560e-01 +1.41561151e-01 -8.21618959e-02 +1.18747994e-01 +1.26841292e-01 -1.97867617e-01 -5.99326678e-02 -7.95938894e-02 -2.18049601e-01 -2.42901489e-01 +1.08047679e-01 -1.07129738e-01 -4.11322080e-02 -1.92738190e-01 -2.68896043e-01 -2.09654078e-01 +3.08403164e-01 -1.46299466e-01 -2.08297402e-01 +3.54217529e-01 +2.93507814e-01 -6.65460974e-02 -2.75883108e-01 -4.81087416e-02 -3.29208672e-02 -2.56365746e-01 +1.39361829e-01 -1.50828496e-01 +3.66662621e-01 +1.39680490e-01 +1.35033399e-01 +2.54908919e-01 -1.87019736e-01 +1.32752910e-01 -2.58309394e-02 +6.50893524e-02 -1.97958454e-01 +1.95861429e-01 +1.72142386e-01 +6.94459304e-02 +2.04646975e-01 -4.41971868e-02 -2.96338368e-02 -1.73891351e-01 +2.58738827e-02 +3.79472494e-01 +1.43254176e-01 -4.58895639e-02 -5.83259482e-03 -3.08084488e-01 -3.57459784e-01 +8.14559311e-02 -2.03285515e-01 +2.26854607e-01 +6.31839689e-03 -3.62704217e-01 +1.11970480e-03 +2.48362608e-02 -3.21664870e-01 +1.98103160e-01 -3.82954538e-01 -1.14686929e-01 -3.17764312e-01 -2.63118863e-01 -4.16511029e-01 +3.23839426e-01 -2.50852197e-01 -8.13855603e-02 +8.55228826e-02 -9.36834663e-02 +6.36206120e-02 -3.29543173e-01 -1.72368824e-01 -1.46241650e-01 -3.39621753e-01 +1.36792168e-01 +2.99546152e-01 -2.02051342e-01 +2.75281042e-01 +1.94823071e-01 -2.80227453e-01 +1.68967173e-01 +1.60662159e-01 +9.26842615e-02 +1.55962318e-01 -2.13682592e-01 +2.73584753e-01 +2.70051569e-01 -9.55167115e-02 +7.69212469e-02 +7.92120472e-02 -1.71813577e-01 -1.22329324e-01 -2.44814619e-01 +1.10247612e-01 -2.79111058e-01 -5.61552532e-02 +2.53950685e-01 +7.18506798e-02 -3.50383371e-01 -2.89034933e-01 +8.19667801e-02 +4.55292374e-01 -2.61074424e-01 +3.23664069e-01 +5.66022471e-02 +1.05942607e-01 -2.24330351e-01 +2.99224705e-01 -3.22663277e-01 -3.84262592e-01 +1.26449868e-01 -2.80882806e-01 +3.59570205e-01 -3.60341907e-01 +1.85921565e-01 -2.85043027e-02 +4.19492841e-01 -3.11840605e-02 -1.57500789e-01 +1.13013461e-01 +7.33846352e-02 +3.32966149e-01 -4.70873490e-02 +1.06322832e-01 -2.14963883e-01 +2.47467622e-01 +1.25590503e-01 +3.47997099e-01 -3.50730449e-01 -2.01776713e-01 -1.18522525e-01 -2.05350429e-01 -6.42247349e-02 -1.82445556e-01 +3.53135355e-02 -1.37682604e-02 +9.18543860e-02 +4.08565626e-02 +1.97668567e-01 -1.95350558e-01 +1.56786621e-01 +1.93016991e-01 -3.12354892e-01 +1.91679612e-01 -9.34302658e-02 +2.77502984e-01 +2.24923845e-02 +8.83601606e-02 -2.47894228e-01 +2.42996350e-01 -2.42604971e-01 +7.55263446e-03 +3.83449674e-01 +2.23850667e-01 -3.05118144e-01 +5.76725528e-02 -2.38469929e-01 -1.01100735e-01 -2.96651702e-02 
#Parameter# /b2 {20} 321 ZERO_GRAD
+3.03829797e-02 -1.05714977e-01 +7.55783767e-02 -2.44311258e-01 -5.98896481e-02 -3.47519010e-01 -8.00165012e-02 +3.41271669e-01 +3.69121701e-01 -1.46673515e-01 +2.90792257e-01 +3.22981298e-01 +2.87238777e-01 +3.54039460e-01 -4.99551371e-02 -2.73279548e-01 -3.66170764e-01 -3.20619315e-01 -2.88600534e-01 -1.99583828e-01 
#Parameter# /W3 {20,20} 6401 ZERO_GRAD
+8.75298604e-02 +1.23947427e-01 -1.53752953e-01 -4.58893739e-02 -1.70424610e-01 -3.62418145e-01 +1.70523934e-02 +3.18378597e-01 +2.91835278e-01 -2.20651075e-01 +1.51159063e-01 -2.82741398e-01 -1.67529419e-01 -3.02613467e-01 -4.09783097e-03 -1.22561604e-01 +3.86294812e-01 +5.39782178e-03 -1.15061536e-01 +5.41305207e-02 +1.83989853e-02 +1.16123013e-01 +2.76246518e-01 +3.74856830e-01 +3.61670136e-01 -3.59132467e-03 +2.52347529e-01 -1.52246639e-01 +1.24312840e-01 -2.18191817e-01 -3.13319236e-01 -2.27989763e-01 +2.76899457e-01 -3.26083750e-01 -2.36275211e-01 +8.52629989e-02 -1.91825956e-01 +2.97249526e-01 -3.15609217e-01 +5.24852471e-03 -2.74836600e-01 -6.40591653e-03 -3.46781135e-01 -1.73851937e-01 +1.99354813e-01 -3.90182823e-01 +1.78360641e-01 -2.08971366e-01 +1.60581674e-02 +3.97338808e-01 +4.50287730e-01 -1.02963261e-01 -6.96878210e-02 +2.61137396e-01 +2.31347516e-01 +2.76287198e-01 -2.22556368e-01 -4.04231638e-01 -3.17798972e-01 +2.32792363e-01 +2.14768156e-01 -1.43106550e-01 +2.68793911e-01 +3.84451628e-01 -6.88468218e-02 -1.57766074e-01 +2.08393205e-02 +1.36001378e-01 +3.27763677e-01 -3.00773472e-01 -1.21994475e-02 +4.85481694e-02 +2.04006340e-02 +3.55762273e-01 -3.40425223e-01 +3.17955650e-02 -2.15564385e-01 -2.41156653e-01 -2.21946806e-01 +4.26362455e-02 +2.86141664e-01 -5.58826025e-04 -8.88650790e-02 -1.04775488e-01 -2.01736197e-01 -1.72969654e-01 +5.87218162e-03 +2.80716985e-01 +1.45958662e-01 +6.46885112e-02 +3.80630523e-01 -5.16877733e-02 +3.23991716e-01 +1.27362788e-01 -2.22217470e-01 +2.27562428e-01 -6.64968863e-02 +1.99108437e-01 +3.79108399e-01 +7.95056149e-02 -1.72176972e-01 +1.07167110e-01 +1.53051630e-01 +2.65240878e-01 -3.40441793e-01 -3.29322875e-01 -1.18918657e-01 -3.37147593e-01 -1.42526403e-01 +8.38209763e-02 +1.69926673e-01 +1.37721673e-01 +1.21916123e-01 -2.81429321e-01 -1.14098519e-01 +2.60910809e-01 +1.06907837e-01 +3.85997266e-01 +3.14358026e-01 +5.53462207e-02 +1.87784612e-01 +9.43351686e-02 +1.59795359e-01 +2.33841792e-01 -3.75208288e-01 -2.74988567e-03 +1.59584865e-01 -2.50494331e-01 -8.56705606e-02 +1.56490952e-01 +4.87148054e-02 -2.22140159e-02 +3.11315864e-01 +2.35453159e-01 -5.19103333e-02 -4.77330089e-02 -1.40708968e-01 +2.50120878e-01 -2.76867658e-01 -1.37403354e-01 -2.92874336e-01 +2.37510130e-01 -2.90859342e-01 -3.36593390e-01 -5.38220964e-02 +5.70079638e-03 +3.81318182e-02 +3.14148933e-01 +3.13622087e-01 -3.09972316e-01 -1.03788257e-01 -1.79586057e-02 -2.17766419e-01 +1.36585176e-01 -2.42096484e-01 -2.89414316e-01 -4.64210473e-02 -1.03554249e-01 -5.58787845e-02 +6.09361660e-03 -7.80894533e-02 -1.92079425e-01 +9.46868435e-02 +1.27448633e-01 -1.26739338e-01 +3.73324931e-01 +1.81165025e-01 -2.85533275e-02 -1.21528372e-01 +1.66224122e-01 -3.49649072e-01 -3.60580117e-01 +8.53813142e-02 +2.18323380e-01 -3.71735066e-01 +2.95401573e-01 -1.18426703e-01 +2.38334443e-02 -1.54515788e-01 +1.13068163e-01 +2.13421151e-01 +1.25634745e-01 +1.58982307e-01 +3.69266510e-01 -8.08227733e-02 +1.77455500e-01 +2.81972647e-01 +8.66589174e-02 +5.55794016e-02 -2.98270941e-01 -1.16760194e-01 -6.34716302e-02 -2.81726897e-01 -1.39154583e-01 +5.78576848e-02 +1.81423455e-01 -1.05809711e-01 -3.63981873e-01 -3.74313295e-01 -9.25380439e-02 +1.17246509e-01 +2.41844803e-01 +3.68017644e-01 -3.69970173e-01 +1.05159670e-01 -6.44019097e-02 +3.25873077e-01 +1.75363570e-01 -2.90212352e-02 -3.64149213e-01 -2.43871853e-01 +3.09503287e-01 -1.05286576e-01 -3.54650825e-01 +2.54671544e-01 -3.00425977e-01 +2.41988108e-01 -3.26530188e-01 -3.29022437e-01 -2.04308495e-01 -1.31661475e-01 -1.58444509e-01 +1.99024633e-01 +4.69609052e-02 -2.50429630e-01 -1.30086839e-01 +1.02157015e-02 -1.56488031e-01 +1.04248241e-01 +2.15111509e-01 -7.50817284e-02 +3.53347361e-01 +9.76966918e-02 -2.88971841e-01 +3.25437009e-01 +9.33021531e-02 -8.79927203e-02 +1.49088398e-01 +6.59845993e-02 +3.76335233e-01 +3.30192298e-01 +2.78553694e-01 +2.28050500e-01 +1.77871719e-01 +3.48288208e-01 -3.75524372e-01 -1.07197560e-01 -2.59252638e-02 +1.51235014e-01 -3.12701553e-01 -1.95579678e-01 -1.79736793e-01 +3.97107124e-01 +2.42805049e-01 +2.49009654e-01 +1.07807525e-01 -1.30750462e-01 +2.21528426e-01 -8.12161118e-02 +8.24577585e-02 -3.02538007e-01 +1.34806177e-02 +3.48031074e-01 +3.17058027e-01 -1.25858225e-02 -2.35031128e-01 +1.06799699e-01 +4.25471142e-02 -1.65616915e-01 +2.33420819e-01 -1.84389174e-01 -3.03213269e-01 +3.77918810e-01 -1.85927391e-01 +3.65482301e-01 -2.33909160e-01 +2.46823907e-01 +3.47183347e-01 -1.62922874e-01 -3.12278211e-01 -3.87422413e-01 -3.83672416e-01 -3.05465728e-01 -3.64115089e-01 +3.24232996e-01 -2.27345899e-01 -1.03569232e-01 -1.56676784e-01 +3.71252209e-01 +3.44449610e-01 +3.24217170e-01 +2.47408405e-01 -8.47302303e-02 +4.60131727e-02 -2.54523545e-03 +2.71621644e-01 -1.32492855e-01 -1.50994524e-01 +1.70294255e-01 -3.13775271e-01 +2.65994519e-01 +1.34251371e-01 -1.42976996e-02 -2.97765940e-01 +1.23339675e-01 -3.06487888e-01 +1.25890285e-01 +2.23420076e-02 -1.20750964e-01 +5.14267236e-02 -1.54702559e-01 -3.63856852e-01 -3.21529120e-01 -1.30372062e-01 -3.53266507e-01 -5.56777269e-02 -2.03068137e-01 -3.15007567e-01 -1.28378794e-01 -1.53003037e-01 -3.58171552e-01 +2.43171081e-01 -1.70093903e-03 +1.38591960e-01 -3.66180867e-01 +1.56808078e-01 -3.03033501e-01 -3.49791437e-01 +2.40018368e-01 -2.67336726e-01 +1.78998962e-01 -1.82219911e-02 -2.39295125e-01 -3.14362794e-01 -2.55280554e-01 -1.04205012e-02 -3.49828005e-01 -3.45946625e-02 -1.68019503e-01 +2.51550287e-01 +3.57691914e-01 -3.64877045e-01 -2.03670293e-01 -1.39983669e-01 -2.43677631e-01 -4.29733694e-02 -1.73685327e-01 -1.49947450e-01 -4.71629389e-03 -1.51874185e-01 -3.40326279e-01 +1.86956570e-01 +1.27577543e-01 +8.10764506e-02 +1.39026210e-01 +3.54018569e-01 -1.36835128e-01 -2.47567892e-03 +1.56786188e-01 -1.94513187e-01 +2.20607221e-01 +3.29622895e-01 -4.24565449e-02 +2.84068137e-02 -4.83556427e-02 +2.76330747e-02 +1.70446575e-01 +6.44650981e-02 +1.88987419e-01 +1.49779588e-01 +9.39173326e-02 -3.06298375e-01 -3.14421743e-01 +2.12199792e-01 -2.64204115e-01 +4.64209095e-02 -2.43534178e-01 -1.27097845e-01 -3.07437360e-01 -3.18735063e-01 -7.12893764e-03 -2.41028257e-02 -2.67941117e-01 +4.26181525e-01 -3.31130117e-01 +1.13558128e-01 -4.65015434e-02 -2.80685246e-01 +2.57672518e-01 +9.44659952e-03 +3.28022450e-01 +1.24452777e-01 +1.73233852e-01 -3.29102993e-01 -1.74230352e-01 -2.59262085e-01 -1.77375346e-01 +1.96845410e-03 -2.99586862e-01 +9.00739729e-02 
#Parameter# /b3 {20} 321 ZERO_GRAD
-2.75773257e-01 -2.81148106e-01 +2.70072252e-01 +1.16291702e-01 -2.70747066e-01 +1.30113885e-01 +1.52315870e-01 +3.36263515e-02 +2.67522693e-01 +2.97984630e-01 +1.04080923e-01 -1.61639318e-01 +4.70805839e-02 +7.02035353e-02 +2.24351689e-01 +1.57785639e-01 -8.58931318e-02 +6.82571009e-02 +1.67177171e-01 +2.08648592e-01 
#Parameter# /W4 {20,20} 6401 ZERO_GRAD
+3.70650589e-01 -6.16170429e-02 +2.87428617e-01 +3.28732520e-01 +1.13059670e-01 +2.74381451e-02 +1.79827482e-01 -2.48817086e-01 -3.68091911e-02 -1.67391047e-01 -1.81680918e-02 +3.25255811e-01 +3.84300262e-01 -2.65338272e-01 -3.19553703e-01 +1.14146923e-03 -2.30316833e-01 +1.05138589e-02 -2.80431122e-01 +3.26705277e-01 -2.46251181e-01 -2.70906597e-01 +6.64736480e-02 +2.05293875e-02 +6.89643621e-02 -1.61442719e-02 -8.22423398e-02 -1.83174163e-02 -3.40498418e-01 -1.68142378e-01 -3.03217679e-01 +3.36013228e-01 +4.91537340e-02 -1.05608970e-01 +3.64800036e-01 -1.20266512e-01 +2.56849408e-01 +3.36887896e-01 +3.09777319e-01 +3.38506401e-01 -1.12475947e-01 +2.63640791e-01 -1.71857819e-01 -3.33330929e-01 +5.68031296e-02 -2.32314676e-01 -3.59165311e-01 +2.38216415e-01 -3.35216373e-01 -1.94686770e-01 -2.70075768e-01 +2.48201504e-01 +2.57131219e-01 +1.72658652e-01 +3.31032038e-01 +2.28364542e-01 +3.18634272e-01 +1.43127948e-01 +2.03340903e-01 +8.88592228e-02 +3.92194360e-01 +1.65544197e-01 +1.95876971e-01 -8.57080668e-02 -1.93549216e-01 -2.73430109e-01 +2.00868249e-01 +2.75755022e-02 -1.91075698e-01 -9.99364406e-02 +3.55745345e-01 -2.33988449e-01 +2.67023504e-01 +3.79737347e-01 +1.68283984e-01 +2.36156762e-01 -1.82462052e-01 -1.30052119e-01 +2.68331647e-01 +8.41622800e-02 +3.02430019e-02 -5.45928739e-02 +3.01459104e-01 +7.94905946e-02 -2.34659448e-01 +3.37539226e-01 +3.14162910e-01 +2.85370141e-01 +1.04638413e-01 -3.28382552e-01 +3.93209532e-02 -3.27603035e-02 -2.56451279e-01 -5.93603887e-02 -1.13476261e-01 -2.63145536e-01 -2.24969894e-01 -2.17501685e-01 -2.54685819e-01 -3.50438356e-01 -2.41470024e-01 +1.27169117e-01 +1.47654772e-01 -1.15748219e-01 -2.20832676e-01 +1.86674267e-01 +2.15443209e-01 +2.27302551e-01 -3.39065343e-01 +1.89999968e-01 -3.85376751e-01 +2.41918638e-01 +2.82854080e-01 -2.32943118e-01 -1.24661990e-01 +3.35211128e-01 -2.10107297e-01 -2.81334668e-01 -2.31421277e-01 -4.03035395e-02 -2.98019797e-02 -1.86607942e-01 +1.20734528e-01 -3.76161456e-01 +2.25881487e-01 +1.52436703e-01 +2.77676713e-02 +3.67384963e-02 -1.24609977e-01 +1.09075971e-01 -1.42801121e-01 +1.34780198e-01 -2.58133948e-01 -2.18693361e-01 +1.96304932e-01 +2.43091658e-01 -2.55951971e-01 +1.47762373e-01 +2.73462445e-01 -1.70872152e-01 +3.09219062e-01 -1.66755244e-01 +2.09533960e-01 +1.92654133e-01 +1.38168111e-01 +1.20232642e-01 -3.00966084e-01 -2.34722182e-01 +2.19476432e-01 +3.10155302e-01 +8.04472249e-03 -1.92634925e-01 -1.92471743e-01 +1.71590075e-01 -7.15461373e-02 +3.11577648e-01 -3.76742840e-01 +2.93280452e-01 +2.02319756e-01 +1.43067464e-01 +1.00655183e-01 -1.39479443e-01 -6.94821253e-02 -5.16100675e-02 -1.78943709e-01 +3.38810742e-01 -2.04160288e-02 +1.50984481e-01 +1.78351000e-01 +2.72765577e-01 -2.58333176e-01 -3.75062883e-01 -9.00703892e-02 +3.62786241e-02 +2.06981152e-01 +3.38510275e-02 -1.57441139e-01 -8.44172314e-02 -1.69242501e-01 +3.79579455e-01 +4.12881523e-02 +4.52452479e-03 -2.62059897e-01 -3.23800355e-01 -2.57471323e-01 -1.70939684e-01 -1.71506301e-01 +6.44208789e-02 +1.53606599e-02 -1.39236525e-01 -3.28168005e-01 +2.62817830e-01 -4.09737408e-01 +2.07146034e-01 -2.30417773e-01 -3.23304862e-01 -3.50683868e-01 +9.39458162e-02 -3.47334057e-01 +2.74551690e-01 +1.93482954e-02 -3.09567153e-01 +5.82140163e-02 +2.15079367e-01 +1.27208143e-01 -2.13969469e-01 -3.16934735e-01 -2.90779974e-02 +5.22469282e-02 -2.46753752e-01 +2.81619400e-01 -3.13241929e-01 +2.48012021e-01 -2.44457185e-01 +4.37220722e-01 +4.39667329e-02 -3.34121972e-01 +1.78483799e-01 -1.27859265e-02 -2.70453542e-01 -2.66067475e-01 +1.49077907e-01 -1.26667649e-01 -1.63269997e-01 +6.44736290e-02 +3.56354237e-01 -1.31851122e-01 +2.54902214e-01 -4.27593365e-02 -2.07145944e-01 +2.65719473e-01 -1.32180989e-01 +3.72429371e-01 +3.19308370e-01 +2.87823617e-01 +8.92331079e-03 -2.31264278e-01 -1.72574028e-01 -3.32031339e-01 +9.50159952e-02 +2.48170152e-01 -2.06134453e-01 -7.54451975e-02 +1.41661555e-01 -4.18512821e-02 -1.67670012e-01 -3.56882572e-01 +2.35201180e-01 -2.29240283e-01 -4.02432948e-01 -2.27179989e-01 +9.64878052e-02 +3.52687649e-02 +2.23306462e-01 +7.88625330e-02 -3.14595997e-01 +1.12836100e-01 +1.26183048e-01 -9.86112952e-02 -1.50671810e-01 -9.20228213e-02 +1.16323933e-01 +2.32356176e-01 -2.00405806e-01 +1.15281455e-01 -1.10776603e-01 -2.63117045e-01 +1.09625064e-01 -1.51520461e-01 -2.69755065e-01 +8.18693861e-02 +1.32667631e-01 -1.93781897e-01 -2.78093755e-01 +5.52657619e-02 -3.14803094e-01 +1.55508682e-01 +3.40395004e-01 -2.40383878e-01 -1.23646297e-03 -2.01757759e-01 -3.78549367e-01 -1.06160790e-01 -8.15512314e-02 -1.90771539e-02 +1.90569103e-01 -2.08826050e-01 +1.03746593e-01 -1.30277336e-01 +1.66149542e-01 +1.32792711e-01 +3.02884936e-01 +2.61560261e-01 -3.84848148e-01 -6.14259541e-02 -1.16410688e-01 -2.46517226e-01 +1.04205079e-01 +3.18665355e-01 -3.05040449e-01 +1.46974148e-02 -1.58623144e-01 +2.09634870e-01 -1.98592111e-01 -5.94416261e-03 -1.28554940e-01 -7.08010867e-02 -2.11893052e-01 -6.22747792e-03 +2.56576777e-01 +2.18620583e-01 -4.00210828e-01 -4.10215519e-02 -1.25840632e-02 -1.72358885e-01 +1.79008812e-01 -8.50039124e-02 -3.48941565e-01 +9.76434201e-02 -3.06240857e-01 -2.61692613e-01 +3.27579647e-01 +3.79914314e-01 +1.82062730e-01 -2.13193700e-01 +3.48102927e-01 -3.04949373e-01 -2.79323399e-01 +2.09814250e-01 +1.80020243e-01 +1.60824642e-01 -1.16988517e-01 -1.80789396e-01 -1.07846342e-01 -1.80602714e-01 +6.33012876e-02 -1.37716755e-01 +1.59978583e-01 +2.09145159e-01 +2.01963797e-01 -2.63631642e-01 -3.13175440e-01 -3.70834023e-01 -3.46821278e-01 -1.46852106e-01 +3.22722584e-01 +3.65686208e-01 +3.76347341e-02 -2.61337966e-01 +1.11686282e-01 -1.71491668e-01 -1.79168776e-01 +2.71387964e-01 +5.67087419e-02 -1.79758862e-01 -1.64768651e-01 +1.49172932e-01 +2.59818017e-01 +2.54944503e-01 -2.32701734e-01 -1.38195627e-03 -2.19235048e-01 +1.90537304e-01 -1.89421013e-01 -2.70619422e-01 -3.11953604e-01 +9.72033143e-02 -3.24590862e-01 -1.45818055e-01 -1.56682998e-01 +2.22377032e-01 +2.15905115e-01 +2.76985079e-01 -2.96360403e-01 -1.50895238e-01 +2.54590780e-01 -3.76390666e-01 -2.32935458e-01 +2.76582778e-01 +3.04545671e-01 -2.16460437e-01 +3.69224995e-01 -1.78973928e-01 +1.27567098e-01 -3.44861001e-01 -1.69557720e-01 +2.15436533e-01 +3.67859662e-01 +1.47798046e-01 -1.16881706e-01 -3.05164695e-01 -5.75413480e-02 +2.77013868e-01 +1.23578928e-01 +4.29000199e-01 +1.78083275e-02 -1.23648874e-01 +1.40257910e-01 +1.22016855e-01 +1.96317062e-01 
#Parameter# /b4 {20} 321 ZERO_GRAD
-9.54723284e-02 -2.74485379e-01 -2.50613838e-01 -1.33669049e-01 +1.95408642e-01 +2.40730181e-01 -2.50908345e-01 +8.94060452e-03 -3.45428973e-01 +2.54265249e-01 +4.52941284e-02 +6.46793172e-02 +1.76053897e-01 -1.07034020e-01 -8.86940062e-02 -1.22847473e-02 +6.11374900e-03 +9.83514041e-02 -2.43096463e-02 -5.28409518e-02 
#Parameter# /W5 {20,20} 6401 ZERO_GRAD
+1.35978341e-01 +3.51141781e-01 -3.53811234e-01 -7.78405517e-02 -1.97679102e-02 -4.29338552e-02 -1.33409932e-01 -9.57715809e-02 -1.30569011e-01 -3.31567705e-01 +3.41874063e-01 +2.99060762e-01 -4.19291884e-01 -3.88361476e-02 +2.50322014e-01 +2.39147097e-01 +2.90901333e-01 -2.23392367e-01 -3.08760583e-01 -1.32039458e-01 -3.22047293e-01 +2.26545125e-01 +2.73988515e-01 +3.16908687e-01 -4.76433858e-02 -1.84988067e-01 +1.89694658e-01 -2.51425833e-01 +2.47070491e-01 +2.69199014e-01 -2.89339602e-01 +3.24020654e-01 -8.26723725e-02 +1.53029338e-01 +1.83728769e-01 +2.79561818e-01 -3.84729952e-01 -3.48139435e-01 -3.05749178e-01 +8.58498514e-02 -2.35541508e-01 +2.54539549e-01 -5.28781824e-02 +1.29318640e-01 +1.77234665e-01 +3.50782573e-01 -3.19513418e-02 +3.75364631e-01 +2.21731931e-01 +3.50908972e-02 +2.09692687e-01 -2.39118606e-01 -3.57416928e-01 +3.71923327e-01 -2.01451540e-01 -1.79508284e-01 +4.09523677e-03 -2.21191123e-02 +1.65567458e-01 +2.46530116e-01 +1.10124141e-01 -2.25414783e-01 +1.75298434e-02 -1.20112188e-02 +1.77582577e-01 -3.31533015e-01 -3.32048953e-01 +1.72769263e-01 +2.32125357e-01 -2.01591998e-02 -5.86566031e-02 -2.73118705e-01 +6.62674010e-02 +1.95250198e-01 -3.09341848e-01 -3.17416757e-01 +1.65180609e-01 -2.62137741e-01 +6.01794831e-02 +2.40084723e-01 +4.97344658e-02 -1.70294806e-01 -2.74868935e-01 +3.15399826e-01 +2.91818082e-01 -1.86939225e-01 +2.26265490e-02 +2.52749771e-01 +2.52527922e-01 +2.89195925e-01 +1.84615687e-01 +1.06051918e-02 +3.22881430e-01 +1.57133490e-01 -7.71268159e-02 -3.25731859e-02 +1.34109676e-01 -3.39414269e-01 +1.79460526e-01 +3.40956710e-02 +1.75153669e-02 +5.57117686e-02 -9.28075146e-03 -1.09462477e-01 +2.76468366e-01 -2.95456976e-01 -2.34387502e-01 +2.33806178e-01 -7.37213865e-02 -1.79820344e-01 +4.45825271e-02 -1.00263290e-01 -2.98994392e-01 -6.78165257e-02 -1.98058784e-01 +1.70523658e-01 -1.72551259e-01 -1.62289336e-01 +1.01563752e-01 +2.16265559e-01 -7.04294145e-02 -2.30079904e-01 -3.44670266e-01 +3.09346706e-01 -3.54503319e-02 -7.97599927e-02 -1.82353288e-01 -3.09105098e-01 +1.23765774e-01 -1.62717670e-01 +5.69331609e-02 -6.43377304e-02 +1.84169989e-02 -1.23444341e-01 -2.10495830e-01 +1.53639689e-01 -2.20223233e-01 +2.28513241e-01 +2.66050249e-01 +1.92613795e-01 -3.36867124e-01 +1.88629776e-01 -3.47103357e-01 +1.96139827e-01 +8.87946561e-02 -3.54919672e-01 -2.52989888e-01 -1.19489282e-01 +3.43801051e-01 +5.62464446e-02 +2.18882322e-01 -2.02174529e-01 -1.03126802e-01 -1.23803489e-01 +2.42741823e-01 +2.04168215e-01 -1.19603336e-01 +1.78500652e-01 +4.90728877e-02 -9.41690803e-02 -1.05367616e-01 +1.19767442e-01 +1.90677240e-01 +6.60635829e-02 -1.60215825e-01 -1.08181328e-01 +3.41861159e-01 +1.02255575e-01 -1.48065552e-01 -1.70412704e-01 +2.42750734e-01 -4.85812835e-02 -4.11844775e-02 -7.00741708e-02 +3.11341941e-01 -2.60804683e-01 -9.93684400e-03 -3.18860114e-01 +1.30563453e-01 +3.67333561e-01 -1.42983899e-01 -3.20807308e-01 +1.00921750e-01 +2.84521043e-01 -4.52079140e-02 +3.09032142e-01 +1.12318166e-01 +3.30066502e-01 -2.03003362e-01 -2.55408973e-01 -2.79139966e-01 +1.46693110e-01 +2.95631200e-01 -2.62346980e-03 -2.09466279e-01 +3.26989770e-01 +8.06089863e-02 +8.36725533e-02 +3.36761504e-01 +4.13729586e-02 -2.43303940e-01 -3.75935227e-01 +8.59832987e-02 -2.51258850e-01 +3.58805954e-01 +1.85027242e-01 +2.12347746e-01 -3.30214232e-01 +2.59470582e-01 +1.28772959e-01 -2.62964875e-01 -1.21144332e-01 +2.89405882e-01 +3.67093384e-01 -1.18759558e-01 -3.36715847e-01 -1.03047021e-01 +5.48243225e-02 -2.82082171e-03 -2.23418355e-01 +2.72927284e-01 -3.00993383e-01 -2.45537072e-01 -3.54715556e-01 -1.03215061e-01 +1.96788266e-01 -3.60745966e-01 +1.60308555e-01 +2.31400192e-01 +1.99950561e-01 -2.73091570e-02 +2.38652214e-01 -2.69271016e-01 +1.73697963e-01 +2.53415912e-01 -1.19891822e-01 +1.87693894e-01 +3.12742889e-01 +3.58538866e-01 -1.92719042e-01 +3.54475617e-01 -2.80383408e-01 +3.01672015e-02 -2.80678272e-01 +1.56423181e-01 -3.23230445e-01 -1.48599684e-01 +1.14735447e-01 -3.78108591e-01 -2.64872432e-01 -2.73369223e-01 +2.31706500e-01 +4.01260376e-01 +2.24999696e-01 -5.60043892e-03 -1.50627628e-01 -3.25885229e-02 +3.13540101e-02 -8.78094062e-02 +9.63444337e-02 +9.88536850e-02 +6.93060607e-02 +1.03184447e-01 -2.57941216e-01 -1.24697655e-01 +2.50380158e-01 +2.18386203e-01 -1.41504467e-01 -5.90631925e-02 -4.87950966e-02 -3.75707269e-01 +3.57565880e-01 +1.67843312e-01 +2.48991519e-01 +1.42680526e-01 -1.03796795e-01 -2.07592309e-01 +1.68792516e-01 +2.21866906e-01 +4.71044779e-02 -1.51006818e-01 +1.76582009e-01 -1.34093001e-01 -3.28548193e-01 -2.65800834e-01 +8.65655541e-02 -2.05213502e-01 -3.42657238e-01 -2.38383546e-01 +2.17552297e-02 -3.02656531e-01 -2.59154141e-01 -9.04546604e-02 -3.60361218e-01 -1.23511106e-01 -7.63163045e-02 -3.45152527e-01 -1.51970506e-01 -3.62203538e-01 +1.25030145e-01 +3.34087878e-01 +3.05346310e-01 +3.20813477e-01 +1.54094100e-01 +2.81973898e-01 +2.72379845e-01 -3.89458895e-01 +8.07177946e-02 +7.81067237e-02 -2.40691185e-01 -2.74768770e-01 -1.89445063e-01 +6.33482635e-02 -6.61315694e-02 +2.26114377e-01 +3.12631339e-01 -3.48170996e-01 -1.97022229e-01 -1.57603398e-01 -2.52012331e-02 -4.57457826e-02 -3.76322538e-01 +1.44439619e-02 +2.45461583e-01 +2.06387132e-01 +1.52866393e-01 -1.39820635e-01 +1.43134221e-01 +6.79344907e-02 +1.64099917e-01 -2.24555522e-01 +1.77877188e-01 +2.30540216e-01 -1.00597307e-01 -3.25057894e-01 +3.23630005e-01 -2.98220992e-01 -6.86766207e-02 +2.28814542e-01 +2.32317910e-01 +1.74463466e-01 -1.04070850e-01 -2.91703999e-01 +6.57090545e-02 +2.86229402e-01 +3.21924031e-01 -2.64812440e-01 -1.54038146e-01 +1.72420025e-01 -1.29020765e-01 -3.08829665e-01 -7.19101951e-02 -3.64251792e-01 -1.45959243e-01 +2.32510522e-01 -1.94190323e-01 -1.53166234e-01 +1.49032682e-01 -2.51609623e-01 +3.39026034e-01 +2.09848747e-01 +1.53597593e-01 +2.71971375e-02 -6.70940429e-02 -1.70601100e-01 -2.43483499e-01 -3.67803365e-01 -2.84535050e-01 -1.73287913e-01 -3.03954780e-01 -6.41182065e-03 -2.17556775e-01 +1.56262040e-01 -2.57398188e-01 +2.76697129e-01 -3.80747765e-01 +3.52809697e-01 +1.64419472e-01 -1.95714101e-01 -3.21598023e-01 +1.36338145e-01 -2.74805665e-01 +1.09336525e-01 -2.45093077e-01 +3.90291035e-01 +4.45961952e-02 -2.43503600e-02 -1.24723949e-02 +1.59939736e-01 +3.57471883e-01 -6.34004325e-02 -9.11575649e-03 +1.76735111e-02 -2.93020159e-01 +2.46560365e-01 -2.87118375e-01 -3.71065319e-01 +1.85599014e-01 -3.69454950e-01 -2.47179061e-01 
#Parameter# /b5 {20} 321 ZERO_GRAD
-3.52437533e-02 -9.80064496e-02 -2.33972892e-01 +2.21528396e-01 +8.52437988e-02 -2.87814260e-01 +1.64623663e-01 +2.12827384e-01 +8.84632841e-02 +1.37760729e-01 -1.98522672e-01 +2.44064897e-01 +1.21080220e-01 -2.78165907e-01 -3.41456234e-01 -2.66255796e-01 +5.04551418e-02 -2.06863001e-01 -1.98761463e-01 +1.71570078e-01 
#Parameter# /W6 {20,20} 6401 ZERO_GRAD
-3.42126280e-01 -1.36515021e-01 +2.65931815e-01 +1.67887777e-01 +1.14800362e-02 -3.30789179e-01 -1.36700384e-02 -2.99482524e-01 +1.35343879e-01 +2.09964290e-01 +3.09085101e-01 +9.75519121e-02 -4.88801189e-02 -4.87072766e-02 +2.00837284e-01 -3.34525555e-01 +1.68535963e-01 -1.19609475e-01 -1.83865279e-01 -2.60914743e-01 +3.72498095e-01 -2.23702908e-01 -2.67496049e-01 +1.65958881e-01 +3.63208681e-01 -2.27054775e-01 +1.33305952e-01 +3.70020777e-01 +6.60548881e-02 +2.90777653e-01 -3.04320306e-01 -2.14979157e-01 -1.16595529e-01 -6.27805218e-02 +2.55927593e-01 +1.91028595e-01 -4.20687720e-02 -1.98069125e-01 +3.48999888e-01 +3.64802271e-01 -3.46549749e-01 -9.48997512e-02 +4.62842025e-02 +4.95392568e-02 -8.18553790e-02 -1.79984778e-01 +2.23482922e-02 -1.29725114e-01 -1.12221785e-01 +1.87075242e-01 -8.36329982e-02 -3.00102141e-02 -1.24245644e-01 -2.11243004e-01 +1.07858606e-01 +3.59098434e-01 +3.80625993e-01 -2.79740214e-01 +8.71428056e-04 +2.88901925e-01 -4.08297062e-01 +2.74129748e-01 -1.32089034e-01 +4.25178349e-01 -3.78594041e-01 +3.36506575e-01 +9.52000171e-02 +2.10661635e-01 -1.35673881e-01 +7.24151134e-02 -3.70305449e-01 -3.27810913e-01 +1.81667179e-01 -1.37011513e-01 -6.36948496e-02 -1.20890997e-01 +3.10968578e-01 +3.62337440e-01 -1.61093324e-01 -3.50179315e-01 -1.87669024e-01 +5.37782870e-02 +5.31720817e-02 +9.23493132e-02 -2.17897281e-01 +8.70762691e-02 -1.89961299e-01 +3.60366516e-02 -3.78872693e-01 +7.97266513e-02 +2.31417432e-01 -1.58098325e-01 -5.07105794e-03 -2.81445175e-01 +2.08169729e-01 -1.54122114e-01 +3.60064358e-01 +2.09878772e-01 -6.32936805e-02 -1.79880694e-01 +2.46402606e-01 +5.34865484e-02 +2.93368131e-01 +2.25033909e-01 +3.08036715e-01 +3.02481502e-01 -1.14749335e-01 +3.61490428e-01 -3.81511271e-01 -2.12316677e-01 +2.48062715e-01 -2.67837700e-02 -3.53714257e-01 +1.09935895e-01 -2.69083053e-01 +2.87590206e-01 +2.97645599e-01 -7.26512633e-03 -7.69848228e-02 -4.31901701e-02 +2.74435282e-01 -3.37585300e-01 -1.23238273e-01 +9.87503398e-03 +3.16509694e-01 +2.71129489e-01 -1.67766929e-01 +3.92784774e-02 +1.97484896e-01 -3.36304694e-01 -1.60869643e-01 -3.84537548e-01 +3.48744750e-01 -7.08945617e-02 +1.14157654e-01 -2.16997653e-01 +3.42111915e-01 -2.48227715e-01 +2.32706472e-01 -2.41942704e-01 -2.40690768e-01 -1.94883540e-01 -1.13425404e-01 +1.74625561e-01 -1.23992927e-01 +3.04712832e-01 -8.92976373e-02 -2.97786444e-01 -1.81026906e-01 +6.82367086e-02 -3.63402128e-01 -1.26241714e-01 +4.00928766e-01 -2.45808184e-01 +1.73695803e-01 -3.32547724e-01 -2.98355725e-02 -1.06351934e-01 -9.83588398e-02 +1.53546304e-01 +2.50000000e-01 +1.86952382e-01 +1.87834427e-01 -1.71159819e-01 +1.88707083e-01 +3.63454670e-01 -2.66565204e-01 +7.52244890e-02 +1.45690486e-01 -9.40668359e-02 +2.94358999e-01 -4.30976693e-03 +3.68944407e-01 -1.92340314e-01 +2.96509892e-01 +1.09621868e-01 +1.57551710e-02 -2.14835048e-01 -2.04842061e-01 -4.34274003e-02 +1.61252037e-01 +3.84766608e-01 +3.01134497e-01 +3.11991870e-01 +2.14890167e-01 +2.82273024e-01 +2.54767805e-01 +3.01755667e-01 +3.00272256e-01 +1.65109448e-02 +9.80144218e-02 +3.52463007e-01 +2.52113134e-01 -2.04997300e-03 +2.92689264e-01 +5.40766530e-02 +1.91135019e-01 -3.40869933e-01 -2.87629843e-01 +1.08669713e-01 -6.35040179e-02 -1.73966303e-01 +8.20283964e-02 +1.72811702e-01 +3.29573333e-01 +6.15471639e-02 -1.52483925e-01 +3.33947986e-01 +1.25377132e-02 +3.86500619e-02 -1.23768151e-01 +1.17122665e-01 -3.78664792e-01 -3.68745327e-01 -9.13670193e-03 +2.50487685e-01 +1.20871911e-04 +1.22905217e-01 +3.46156150e-01 -1.50288388e-01 -2.26628557e-01 +2.03321293e-01 -5.06801382e-02 +1.44711107e-01 -3.17371607e-01 -9.16179121e-02 +4.81934994e-02 -1.77812353e-01 -4.97092009e-02 +2.88704634e-01 -3.52555245e-01 +2.10492313e-01 -2.73664296e-01 +2.12935638e-02 -3.25524598e-01 +1.43323943e-01 -6.48736879e-02 +1.58526540e-01 +1.83748454e-01 -2.08105966e-01 +1.44436017e-01 -2.21541207e-02 -2.27673441e-01 +3.56088057e-02 -2.98585862e-01 -3.76315653e-01 -3.50980073e-01 -1.62693605e-01 -1.40474707e-01 -1.67084843e-01 +2.10585326e-01 +1.38102397e-01 -1.69300213e-01 +1.36132568e-01 -2.86472172e-01 +7.82963708e-02 +2.54257202e-01 +1.00624867e-01 -2.24972010e-01 +1.97134078e-01 -7.37019032e-02 -3.42593938e-01 +3.52702796e-01 +1.97096705e-01 -1.15510011e-02 +2.78643787e-01 -1.15506314e-02 +3.29195023e-01 +2.87458837e-01 +5.87646151e-03 +3.03854436e-01 -5.53246625e-02 +2.14419052e-01 +2.60098398e-01 +6.66830167e-02 -1.76439628e-01 +8.08737427e-02 -3.24760616e-01 -3.35834593e-01 +3.64525169e-01 +2.57812947e-01 +1.29686430e-01 +1.94492176e-01 +2.04773601e-02 +1.16519891e-01 +2.96892017e-01 +2.89567500e-01 +3.16149861e-01 +1.20955214e-01 +2.62370795e-01 +2.15164885e-01 +3.31813902e-01 +1.24456272e-01 +1.86477512e-01 +2.30698660e-01 +1.71058863e-01 +1.12567671e-01 -3.35714638e-01 +2.05255568e-01 +3.46892953e-01 +4.39402647e-02 -2.80998833e-02 -3.18017572e-01 -2.88467079e-01 -3.80953103e-01 +2.71027088e-01 +1.45350650e-01 -1.85928300e-01 +1.12235531e-01 -1.30398750e-01 -3.54938656e-01 +2.09736824e-01 +3.28653693e-01 +3.75084788e-01 -2.01935306e-01 -3.67317319e-01 +3.65960479e-01 +1.57871276e-01 +2.82192379e-02 -1.47563085e-01 +1.07048541e-01 +8.41620937e-02 +1.16221055e-01 +2.97800750e-01 +2.52487272e-01 -1.97499484e-01 +8.04360025e-03 +1.62476581e-02 +1.60735659e-02 -2.28770673e-01 -3.03949207e-01 +1.23114131e-01 -3.30555812e-02 -3.87311950e-02 -2.58802623e-01 +3.52946669e-01 -2.92114049e-01 -3.61247867e-01 +3.38109314e-01 +2.38397539e-01 +1.96011469e-01 +2.91287690e-01 +2.50325680e-01 -1.50640264e-01 +3.65857959e-01 -6.07533120e-02 -2.97841430e-01 -3.44131261e-01 +2.59178638e-01 -1.26174390e-01 -2.23074526e-01 +7.96469226e-02 -3.54848832e-01 +3.20143223e-01 -3.72917056e-02 -3.86174917e-01 -8.34516585e-02 +8.88349637e-02 +1.47276849e-01 -2.56153405e-01 -8.28411877e-02 -1.74820855e-01 +6.29079193e-02 -7.75799826e-02 +2.20373780e-01 +2.77786702e-01 -3.61365885e-01 -1.35724962e-01 +1.18007824e-01 -5.77651858e-02 -2.68447757e-01 -6.62049800e-02 -1.81814253e-01 -3.39284956e-01 +1.60643384e-01 +3.25918913e-01 +2.13935390e-01 +1.35213152e-01 +1.96128294e-01 +1.19299233e-01 -2.75993735e-01 -2.16915056e-01 -4.78639416e-02 +2.29285210e-02 -3.23992550e-01 +1.91191174e-02 +1.02259375e-01 -2.48864904e-01 +9.42471251e-03 -3.32006484e-01 +1.14918046e-01 -1.32886440e-01 -3.32055576e-02 -2.18845028e-02 +8.18879530e-02 -2.83137590e-01 +1.88347891e-01 -2.79389054e-01 -5.47720529e-02 -1.26421312e-02 
#Parameter# /b6 {20} 321 ZERO_GRAD
+5.21432310e-02 +9.50309169e-03 +1.39739409e-01 -1.60238326e-01 +1.21757299e-01 -3.66339982e-01 +1.45955190e-01 -1.68723073e-02 +1.16249241e-01 +8.81621167e-02 -2.56319463e-01 -9.83810425e-02 +1.35988563e-01 +1.71398044e-01 -2.80233115e-01 -2.81465709e-01 +4.25865427e-02 -1.14792921e-01 +1.13030344e-01 +2.63504102e-03 
#Parameter# /W7 {20,20} 6401 ZERO_GRAD
-3.74659568e-01 +5.13708852e-02 -2.26562589e-01 -2.07944199e-01 -3.65217216e-02 +6.15741126e-02 +3.81732792e-01 -3.65559608e-01 -2.21953437e-01 -1.58207640e-01 -3.82072657e-01 -2.87660033e-01 -1.26492053e-01 +7.02035055e-02 +2.04187587e-01 +1.95150226e-01 -3.79747190e-02 -2.83852935e-01 -2.20948398e-01 +2.44612753e-01 +4.88798926e-03 -1.69344217e-01 +1.41828045e-01 -2.88640112e-01 -1.03433095e-01 -8.29410106e-02 -3.11761588e-01 +2.88110990e-02 -2.01551393e-02 -1.23643100e-01 -3.69688809e-01 +2.43952852e-02 +2.62441278e-01 +2.22723797e-01 -7.64040835e-03 -1.56355593e-02 -2.68948674e-01 +1.98428422e-01 -2.91109979e-01 -2.87228078e-01 -2.89464951e-01 -2.59379387e-01 -3.78895581e-01 -2.18801219e-02 -1.23090938e-01 -2.32447580e-01 -2.14644060e-01 -2.46010095e-01 +3.22333872e-01 -1.52280135e-02 -7.50106052e-02 -1.61928087e-01 +2.06961766e-01 +3.43777895e-01 +9.44982544e-02 +1.66094735e-01 -1.55285731e-01 -1.15216777e-01 +1.19434349e-01 +1.61625952e-01 +1.39823198e-01 -2.21044272e-01 +2.76023746e-01 -3.16310734e-01 +1.49552390e-01 +1.39325604e-01 +1.91358298e-01 -5.97483963e-02 +3.91771831e-03 -1.03887215e-01 -1.65847793e-01 -8.06104690e-02 -7.60083497e-02 -1.69811174e-01 +7.19054639e-02 +8.29150602e-02 -2.76455760e-01 +2.40453601e-01 +4.37630534e-01 -3.25449705e-01 +2.79381394e-01 +3.75984639e-01 -2.41637453e-01 -3.30115616e-01 -1.46655917e-01 -2.77362555e-01 +3.74461144e-01 +1.68456748e-01 -1.89667076e-01 +2.74549276e-01 +1.27194365e-02 -2.49506399e-01 -2.47642323e-01 +3.60351831e-01 +5.88847138e-02 +9.94516164e-02 -3.06903124e-01 +5.21018840e-02 +1.91361383e-01 -7.12546632e-02 +3.61775696e-01 +5.71989603e-02 +1.41361222e-01 -2.13256836e-01 -2.25635946e-01 +1.84744388e-01 +8.94378312e-03 -1.37308434e-01 -1.68316811e-01 +3.26524526e-01 -3.30763489e-01 -2.33830765e-01 -3.15193802e-01 +2.91034520e-01 +2.63421535e-01 -1.80885140e-02 -1.37648568e-01 -3.66293401e-01 -2.42644936e-01 -3.09192747e-01 +2.20410991e-02 +3.41590017e-01 -6.65564910e-02 -2.04291105e-01 +3.21560204e-01 +1.86607420e-01 +3.39252532e-01 +1.28581628e-01 +3.91159430e-02 -2.77730197e-01 -3.43796194e-01 -1.38962373e-01 +2.87224874e-02 -3.00551746e-02 -2.68957138e-01 +2.21038654e-01 -3.30996782e-01 -1.95343390e-01 -2.37141624e-01 +2.89379686e-01 -2.84309447e-01 -2.25662231e-01 +3.36605877e-01 +9.23757777e-02 +2.16681242e-01 +7.87101761e-02 +1.51700154e-01 +2.46930048e-01 -2.85693049e-01 +3.66411746e-01 -2.85272360e-01 +3.76851380e-01 +3.39912564e-01 +7.19858110e-02 -2.78761864e-01 -3.71159524e-01 +3.26617032e-01 +1.95493937e-01 +9.77603197e-02 -2.18095854e-01 +7.33572990e-02 +3.97130661e-02 +2.48451889e-01 +1.72537893e-01 +1.52892232e-01 +2.09939137e-01 -2.11599752e-01 -1.34089172e-01 +3.01077869e-02 -3.53538632e-01 +3.62323791e-01 -2.75745559e-02 -2.19653144e-01 -6.72776103e-02 +1.60532936e-01 +3.21490586e-01 -8.54530707e-02 +4.55456413e-02 +2.34222800e-01 +4.49437313e-02 +1.22754797e-01 -8.34623277e-02 +1.99518532e-01 -1.85423732e-01 +9.85297635e-02 +1.55743420e-01 +1.66837424e-02 -3.21605615e-03 +5.89478463e-02 -2.26713240e-01 +3.03650886e-01 +2.46602744e-01 -1.03932992e-01 +1.11330748e-01 -3.30300838e-01 -2.76032090e-01 -4.67146337e-02 -2.24160388e-01 +1.52578130e-01 +3.35957021e-01 +3.03854346e-01 -1.57578140e-01 -2.74278551e-01 +1.55306965e-01 -3.82507116e-01 -1.04866624e-01 +1.95036957e-03 +7.11652040e-02 +9.18582529e-02 -2.02642605e-01 +1.54476523e-01 -2.58839935e-01 +1.75451070e-01 +7.69315809e-02 -3.16930681e-01 -2.92706043e-01 -1.14228344e-02 +1.05622917e-01 -1.06515093e-02 +4.60135080e-02 -2.85852611e-01 +2.05195695e-01 +9.34602544e-02 -2.81403475e-02 -1.58745468e-01 -1.23362415e-01 -2.61376679e-01 +1.45460755e-01 +3.06702465e-01 +2.77939796e-01 -1.16404332e-01 +3.43464792e-01 +2.46922895e-01 +2.76718825e-01 -3.63467336e-01 +3.85001421e-01 +1.01215310e-01 +5.28101288e-02 +3.00247073e-01 -2.75478572e-01 +3.27676147e-01 -3.27378571e-01 +1.10307023e-01 -1.98383391e-01 -2.35636577e-01 +1.80845246e-01 +1.78754166e-01 +3.43037009e-01 +9.86152962e-02 -3.59476656e-02 +1.86345562e-01 -4.10764724e-01 -2.62539595e-01 -4.06813651e-01 +5.79905212e-02 -2.31872037e-01 +3.53242867e-02 -2.96099991e-01 +2.92362452e-01 +1.55087188e-03 -3.37457418e-01 -1.31845117e-01 +2.79242784e-01 +1.04202718e-01 +2.02943087e-01 -3.25176954e-01 +3.42605382e-01 -1.44979790e-01 +3.49821925e-01 -1.04856612e-02 -1.94193706e-01 -1.63198352e-01 -3.32103223e-01 +7.20442757e-02 -3.48902076e-01 +9.96933803e-02 +5.62836453e-02 -3.42188507e-01 -2.73712099e-01 -2.95694560e-01 +7.14578405e-02 -2.12683126e-01 -2.78771520e-01 +3.71077091e-01 -3.40959430e-02 -2.60718882e-01 -1.59283653e-01 +2.93687016e-01 -2.37706974e-01 -3.82630408e-01 +3.70932706e-02 -2.95194328e-01 -1.32996067e-01 -1.68136060e-01 +3.09011310e-01 +2.33618647e-01 -3.00885737e-01 +3.32501009e-02 +2.99493313e-01 -2.52576917e-01 +3.28254879e-01 +2.79236734e-01 +2.27936357e-02 -2.75201529e-01 -1.50104076e-01 +2.60283977e-01 -3.42427224e-01 +3.09456557e-01 -8.81709531e-02 +3.28201830e-01 +3.53535295e-01 -2.33611744e-02 +2.26928011e-01 +2.07869813e-01 -2.71809578e-01 +3.08100045e-01 -3.17278355e-01 +2.48808771e-01 +2.25541815e-01 +6.27841353e-02 -4.78515737e-02 -3.82885545e-01 -1.51181698e-01 -1.31520674e-01 -2.39300802e-01 +1.24568708e-01 +2.93083519e-01 -2.75284767e-01 +2.21836999e-01 -5.73282354e-02 -1.97278664e-01 -1.79662958e-01 -9.73211750e-02 -3.45053792e-01 -3.97029996e-01 -1.75550416e-01 -2.49428734e-01 +1.17448874e-01 -1.45568296e-01 -3.71221960e-01 +1.50346349e-03 -3.57886463e-01 +8.41949955e-02 +4.57527898e-02 -5.88439815e-02 +1.96462460e-02 -9.92847458e-02 -3.75054091e-01 -2.36609116e-01 +1.88791491e-02 +1.05858982e-01 -4.27947678e-02 +2.97710486e-02 -1.80383056e-01 +1.06434815e-01 -1.16717711e-01 -2.16483146e-01 +2.48775467e-01 +1.30167082e-01 -1.19274072e-01 +1.79613397e-01 +3.19551528e-01 -3.86215955e-01 +3.19315732e-01 +2.60378301e-01 -1.18228137e-01 +2.67747343e-01 -2.87666842e-02 +8.93985257e-02 -3.77178550e-01 +7.22760800e-03 +2.56414741e-01 +3.06481868e-01 -2.93137044e-01 -3.32099907e-02 -2.64661759e-01 -2.40225106e-01 +5.27536832e-02 -5.82039133e-02 -1.36887804e-01 +3.08749735e-01 -1.94638714e-01 +3.47504765e-01 +1.62033811e-01 +2.75759190e-01 -2.51682550e-01 -2.64730692e-01 -3.50909591e-01 -3.06151897e-01 -1.81230232e-01 +3.58029753e-01 +6.09213263e-02 +1.33196801e-01 -3.33573669e-01 -2.31982023e-01 +3.26088160e-01 +3.57826978e-01 +2.48042047e-01 +2.74165541e-01 -1.51026264e-01 
#Parameter# /b7 {20} 321 ZERO_GRAD
-1.50767602e-02 +1.81613207e-01 -1.84416115e-01 -2.36256495e-02 +4.98722084e-02 -1.03318421e-02 -2.58192062e-01 -3.66590470e-01 -1.26592532e-01 -9.08679739e-02 -9.06237215e-02 +1.47706047e-01 -3.52483388e-04 +2.70114876e-02 +9.42263752e-02 -3.93101163e-02 +5.99455796e-02 +1.68571658e-02 +3.97739001e-02 +6.33737817e-03 
#Parameter# /W8 {6,20} 1921 ZERO_GRAD
-1.27496883e-01 -1.77282199e-01 -2.20778525e-01 +8.42292011e-02 +1.58962220e-01 -1.80239648e-01 -1.28408879e-01 -1.14074439e-01 +2.88894981e-01 +8.76415595e-02 -9.00680199e-02 -1.76658168e-01 +7.05679879e-02 +1.40157640e-01 -1.63338780e-01 -6.07473105e-02 +1.35971650e-01 +3.14024359e-01 -6.70187268e-03 -4.27821219e-01 -4.57773477e-01 -3.93779397e-01 -4.12042774e-02 +2.37120718e-01 +2.10229337e-01 +1.88279137e-01 -5.63736334e-02 -1.20423913e-01 +1.93646908e-01 -2.13658392e-01 +7.75056183e-02 -1.28699049e-01 -2.20553339e-01 -8.41284245e-02 -1.64707787e-02 -1.13028862e-01 +1.65353231e-02 -1.94080248e-01 +3.39780778e-01 +1.24890059e-01 +9.61262062e-02 +2.16971517e-01 +9.24578011e-02 +9.16815028e-02 -1.07797235e-01 +2.41795287e-01 +1.68388888e-01 +3.22377026e-01 -3.19212615e-01 -1.89469576e-01 -1.82244316e-01 +5.07218316e-02 +7.69661367e-02 -5.13556115e-02 +2.11721614e-01 +8.40475559e-02 -2.65425257e-02 -4.57222968e-01 -3.16886425e-01 -1.31244838e-01 +2.31365800e-01 +4.14789528e-01 -2.15925798e-01 -3.29727352e-01 -2.46576458e-01 -4.29803208e-02 -2.97340333e-01 -1.77311063e-01 -8.49961489e-02 +1.06385490e-02 +2.39160448e-01 +7.73136839e-02 -3.42092603e-01 +2.34242350e-01 -1.09536752e-01 -2.05798671e-02 +2.26724967e-01 +4.41531450e-01 -2.03438163e-01 -1.40906006e-01 +4.34140503e-01 -4.59155619e-01 -3.30800563e-01 +4.04546827e-01 +4.02625054e-01 +4.24876183e-01 +1.29163980e-01 +3.54237348e-01 -3.85710001e-01 +2.89925963e-01 +3.67244452e-01 -4.10134584e-01 -5.98665364e-02 +1.70843348e-01 +3.79014075e-01 +1.91357180e-01 +1.25221655e-01 +2.13623762e-01 +4.04232681e-01 -1.15503915e-01 +4.40588921e-01 -1.23664916e-01 +1.98980421e-01 -1.41173795e-01 -2.62833893e-01 +1.94301948e-01 +2.99272388e-01 -1.51779838e-02 -1.83825105e-01 +1.40746564e-01 +3.61386478e-01 -1.80625111e-01 +5.86946458e-02 -1.07529469e-01 -2.63339460e-01 -3.26374441e-01 -1.96267232e-01 -8.74372646e-02 -2.64375538e-01 -4.16858613e-01 
#Parameter# /b8 {6} 97 ZERO_GRAD
+2.43661590e-02 +2.73365285e-02 -1.49964290e-02 +1.81660503e-02 -1.00250179e-02 +2.32677348e-02 
