#Parameter# /_0 {20,24} 7681 ZERO_GRAD
-2.85724431e-01 +2.85665616e-02 +2.52147019e-01 -1.02669381e-01 +9.74049568e-02 -2.54148811e-01 +2.21799150e-01 -1.82255492e-01 +3.48251224e-01 -1.95323467e-01 -2.91458488e-01 -1.99411940e-02 +2.48243973e-01 +2.72157460e-01 +4.57437783e-02 +1.93449408e-01 -3.05714399e-01 +2.75053471e-01 +2.46478155e-01 +1.11915320e-01 -1.73886761e-01 +3.18443030e-01 -2.80053824e-01 -5.09554707e-02 -3.51854414e-01 -6.36002496e-02 -6.50247484e-02 -2.93563336e-01 -3.09746116e-01 +1.33157432e-01 +2.94813752e-01 -3.52216333e-01 +2.28161573e-01 +1.84353352e-01 +2.24017888e-01 -7.16263577e-02 -1.50870141e-02 -2.45636657e-01 +6.87180385e-02 +3.72092158e-01 +1.04323149e-01 +2.01991841e-01 +4.15721498e-02 +9.76937264e-02 +1.73442826e-01 -3.79784971e-01 +5.91416694e-02 +2.76058555e-01 -2.45426819e-01 -3.00392807e-01 +3.00877422e-01 -1.16274834e-01 -3.71276326e-02 +4.10107570e-03 +1.11255392e-01 -4.64316979e-02 +1.67418286e-01 +2.21561760e-01 -1.48963958e-01 -4.38570790e-02 -1.67099983e-02 -1.74315646e-01 -6.18586615e-02 -3.31094861e-02 +2.49641344e-01 -2.67849322e-02 +1.98700160e-01 -6.55476376e-02 -2.77533606e-02 -1.43952191e-01 -7.93988034e-02 -3.12701434e-01 +3.13807316e-02 +3.01052600e-01 +2.97079265e-01 -3.31170321e-01 +2.48574451e-01 +2.51808673e-01 +1.13232113e-01 +2.12461397e-04 -2.59166241e-01 -9.12145153e-02 +1.36082336e-01 +2.69700825e-01 -1.47263572e-01 -1.08209148e-01 -1.12583056e-01 -5.20918071e-02 -2.42170259e-01 -3.76677483e-01 -2.77798533e-01 -2.07972795e-01 +2.65177995e-01 +8.97040740e-02 -1.31365672e-01 -2.00198174e-01 -1.27307773e-01 +3.71284366e-01 -1.44558579e-01 +2.74395972e-01 +1.69100374e-01 +1.87154919e-01 +2.13801667e-01 -2.62757003e-01 +3.21966439e-01 -2.82032311e-01 -2.33165443e-01 -1.26107946e-01 -8.61178115e-02 -1.84978902e-01 -2.83805579e-01 -1.21176362e-01 +8.39989483e-02 +2.20632210e-01 +3.22298557e-01 -2.06351802e-02 +2.94876937e-02 +3.19515884e-01 +3.36034670e-02 -1.75362304e-01 -9.80122164e-02 +3.50347757e-01 -1.26988947e-01 -7.92687014e-02 -2.63880789e-01 -2.80471385e-01 +6.39551058e-02 +4.16607708e-02 +1.48379639e-01 -1.66422382e-01 -1.63431630e-01 -2.27337480e-02 +3.09829444e-01 -1.99517518e-01 +2.72243500e-01 -2.05302447e-01 +8.81679729e-02 +2.79654145e-01 +2.20379114e-01 +2.92086005e-01 +8.29716027e-02 -2.64535278e-01 +3.35509509e-01 +3.48009139e-01 +3.27340931e-01 -2.96974361e-01 -1.26390457e-01 -2.40654737e-01 +1.16831608e-01 +9.37282890e-02 +3.78215276e-02 -2.89022744e-01 -1.36497214e-01 -2.12424040e-01 +3.07975918e-01 +3.56240243e-01 +2.57875949e-01 +2.26452071e-02 +2.96954274e-01 -1.08213812e-01 -7.07091540e-02 +2.25824222e-01 +8.11019912e-02 +2.94778794e-01 -1.28950074e-01 -3.19158256e-01 +3.51080149e-01 -1.38264835e-01 -1.29084438e-01 +1.79913461e-01 -6.23169988e-02 +3.67964745e-01 +3.29266846e-01 -2.96908379e-01 -2.39146695e-01 +7.34025016e-02 +2.83595501e-03 -3.25018406e-01 +3.04035783e-01 +3.19697320e-01 +2.33327270e-01 -2.96209425e-01 +2.70311713e-01 +1.68956250e-01 +7.60623580e-03 -1.54314518e-01 -3.20078373e-01 -1.63908288e-01 -4.94445041e-02 +1.22085780e-01 +1.76159784e-01 +8.55709910e-02 -7.84666538e-02 +2.19825581e-01 -3.31537455e-01 +1.81286097e-01 -1.35768980e-01 +2.15284094e-01 +2.38503277e-01 -2.28247434e-01 -2.16455847e-01 -2.73885071e-01 -5.64853512e-02 +2.56731421e-01 +2.46064201e-01 +7.72481188e-02 -2.31049076e-01 -7.37021342e-02 -1.59166217e-01 +1.06545694e-01 +1.64574817e-01 +2.81970680e-01 -3.06754202e-01 -2.86500424e-01 -6.00697659e-02 -1.31974801e-01 -6.69622496e-02 +2.20193371e-01 +2.79340595e-01 +1.89608544e-01 +2.15834752e-01 +3.36276859e-01 +3.06834966e-01 +2.62869298e-01 -8.15836787e-02 +2.76549578e-01 -2.64197677e-01 +1.22294120e-01 -5.60593791e-02 -1.90009162e-01 +3.30215484e-01 -1.58407107e-01 +2.58945346e-01 -6.19730726e-02 -1.10168293e-01 -3.27165961e-01 +1.00605756e-01 +3.91313173e-02 -2.52718329e-01 +2.94783097e-02 -3.44150752e-01 -1.13945708e-01 +1.84227694e-02 -2.66775936e-01 -1.84447482e-01 -3.54879439e-01 +1.91299468e-01 +8.18910897e-02 -7.96535984e-02 -8.29462931e-02 -2.36917697e-02 -3.00108165e-01 +2.30381563e-01 -2.30339468e-01 -2.06800610e-01 -3.13899964e-01 +8.10617283e-02 +1.99162632e-01 +2.57209335e-02 -2.28206694e-01 +8.58504623e-02 -3.33468586e-01 +2.91194528e-01 +1.26089174e-02 +9.78204086e-02 -3.64946276e-01 +2.85017639e-01 -1.02322295e-01 +1.95689768e-01 +2.41157815e-01 +4.71094809e-02 -2.78915584e-01 +2.38914445e-01 +1.53176397e-01 +1.91261724e-01 -1.54857293e-01 -1.31114647e-01 +3.52008015e-01 -1.36603728e-01 -1.80921644e-01 +1.27742499e-01 -2.93247581e-01 -7.63022080e-02 +2.94738591e-01 -3.44527178e-02 -3.49927783e-01 -2.20657717e-02 -1.46442994e-01 -1.57274053e-01 +9.13374778e-03 +4.37131897e-02 +1.08713858e-01 +3.28342736e-01 +1.16480440e-02 -4.05904651e-02 +1.33560621e-03 -6.36649551e-03 +6.55607805e-02 +2.78074324e-01 +3.52895439e-01 +1.97868645e-01 -1.07935511e-01 -1.95598915e-01 +4.15157795e-01 -3.98775823e-02 -7.05202520e-02 -8.44849646e-02 -1.43996119e-01 +6.14309460e-02 -6.29967004e-02 -1.81865498e-01 +2.07674474e-01 -3.00347865e-01 +1.14522554e-01 -4.94151674e-02 +8.34849253e-02 -2.81459033e-01 +8.70936140e-02 -3.01301748e-01 +6.05613738e-02 +2.74765790e-01 -1.74561411e-01 -2.50816256e-01 +2.87403584e-01 +2.02032626e-01 -1.19914450e-01 +2.70220280e-01 -3.33576769e-01 +2.37383679e-01 +1.07559450e-01 +3.67142230e-01 +2.20919535e-01 -2.02710122e-01 +3.09409082e-01 +3.38981569e-01 +1.33150339e-01 +1.62570745e-01 -3.14450860e-01 +2.70787179e-01 -9.57303122e-02 +1.63970023e-01 +1.85490519e-01 -1.76426813e-01 +1.42217547e-01 -3.55929579e-03 +3.48323226e-01 -2.47515142e-01 +4.04319577e-02 -2.62770087e-01 -7.86694810e-02 -9.14536938e-02 -1.68699503e-01 +2.20107749e-01 +1.84891999e-01 -2.47939229e-01 +2.91417629e-01 -1.13398172e-01 +2.61180311e-01 +3.63401681e-01 +3.17148715e-01 -2.94257492e-01 -2.04338491e-01 +2.46241331e-01 -1.48017272e-01 +3.15032691e-01 +1.57854602e-01 +9.43376571e-02 +9.31264237e-02 +2.61288166e-01 -1.54262319e-01 -2.43280232e-01 +6.32514507e-02 +1.19300880e-01 +1.00995496e-01 -3.23181987e-01 -2.80312270e-01 -2.51315027e-01 -1.90285280e-01 -2.58973211e-01 +1.26257196e-01 -6.57547936e-02 +2.93724742e-02 +2.32641116e-01 -2.29972959e-01 +2.18457356e-01 +9.38421711e-02 +3.35175067e-01 +1.52235016e-01 +1.15788892e-01 -2.18980923e-01 +1.84629023e-01 -1.52518541e-01 +5.29283956e-02 +4.08749804e-02 +1.08544864e-01 +4.76652160e-02 -1.29743069e-01 +8.39877352e-02 -3.43361795e-02 -3.55164081e-01 +9.48852450e-02 +3.64079103e-02 +2.94007719e-01 +1.31415799e-01 +2.23283097e-01 +1.79572985e-01 +9.23749506e-02 -9.67552885e-02 -2.47473568e-01 +2.03246564e-01 +1.00185327e-01 -1.28705800e-01 +8.59584883e-02 -2.20378816e-01 +5.70324026e-02 -5.49740084e-02 -2.46136397e-01 -2.51604855e-01 +2.37856612e-01 +1.34006977e-01 +6.30852804e-02 -4.89329807e-02 +5.77007160e-02 +1.12343796e-01 +2.48058662e-01 +2.38607004e-02 -2.70322084e-01 +2.65411884e-01 -1.31851345e-01 -1.17067114e-01 +1.36482224e-01 +2.23039210e-01 +1.55856922e-01 -1.67998806e-01 -9.02878791e-02 +2.08006024e-01 -2.14964688e-01 +2.38779798e-01 -7.10218400e-02 -3.05593580e-01 +3.87245357e-01 +2.90785730e-01 -9.49524716e-02 -2.27107987e-01 +1.42352119e-01 +2.91424036e-01 +1.13763317e-01 -1.13791652e-01 -3.33862841e-01 +1.70927271e-01 -1.74087867e-01 +3.09449956e-02 -1.98506981e-01 +2.47836396e-01 +2.28779629e-01 -1.45198673e-01 +2.59493470e-01 -3.28100175e-01 -3.73869449e-01 +9.56979915e-02 -1.92464203e-01 -1.84839115e-01 -1.51460364e-01 +3.91252548e-01 -2.35465974e-01 +1.03212453e-01 +1.36714458e-01 -8.48168787e-03 +3.22242230e-01 +1.08743526e-01 +1.79907322e-01 -2.73272455e-01 -1.88331485e-01 +2.70272344e-01 +2.55221575e-01 -2.73056209e-01 +3.61434184e-02 -1.38705056e-02 +2.16107413e-01 -8.73561483e-03 
#Parameter# /_1 {20} 321 ZERO_GRAD
+1.73469130e-02 +1.19407587e-01 +3.19642514e-01 -2.88501561e-01 +1.49898678e-01 +9.73085761e-02 +1.96322650e-01 -1.86736971e-01 +9.60762799e-02 +9.50952899e-03 -2.00023994e-01 +2.93473929e-01 +3.79920870e-01 -1.17544577e-01 +3.82281095e-01 -2.47172058e-01 +3.86461876e-02 -2.04448044e-01 -1.77609175e-01 -1.27579600e-01 
#Parameter# /_2 {20,20} 6401 ZERO_GRAD
-1.22345366e-01 +1.12541080e-01 +1.18444823e-01 -2.84006238e-01 -3.02815676e-01 -1.86937869e-01 +7.76353627e-02 +3.23808827e-02 +9.86788869e-02 +3.18279088e-01 -3.20059881e-02 +2.80239612e-01 +2.90365487e-01 -2.87736207e-01 -2.83553123e-01 -3.63261998e-01 +2.63674140e-01 -1.04953378e-01 +1.12850517e-01 +4.21245545e-02 -2.90612012e-01 -2.18789279e-01 +2.33514011e-01 +2.93608904e-01 -1.49691645e-02 -2.22523391e-01 +1.31534502e-01 +1.99220195e-01 +4.23510037e-02 +2.94612676e-01 +1.26689263e-02 +1.42594919e-01 +1.48404047e-01 -2.20947459e-01 +3.39316130e-01 +2.33578280e-01 -1.08021557e-01 +3.11903059e-01 -3.40622962e-02 -2.30647177e-01 -1.20324731e-01 -8.28725025e-02 +1.80845320e-01 -3.10766678e-02 +9.02744196e-03 +3.83690655e-01 +3.38583767e-01 +2.46325418e-01 -1.51002437e-01 -2.10827768e-01 +1.08595692e-01 +2.91936129e-01 +8.92347097e-02 -2.38461182e-01 -1.61267906e-01 -2.46894658e-01 +1.85567930e-01 +3.12803954e-01 -2.63149589e-01 -4.17621210e-02 -2.70945370e-01 +6.41121268e-02 +2.50639915e-01 -2.52044737e-01 -1.22203507e-01 -2.64704883e-01 -2.59790331e-01 +1.80298433e-01 +3.19917023e-01 -2.88430691e-01 -3.27454835e-01 -2.16472000e-01 -7.20882863e-02 +4.02962305e-02 -2.42432222e-01 +8.35173391e-03 +2.71717966e-01 -1.48674294e-01 -3.18877280e-01 -2.87535518e-01 +1.91023480e-02 -1.02911375e-01 +7.45344386e-02 +3.32175255e-01 -1.65843710e-01 -6.49528950e-02 -2.25387618e-01 +2.90256947e-01 +2.93421239e-01 -1.69539958e-01 -1.77514061e-01 -2.70629585e-01 -3.28345954e-01 -1.85727835e-01 -3.51189077e-01 +3.20538491e-01 +3.44678134e-01 +8.90116319e-02 +2.84659237e-01 -2.24512741e-01 -3.79338823e-02 +2.53126383e-01 -4.23608534e-02 +7.28082210e-02 +2.20299259e-01 +9.97025222e-02 +1.34368256e-01 -3.25829446e-01 -1.99188307e-01 +2.86894232e-01 -1.99738488e-01 -9.67604965e-02 -3.21178064e-02 +5.59722111e-02 +2.05639914e-01 +3.17285031e-01 +4.55796868e-02 +1.35644034e-01 +1.49417907e-01 -6.23161392e-03 +2.11830556e-01 +3.09191018e-01 +3.47135246e-01 -1.43691778e-01 -2.42541969e-01 +1.39525801e-01 +2.41883010e-01 -1.57020777e-01 +2.03545094e-01 -2.10340694e-02 -2.47961670e-01 -3.66335154e-01 +1.09906264e-01 -1.38350874e-01 +2.60668546e-01 +1.04172572e-01 +4.31510471e-02 +1.75302967e-01 -2.78032899e-01 -5.22256345e-02 -1.93725020e-01 -2.04126397e-03 -2.49129515e-02 -1.33607283e-01 -3.79622191e-01 +3.64823453e-03 +1.70352221e-01 -1.27691180e-01 -1.39352039e-01 -3.64231229e-01 -5.82290851e-02 -1.61728993e-01 +1.97203428e-01 -1.36011541e-01 -1.56531155e-01 +1.06581271e-01 +5.17302193e-02 -2.72503853e-01 -3.36929172e-01 +1.55213341e-01 +2.65822858e-01 -4.48416509e-02 +2.09752917e-01 -1.33401006e-01 -3.91579494e-02 +1.66836411e-01 +2.79684905e-02 -2.83426106e-01 +2.80998558e-01 +1.48767948e-01 -2.68690914e-01 -1.39775306e-01 -2.11938396e-01 +1.55236199e-01 +1.98156014e-01 -1.84119582e-01 -1.36093810e-01 +2.02386398e-02 +3.11154515e-01 -2.96796292e-01 -2.20344454e-01 -1.78746775e-01 -1.30700350e-01 +2.66806722e-01 -1.85919955e-01 -1.44364238e-01 +2.25054726e-01 -3.54661524e-01 +6.33492018e-04 -1.39894634e-01 -1.91540465e-01 -1.47573918e-01 +5.73645718e-02 -1.43132612e-01 -2.26407468e-01 +2.18383476e-01 -1.34863600e-01 -3.46316546e-01 -8.20884183e-02 +5.27354255e-02 +1.32596672e-01 +3.07580382e-01 +2.47043997e-01 +2.40488157e-01 -2.89267927e-01 +8.76708552e-02 -1.55846789e-01 +3.23481053e-01 +2.33023494e-01 -3.14786643e-01 -3.94214392e-02 +1.02578685e-01 -1.37866676e-01 +1.40357643e-01 -1.40595034e-01 -1.95830971e-01 -8.26038867e-02 -1.47891343e-01 +8.69857296e-02 -2.61235058e-01 -1.18063807e-01 -9.26234573e-02 +1.70545295e-01 -4.60881889e-02 -2.70446744e-02 -2.45281175e-01 +1.63457766e-01 +3.64502132e-01 +1.02904595e-01 +1.51065007e-01 -2.90474623e-01 +2.03641355e-01 -1.94794342e-01 -2.68948913e-01 +1.16916589e-01 -2.15009749e-01 +7.69079663e-03 +2.73945808e-01 +2.70387501e-01 -5.52140921e-02 -3.53140146e-01 +2.10014239e-01 +1.23971507e-01 +2.26931781e-01 -3.52453798e-01 -6.73429295e-02 -5.32933176e-02 -4.89864051e-02 -6.65216520e-02 -3.61241162e-01 +1.52166799e-01 -1.92712441e-01 -2.33039111e-02 +5.19060828e-02 -2.02853546e-01 -3.86129647e-01 +3.27969193e-01 -4.04787421e-01 +2.28118952e-02 -8.89927149e-02 -2.94058919e-01 -3.26877177e-01 +1.20405033e-01 +2.42144480e-01 -3.80535424e-01 +5.95878065e-02 -3.13316286e-01 -2.09688097e-01 +2.84023076e-01 -2.55962789e-01 +2.00756237e-01 -3.03357397e-03 -9.55430567e-02 -3.38831902e-01 +2.60149330e-01 +2.62008935e-01 -5.51038124e-02 -1.38395429e-01 +3.64252269e-01 +2.25959644e-01 -5.61221465e-02 +3.60356599e-01 +1.00774601e-01 +3.25313926e-01 -3.72633666e-01 +1.81802750e-01 -6.61712959e-02 +9.82761532e-02 -2.52133220e-01 -1.50111644e-03 -5.84054068e-02 +4.22300212e-02 -3.60362828e-01 +5.08642718e-02 +3.12764078e-01 +8.28926489e-02 +1.56734630e-01 +8.31552967e-02 -3.05965632e-01 +2.39329517e-01 +1.63034424e-01 +1.64880618e-01 +8.14846531e-02 +1.75226796e-02 -2.41883874e-01 -2.19761640e-01 -1.08084910e-01 -4.39642966e-02 +1.73475549e-01 +2.07608268e-01 +2.75659293e-01 -7.80597627e-02 -3.72889102e-01 +1.75713077e-01 +1.80054277e-01 -1.28488272e-01 -5.55497967e-02 +2.24849358e-01 -2.58142680e-01 -1.69438809e-01 +7.18265846e-02 -2.12569982e-01 -7.68068057e-05 +2.49049021e-03 +3.50159049e-01 +5.00870608e-02 -2.82644302e-01 -1.62073582e-01 +3.48620832e-01 +1.74673811e-01 +7.45438486e-02 +5.17757908e-02 +1.39606357e-01 -2.71113455e-01 -1.29231885e-01 +2.54080355e-01 -2.30068967e-01 +1.78707495e-01 +3.58813375e-01 -1.56287029e-01 +2.08065301e-01 -3.85399722e-02 +1.39556170e-01 +3.10784638e-01 +1.80163503e-01 +7.48131424e-02 +1.01936333e-01 +2.71242917e-01 -7.11353794e-02 -3.27682346e-01 -2.78787881e-01 +2.58217901e-01 -1.39983326e-01 -2.11665228e-01 +3.20235848e-01 -3.14143509e-01 -2.21284837e-01 -2.74077237e-01 -9.31210890e-02 +1.29971877e-01 -2.48411149e-01 -1.27560377e-01 +2.97434449e-01 -3.78035367e-01 +2.45193288e-01 +1.25980694e-02 -3.37655097e-02 -2.27111667e-01 -7.98364878e-02 +3.37391973e-01 -1.20016731e-01 +2.82651395e-01 +3.05419117e-01 -1.98466256e-02 -3.64544421e-01 -1.28356457e-01 -1.82989016e-02 -2.15484783e-01 -3.10441911e-01 +2.56158143e-01 -2.13863298e-01 -1.54900551e-01 -1.41566232e-01 -2.08683982e-01 -1.46107497e-02 -2.02526063e-01 -3.67870390e-01 +6.61542267e-02 +2.41547257e-01 -2.70855367e-01 +3.57754230e-01 +1.21756934e-01 +2.62190193e-01 +1.58079490e-01 -3.03556532e-01 -3.69688809e-01 -1.85756356e-01 -1.87786877e-01 +1.29103273e-01 +2.72028029e-01 
#Parameter# /_3 {20} 321 ZERO_GRAD
-5.44123426e-02 -2.17404395e-01 +1.75101370e-01 +1.84590057e-01 -1.89552456e-01 -2.38615274e-01 +1.05233237e-01 +2.15896547e-01 -1.36700466e-01 +1.60770595e-01 -3.05392027e-01 +1.31785974e-01 -3.09945792e-01 +2.66599894e-01 +1.00090794e-01 +2.56773651e-01 +2.48624757e-01 -2.21304476e-01 +2.99524367e-01 -7.14775771e-02 
#Parameter# /_4 {20,20} 6401 ZERO_GRAD
-7.40548223e-03 +2.79652268e-01 -1.59239843e-01 -2.06592474e-02 +3.78972113e-01 -4.08815779e-02 +3.10942024e-01 -3.36797804e-01 +3.72213840e-01 +2.48850927e-01 -3.84112984e-01 -3.79436702e-01 +1.33185610e-01 -2.14748755e-01 -2.19982058e-01 +1.07724249e-01 -2.34683007e-01 +1.63073421e-01 +3.73680502e-01 +6.07762709e-02 +5.95005043e-02 -9.17207226e-02 +1.34578764e-01 +1.43030673e-01 -3.31837684e-01 -3.18565279e-01 -1.28415480e-01 -1.95451662e-01 +3.22097331e-01 +2.49997787e-02 +2.69117225e-02 +1.12646386e-01 +5.70611991e-02 -2.40479968e-02 -2.11818486e-01 -3.42831135e-01 +3.02072018e-01 +2.49897271e-01 +3.16112101e-01 -2.73158737e-02 +1.35944420e-02 +3.33962619e-01 -8.43878239e-02 +1.49432555e-01 -2.65124798e-01 -2.39624381e-01 +3.10413539e-01 +3.39768946e-01 -2.53556579e-01 -1.26428366e-01 +1.93289444e-01 -2.48505503e-01 -2.50894606e-01 -2.97625095e-01 -1.80452272e-01 -1.67852826e-02 -2.31636524e-01 -2.05477268e-01 +2.56291240e-01 -3.43891293e-01 -1.92709178e-01 -7.38628581e-02 -1.98743001e-01 -1.95995256e-01 +1.08133398e-01 -1.15179241e-01 -1.90090343e-01 -2.02802271e-01 +1.12760961e-02 +2.55669028e-01 -4.69953306e-02 +2.69973636e-01 +2.52106428e-01 +2.24909466e-02 -1.56308845e-01 +2.41111800e-01 +1.68873668e-02 -1.45275265e-01 -3.51925311e-03 -2.72173792e-01 -1.18406594e-01 +2.46553436e-01 -2.25222725e-02 -1.56249955e-01 +2.81551778e-01 +1.51739493e-02 -2.41716668e-01 -2.16931909e-01 +5.27302548e-03 -3.08249861e-01 -3.13663036e-01 +4.86647934e-02 +3.23584020e-01 +2.02264592e-01 -2.60148160e-02 +3.36582102e-02 -8.12674090e-02 +3.85285228e-01 +3.81099254e-01 +1.78291008e-01 +2.56203055e-01 +3.64353597e-01 -2.90005445e-01 +1.50469124e-01 -2.24176064e-01 -2.05972984e-01 -1.04737371e-01 -3.33197087e-01 +1.04864717e-01 -2.81638533e-01 -1.51599512e-01 +2.15686634e-01 -2.52746522e-01 +5.59735745e-02 -5.44931255e-02 -2.99039520e-02 -1.39130339e-01 -4.47961316e-02 +3.70771736e-01 +1.96378063e-02 -1.55170530e-01 +2.17530414e-01 -1.80098876e-01 +1.70011058e-01 -1.21308513e-01 -6.05017394e-02 -3.48229170e-01 +3.39058548e-01 +3.02858353e-01 -1.70866847e-01 +2.39851519e-01 +2.09781483e-01 -1.43733069e-01 +1.12013958e-01 -1.96007356e-01 -1.03171244e-02 -6.80303723e-02 -3.54862027e-02 -1.84857428e-01 +1.33296505e-01 +7.97756463e-02 -2.60829836e-01 +1.25058413e-01 +1.57885596e-01 -1.51165038e-01 -2.64119595e-01 -3.37149382e-01 +2.71087468e-01 -1.97509035e-01 -3.80340628e-02 -9.21231359e-02 +1.33704960e-01 -7.69493915e-03 -2.49347106e-01 -2.01472327e-01 +4.40017469e-02 +2.29187593e-01 -3.75818253e-01 -5.40939085e-02 -3.14126849e-01 -1.62709177e-01 -3.29575151e-01 -1.58593617e-02 -6.80955201e-02 +3.22312951e-01 -3.36628467e-01 -1.42966285e-01 -2.89612889e-01 +3.34795028e-01 -1.05243258e-01 +1.66222155e-01 +8.46944973e-02 +1.09434061e-01 +3.78619134e-01 -1.57342926e-01 -1.25024198e-02 +1.55263692e-01 -1.95656434e-01 -2.33599231e-01 -3.46696049e-01 +3.62685353e-01 -3.13064933e-01 +2.84642749e-03 +2.56080329e-01 -2.80572057e-01 +3.59460294e-01 +1.21382095e-01 -9.76299960e-03 +2.60873407e-01 +4.15161103e-02 +7.36885646e-04 +2.86379576e-01 +6.79336488e-03 +1.00794986e-01 +1.74282521e-01 +4.36232937e-03 +3.57557118e-01 -3.19841951e-02 +6.43471032e-02 +3.30317944e-01 +7.10858172e-03 -8.48015919e-02 -2.07676262e-01 -1.22932658e-01 +2.70555496e-01 +2.01917231e-01 -2.08721817e-01 +2.68182069e-01 -3.54652673e-01 +1.71398982e-01 +1.26443416e-01 +3.73830765e-01 -2.74520516e-01 -1.16892919e-01 -3.10820173e-02 +2.71505892e-01 +8.24454799e-02 -3.77672404e-01 -1.43352840e-02 +1.27905384e-02 +2.79603064e-01 +2.80741036e-01 +1.47650778e-01 +1.25247538e-01 +7.21580833e-02 -3.17242056e-01 +2.85262257e-01 -1.30816504e-01 -3.33681971e-01 +3.61409158e-01 +1.10230491e-01 -7.71162733e-02 -1.93321362e-01 +9.84202512e-03 +1.88029140e-01 +3.46298695e-01 -1.79628119e-01 +2.66519368e-01 -1.04242973e-02 -6.76680505e-02 -2.12237667e-02 +3.56597245e-01 -3.20861399e-01 +2.79042631e-01 -3.18856686e-01 +3.76579523e-01 -7.88164884e-02 +1.96645677e-01 +1.22888409e-01 -1.65048614e-01 +2.26357475e-01 +3.55631590e-01 +2.35104084e-01 -2.13927612e-01 -2.32572198e-01 -3.19374949e-02 +4.52575386e-02 +2.87633687e-01 +3.02384973e-01 +7.24577233e-02 -3.71713728e-01 -2.07346320e-01 +7.08629116e-02 -2.32051522e-01 -2.44565740e-01 -9.98422354e-02 -5.23467511e-02 -2.95061581e-02 +2.19300613e-01 -3.28423500e-01 +3.19286168e-01 -9.61652920e-02 +3.48103642e-01 +2.67533302e-01 +1.76024679e-02 +3.37414265e-01 +3.08423549e-01 -3.43209833e-01 -2.40358803e-02 +3.01491395e-02 +1.40657261e-01 -1.85510129e-01 +3.63530010e-01 +1.35290638e-01 +3.26441646e-01 +2.74105728e-01 +5.51930852e-02 +3.11630815e-01 -2.96090573e-01 -1.59960836e-01 -1.58375576e-02 -1.65955454e-01 +8.40287562e-03 -2.69800603e-01 -1.99903876e-01 +3.09071064e-01 -3.58201325e-01 +3.69750112e-01 +2.27313176e-01 +3.84632379e-01 +2.49420747e-01 +4.41678315e-02 -3.79683793e-01 -2.56734103e-01 -2.94752210e-01 -1.44761890e-01 -9.52125937e-02 -3.66380215e-01 -3.71051908e-01 +1.52534479e-03 +2.44474858e-01 +2.01790810e-01 -5.69745377e-02 -1.56048357e-01 +2.31046341e-02 +3.51010263e-01 -1.64883181e-01 +2.70724535e-01 -2.82972395e-01 +1.93693906e-01 +3.00482780e-01 -3.24492484e-01 -6.13850215e-03 +1.26363263e-01 +3.04932922e-01 +3.26126605e-01 +6.69767335e-02 +1.50618002e-01 -1.98066443e-01 -2.36082822e-01 +2.18950167e-01 +2.25450695e-01 +2.54012406e-01 -3.82914841e-01 +2.20261123e-02 -2.14235470e-01 -1.32952750e-01 +7.37409145e-02 -3.63201946e-01 +3.61899644e-01 -1.04998551e-01 +1.19907893e-02 +7.37456605e-02 -2.96653777e-01 -3.38361740e-01 -2.94056803e-01 -4.07188578e-04 +3.60575706e-01 -3.38403076e-01 +2.06484184e-01 -1.77399978e-01 +3.00346345e-01 -1.51993811e-01 -2.22682446e-01 +1.78233013e-01 +1.87723860e-01 +1.33411037e-02 -7.06188800e-03 +1.08757794e-01 -5.92354313e-02 +9.99751128e-03 -3.00112128e-01 -2.32769161e-01 +1.08102635e-01 -2.34936979e-02 -1.04771324e-01 +3.16678174e-03 -3.69420737e-01 +1.61447272e-01 +2.59554923e-01 +5.09960875e-02 +4.22158875e-02 +3.76084298e-01 -2.82701045e-01 -2.28972554e-01 -2.33133703e-01 -3.62180054e-01 -3.08243662e-01 +3.21963310e-01 +1.78675145e-01 +2.81987160e-01 +3.35420430e-01 +1.77985251e-01 +6.68788776e-02 +2.45313287e-01 -3.86431128e-01 +1.70634121e-01 -1.05809998e-02 +2.86704242e-01 -3.49947363e-01 +2.33638033e-01 +3.52072388e-01 +1.60028087e-03 -2.41138488e-01 +2.34266147e-01 +2.52577007e-01 -1.01801924e-01 -3.81915092e-01 -1.79443166e-01 +2.62853473e-01 
#Parameter# /_5 {20} 321 ZERO_GRAD
-3.33047986e-01 -2.93928146e-01 +1.86605096e-01 +3.99447888e-01 +2.64995486e-01 +1.56526148e-01 +2.30542004e-01 +2.18534023e-02 -1.82081130e-03 +4.71757129e-02 +1.97040774e-02 -1.49484783e-01 -4.31213006e-02 +3.55026096e-01 -1.23210952e-01 -3.67461920e-01 +2.04501510e-01 -2.20763475e-01 -4.56491970e-02 -2.80039251e-01 
#Parameter# /_6 {6,20} 1921 ZERO_GRAD
+1.62663266e-01 -8.37429240e-02 -2.08118200e-01 -3.47979553e-02 +8.88559297e-02 -3.71943712e-01 -4.54843849e-01 +1.41223997e-01 +1.50607184e-01 -2.59083420e-01 -1.43343672e-01 +1.66948274e-01 +1.43947095e-01 +1.25620678e-01 -2.22595498e-01 +2.30279669e-01 +1.92626953e-01 -2.34156758e-01 +4.56420571e-01 +6.82952851e-02 +4.09449130e-01 +3.52350354e-01 -8.93705413e-02 +4.06119972e-01 +3.74026358e-01 +2.65210807e-01 -1.35563031e-01 +1.74785927e-01 +1.19154759e-01 +3.13185692e-01 -2.34532371e-01 +4.67790604e-01 +2.34534785e-01 +3.85194391e-01 -3.74440193e-01 -4.34262037e-01 -1.07368827e-01 -3.73661429e-01 +2.06449181e-01 -3.33767205e-01 -4.51722294e-02 -1.49558783e-01 -3.57006997e-01 -6.24412671e-02 -2.11575031e-01 -3.55799764e-01 +1.19444411e-02 +2.04037465e-02 +4.32781935e-01 -1.45796284e-01 +3.47856283e-01 +8.08403119e-02 -3.54616016e-01 +2.68136412e-01 -4.39699054e-01 -1.68544784e-01 -4.10618633e-02 +3.58335882e-01 -1.75101906e-01 +1.35182679e-01 -6.34381324e-02 +2.94389933e-01 +2.90695280e-01 -3.82089108e-01 -1.64440528e-01 -3.12905818e-01 +3.01033258e-01 -3.46541584e-01 +3.49316120e-01 +1.91204548e-02 +6.07300848e-02 -2.90715247e-01 -4.09550518e-01 +3.04226249e-01 +1.90577522e-01 -2.57281631e-01 -3.98925126e-01 +1.51716501e-01 -1.60731867e-01 -3.76219988e-01 -1.77748740e-01 -4.54967134e-02 +3.62569869e-01 +1.54311638e-02 +2.81941146e-01 +4.63889897e-01 -4.42450970e-01 +3.90309751e-01 -2.86824644e-01 +4.03822362e-01 +4.17849809e-01 -1.89788491e-01 +1.44722357e-01 -2.10435361e-01 -1.17472736e-02 -1.74108759e-01 -3.76751810e-01 -4.34450001e-01 +3.18413109e-01 -5.31628311e-01 -2.79058397e-01 -1.65206090e-01 -3.61698806e-01 -1.59810171e-01 +4.15503472e-01 -3.46281976e-01 +4.17340130e-01 -4.42607880e-01 -1.87524915e-01 -2.24963531e-01 -1.50238618e-01 +2.49175113e-02 -3.35790575e-01 +8.69090408e-02 +3.73212099e-01 -2.02737391e-01 -2.82295078e-01 -7.85842389e-02 -1.71422347e-01 -3.95698488e-01 
#Parameter# /_7 {6} 97 ZERO_GRAD
-1.36031970e-01 -9.34236795e-02 -4.04963136e-01 +2.31657237e-01 +1.54668659e-01 -1.34774461e-01 
