#Parameter# /_0 {20,24} 7681 ZERO_GRAD
+8.76388103e-02 -3.07346553e-01 -3.10535699e-01 +2.43096709e-01 -2.55400211e-01 -3.31151664e-01 +1.11238904e-01 +1.30406797e-01 +9.86426100e-02 -3.28274667e-01 +1.47037223e-01 -6.85112327e-02 -3.30854058e-01 -2.48983011e-01 -6.41729906e-02 +1.74321070e-01 -2.97801673e-01 -2.84972489e-01 +1.62483901e-01 +1.73713848e-01 +3.28572541e-02 -2.95403302e-01 +5.95264025e-02 -1.31180495e-01 +4.21452336e-02 -2.18243212e-01 +2.29734853e-01 -2.16858938e-01 +1.32279769e-01 -1.17564783e-01 -1.43366270e-02 -1.01062484e-01 -3.79940942e-02 -2.03805074e-01 +2.07990512e-01 +1.40224159e-01 -1.71750292e-01 +2.11412624e-01 -1.83314055e-01 -3.50698590e-01 -1.82047114e-02 -2.32529104e-01 -6.43562526e-02 +2.70865932e-02 +3.98762561e-02 +2.76189238e-01 +1.40758082e-01 -9.39257666e-02 -1.99390858e-01 -1.41008049e-01 +3.22808385e-01 +3.54106575e-01 +2.87629753e-01 -1.98684171e-01 +2.36338332e-01 +1.32898420e-01 -9.43839327e-02 -1.57950874e-02 -1.78343281e-01 +1.48030028e-01 -1.44947335e-01 +1.27570972e-01 -2.69921005e-01 -2.05764286e-02 -2.06261128e-01 -2.17349917e-01 +2.27761179e-01 +8.30973163e-02 -9.61489826e-02 +1.46791771e-01 +1.08778588e-01 +3.00269067e-01 +2.45249957e-01 +2.54155010e-01 +1.54903710e-01 +9.14425328e-02 -2.40755871e-01 -1.05844326e-01 +9.77869704e-03 -1.26957512e-02 +5.10299020e-03 -7.07984120e-02 +1.68380484e-01 -1.27107695e-01 +2.27044038e-02 +1.56912640e-01 +8.59874710e-02 +1.33594379e-01 +2.58499235e-01 -8.54171515e-02 +1.65652066e-01 -2.04379514e-01 +1.61473766e-01 -1.66186634e-02 +1.12783939e-01 +1.77611083e-01 -2.42921591e-01 -1.06198691e-01 -4.23310660e-02 +1.90768152e-01 +1.07471526e-01 -6.08071499e-02 +3.74544978e-01 -2.19264463e-01 +4.91610579e-02 +2.73894995e-01 -1.67446613e-01 -1.39382575e-02 +1.86863095e-01 -8.70850086e-02 +1.23259686e-02 +2.07705647e-02 -5.68377934e-02 +1.23866931e-01 +1.63458213e-01 +2.34909728e-01 +5.71771488e-02 -1.28587261e-01 +7.35165626e-02 +3.32924932e-01 -8.18917453e-02 +3.66882622e-01 +1.26664741e-02 +3.64804953e-01 -3.47689152e-01 -1.47337511e-01 -2.35757530e-01 +1.47739753e-01 -2.44458526e-01 -4.76823449e-02 +1.53271873e-02 +1.00562602e-01 +6.33245260e-02 +3.24469447e-01 -3.13217163e-01 +1.12318724e-01 +3.12758893e-01 +3.34355593e-01 -2.92183310e-01 +2.98097849e-01 +3.65107000e-01 +5.82343433e-03 +1.79683968e-01 +1.21599028e-03 -4.85548675e-02 -2.90041119e-01 +2.16560304e-01 -2.04048291e-01 +3.32445771e-01 -2.81733155e-01 +1.24905974e-01 +1.26896873e-01 +4.51197810e-02 -4.96923178e-02 -2.09308043e-01 -3.40733856e-01 +1.81643799e-01 -3.93130928e-01 -2.16706783e-01 +1.89617202e-01 +1.32383123e-01 +3.52527320e-01 -9.69719142e-02 +3.18479538e-01 -9.03856978e-02 +2.33675707e-02 -3.71873416e-02 +1.50191784e-01 -2.25370511e-01 +9.48536489e-03 -2.72286981e-01 +3.17696929e-01 -2.09395736e-01 +3.20680887e-01 +8.51834267e-02 -2.89520055e-01 +3.02646160e-01 -2.21422896e-01 +2.75397122e-01 -1.16910070e-01 -6.24992326e-02 +8.73667654e-03 +1.52883217e-01 +2.22723842e-01 -2.70071536e-01 +1.97282150e-01 +2.21375152e-01 -1.90033212e-01 -1.24014467e-01 -2.89357096e-01 -2.02029541e-01 +1.59890294e-01 +3.50755036e-01 +5.23594730e-02 +3.59460980e-01 -6.48867339e-02 -1.73778925e-02 -1.11341715e-01 -1.03560388e-01 +2.06515372e-01 -2.74716884e-01 +1.48823885e-02 +1.84497982e-01 +1.83441699e-01 -8.32261145e-02 +2.04155013e-01 -2.35506788e-01 -3.06937974e-02 -4.16855633e-01 -2.23514795e-01 -1.41354054e-01 -2.22268388e-01 +1.55150324e-01 -3.48058313e-01 -1.62264779e-02 -2.06859946e-01 -1.41190067e-01 +1.25890121e-01 +2.25619957e-01 +4.12765965e-02 +2.73726583e-01 +3.60120177e-01 +7.31357336e-02 -3.48026276e-01 -4.14550006e-02 +1.85269326e-01 +7.08575472e-02 -2.67250508e-01 -3.34863871e-01 +2.94932157e-01 +2.87136901e-02 -2.92932600e-01 -3.54725391e-01 +3.46727163e-01 -1.07924454e-01 +2.05087334e-01 +2.34916776e-01 -2.70518035e-01 -2.62821168e-01 -2.68730611e-01 -1.52206555e-01 +3.69740546e-01 +7.34228566e-02 +2.26481203e-02 +2.47824609e-01 +4.91688879e-05 +1.97521403e-01 +8.88047069e-02 -4.58931327e-02 +1.68411359e-01 +6.20386861e-02 -2.42997129e-02 -1.99789666e-02 -1.10800251e-01 +9.85391214e-02 -1.69217616e-01 +7.96402991e-02 +1.33365721e-01 -3.31099778e-01 +1.41234085e-01 +1.35710940e-01 -1.94300503e-01 -6.52974397e-02 -6.90065622e-02 -3.13159153e-02 -9.19820890e-02 -3.62138063e-01 +3.01534504e-01 +1.83516249e-01 -8.33526105e-02 +3.05055350e-01 +2.66443551e-01 -1.59220412e-01 -2.27614924e-01 +3.32062811e-01 -2.79336572e-01 +9.50700939e-02 +1.25879243e-01 +3.86787467e-02 +3.20314318e-01 -8.77092406e-02 -2.88895726e-01 +1.54563069e-01 +2.99105793e-01 +2.57211030e-01 +2.74574459e-01 +2.08154261e-01 +8.57634991e-02 +8.84934291e-02 -3.74957532e-01 +5.63057438e-02 -1.97530806e-01 -1.39309883e-01 +2.59744793e-01 +1.95420440e-02 -1.40593871e-01 -3.23313624e-01 -4.99867136e-03 -1.76085290e-02 +3.58059615e-01 -2.16210950e-02 +1.34420633e-01 -3.05200160e-01 +2.86028057e-01 -6.58296933e-03 -1.15968093e-01 -2.05513067e-03 +1.05231814e-01 +1.45104066e-01 +1.18573695e-01 +1.80876374e-01 -2.06365943e-01 -7.61097446e-02 -2.71071345e-01 -1.53187543e-01 -8.48264471e-02 +3.96217816e-02 +2.56827056e-01 -2.68234551e-01 -1.22908376e-01 -2.05039889e-01 +2.74235100e-01 -2.95761204e-03 +9.09630507e-02 +3.87585722e-02 +2.64612019e-01 -5.91259599e-02 -1.64018378e-01 +2.86077678e-01 -1.15486607e-01 +9.12778080e-02 +2.59179831e-01 +3.58034670e-01 +1.81437418e-01 -2.53789514e-01 +1.97198197e-01 +1.04214802e-01 -2.14766890e-01 -3.44598114e-01 -1.15599893e-01 -2.56784391e-02 -2.11211294e-01 +2.33903363e-01 +8.81212950e-03 -3.41783375e-01 -2.26507485e-02 +9.47213918e-03 -1.17876843e-01 +3.47678848e-02 +3.07094604e-02 -2.90589094e-01 +1.62399262e-02 +6.85840845e-02 -1.18346261e-02 -9.27894413e-02 -3.91412638e-02 +6.62052035e-02 +9.40771308e-03 +3.67453575e-01 +3.55971247e-01 -2.81599611e-01 -1.63632203e-02 +1.01021305e-01 -3.65121424e-01 +3.27920645e-01 +2.21650720e-01 -1.73593909e-01 +3.41406524e-01 -3.99977379e-02 -8.10216069e-02 +2.60615647e-01 -2.08111867e-01 +6.09908812e-02 -1.41194955e-01 -3.26537848e-01 +2.72669852e-01 +2.62419522e-01 -4.58623804e-02 +1.28549427e-01 +8.81574973e-02 -1.80154055e-01 +1.02019794e-01 -3.26907724e-01 +3.36394645e-02 -1.32977664e-01 +1.52626634e-01 +1.15815878e-01 -3.32006589e-02 -2.90872663e-01 +3.62423778e-01 -1.36307955e-01 +3.59372228e-01 +1.16637461e-02 -7.38473758e-02 +1.73011541e-01 +1.60237271e-02 -2.83736616e-01 +2.83248514e-01 -3.01088616e-02 -1.24258853e-01 +1.06458656e-01 -3.03014159e-01 -3.51506025e-01 +2.29323268e-01 -1.77508324e-01 -1.92392707e-01 -4.73593250e-02 +3.01205125e-02 +3.25575978e-01 -3.44445944e-01 +6.73971996e-02 -3.06762308e-01 +1.05738841e-01 -1.27248183e-01 -3.17099839e-01 +6.07466027e-02 -3.13519210e-01 +2.33165160e-01 +8.79126191e-02 -2.91048527e-01 -1.47847936e-01 +2.55698115e-01 +1.10748552e-01 -7.80290142e-02 -2.48681242e-03 -2.20166028e-01 +2.73761094e-01 +1.92357063e-01 +1.06947720e-02 -2.68416375e-01 -2.63741016e-01 -1.81880698e-01 -2.95122802e-01 -5.06011546e-02 +2.37119332e-01 +7.53325149e-02 +3.08239367e-04 +3.43752474e-01 -2.65843540e-01 +3.12633902e-01 +1.90579191e-01 -1.99713275e-01 +1.87172636e-01 +3.78797919e-01 -2.74116755e-01 -3.08070928e-01 -2.19121635e-01 +4.89595570e-02 -3.70299906e-01 +1.66599542e-01 -2.20707297e-01 +3.38123143e-01 +5.23997881e-02 -1.49963275e-01 -3.34520251e-01 +2.94807166e-01 +3.27711314e-01 -3.65079522e-01 -1.40584290e-01 -2.73272187e-01 -2.75668949e-01 -2.73167014e-01 -2.05048263e-01 +3.33207965e-01 +6.03862591e-02 +1.92960814e-01 -2.31116846e-01 +2.56775558e-01 +8.95008296e-02 +6.98961839e-02 +1.65503949e-01 -7.16028661e-02 +5.43255731e-02 -3.27353477e-01 -2.43250191e-01 -1.33360982e-01 -3.83860290e-01 +3.80271465e-01 +2.91282147e-01 +1.08113907e-01 
#Parameter# /_1 {20} 321 ZERO_GRAD
+4.30925600e-02 -2.82533139e-01 +6.65415823e-02 -8.92749727e-02 +6.36718050e-02 +2.36365095e-01 +1.40405729e-01 -2.06906348e-01 +1.12172626e-01 +3.44013363e-01 +2.45388508e-01 -3.48310292e-01 +1.66869611e-01 +3.23887140e-01 +3.53511035e-01 -3.04787368e-01 -3.51087749e-01 +2.88298011e-01 -2.04787359e-01 +1.41020447e-01 
#Parameter# /_2 {20,20} 6401 ZERO_GRAD
-9.83958617e-02 -3.71546865e-01 -2.97598660e-01 +2.79055506e-01 +1.30276069e-01 -4.75361571e-02 +1.01769576e-02 +1.18972987e-01 +2.29677986e-02 -7.74095953e-02 +3.58713046e-02 -1.51133224e-01 +2.50708461e-01 +3.63110006e-01 -3.56741138e-02 +3.36998403e-01 +2.60243192e-02 -3.61515403e-01 +2.61460990e-01 +1.19952634e-01 -1.86533198e-01 -2.56746173e-01 +1.48904517e-01 +1.91262126e-01 -6.99297115e-02 +1.19556263e-01 +3.66838276e-01 -1.05830699e-01 +2.74810821e-01 +3.82812731e-02 +1.72789097e-01 +2.95225848e-02 -3.61610413e-01 +1.03269227e-01 +3.79896402e-01 -1.07760958e-01 -1.93048835e-01 -2.43275762e-01 +3.72219793e-02 -3.19485426e-01 +1.64080933e-01 +7.35399872e-02 +3.05747241e-01 +2.49724269e-01 +3.34817953e-02 -9.57590863e-02 -1.33367302e-02 -4.74427342e-02 +8.53087083e-02 +3.27134412e-03 +1.69524446e-01 +6.25843778e-02 +1.94818914e-01 +8.71157944e-02 -3.01754307e-02 +1.91020787e-01 -1.61584824e-01 +1.67673856e-01 -2.01289266e-01 +1.18685201e-01 +3.20367329e-03 -3.48715454e-01 -3.84062469e-01 -2.83654273e-01 -2.02408105e-01 +2.10367069e-01 +2.76218593e-01 -3.79378796e-01 +1.35244161e-01 +1.26952186e-01 +6.96685761e-02 +2.78020948e-01 -2.79180199e-01 -3.21167529e-01 -3.23690772e-01 -1.42177224e-01 -8.07284042e-02 +2.74300963e-01 +2.75606751e-01 -1.48608685e-01 -1.29579261e-01 +1.54216900e-01 -2.04909310e-01 -9.58590358e-02 -1.61564559e-01 -3.44121784e-01 -1.41084552e-01 -3.10435057e-01 +8.66541788e-02 -1.10601328e-01 -8.81593227e-02 -3.06895971e-01 -2.68842280e-01 -2.50772178e-01 +3.08928072e-01 -1.60212293e-02 -3.53149652e-01 +2.11153060e-01 -3.50888580e-01 +2.48239130e-01 -3.12992364e-01 -1.14351265e-01 -4.76024672e-02 -1.80888310e-01 -3.75652641e-01 -1.36213541e-01 -1.18866034e-01 -2.26536751e-01 -1.79053098e-01 +5.27352653e-02 -3.97282511e-01 -3.67497683e-01 -1.49321154e-01 -3.16607088e-01 -5.65793477e-02 +1.48485005e-01 +2.42345065e-01 +2.05241174e-01 -5.27332630e-03 -2.57552505e-01 -1.98693722e-01 -1.53328672e-01 -3.13045830e-01 -5.70348762e-02 -9.66563225e-02 +1.40904889e-01 +3.25668842e-01 +2.78501302e-01 -2.31575757e-01 +1.20593198e-01 -7.39385039e-02 +1.75804377e-01 -1.44860238e-01 +1.07878998e-01 +3.12927395e-01 -1.13217920e-01 +2.47546673e-01 +1.10327981e-01 -1.40225859e-02 +2.15670124e-01 +2.37661585e-01 +1.53171830e-02 +2.73450524e-01 -2.71946013e-01 -1.97676063e-01 +9.73026901e-02 -2.69404531e-01 -4.07965444e-02 -3.51165920e-01 -9.14622173e-02 +3.04357886e-01 +5.16816229e-02 +3.52467179e-01 -8.69139805e-02 -3.73041362e-01 +2.24448934e-01 -1.85945377e-01 -3.07370633e-01 -1.35864198e-01 +1.67218149e-01 +3.07164401e-01 -1.46990176e-02 +6.88005984e-02 -1.88010707e-02 -4.39935066e-02 -6.21910691e-02 -3.15580875e-01 +1.97787553e-01 -7.18018189e-02 -3.54234666e-01 -2.35505313e-01 -2.26661459e-01 +5.32289259e-02 +2.94300821e-03 -2.26981059e-01 -1.42588332e-01 +2.76699036e-01 +2.88338870e-01 +3.07670027e-01 -1.87037691e-01 -3.64127517e-01 +1.71322197e-01 +3.13091397e-01 +1.80897545e-02 +3.08194887e-02 +3.04702729e-01 -1.07834101e-01 -2.31498092e-01 +2.42687669e-02 -3.75055671e-02 -1.28300995e-01 +2.59091526e-01 +4.97477129e-02 +2.70909786e-01 -3.66938859e-01 +3.40534359e-01 -2.14396164e-01 -1.38220917e-02 -3.14300716e-01 +1.01753967e-02 +2.02278659e-01 -2.18657628e-02 +9.66994688e-02 -2.80221730e-01 +6.97549656e-02 -3.31521362e-01 -4.31124121e-02 +1.24493860e-01 +2.60751098e-01 +1.64797932e-01 +2.84758329e-01 +3.18882436e-01 -1.09195188e-01 +1.62092507e-01 -2.53676444e-01 -3.35011870e-01 -3.63312632e-01 -1.64843976e-01 -2.20688686e-01 +1.18697375e-01 +1.47300303e-01 -9.20914114e-02 -2.34058782e-01 -1.68182373e-01 +2.54900813e-01 +1.32237062e-01 +2.91779041e-01 -2.35434294e-01 +7.39357844e-02 +1.84459627e-01 +2.30524674e-01 +2.33715266e-01 -3.03412437e-01 +2.00373575e-01 +2.03946054e-01 -3.50978691e-03 +2.79441565e-01 +2.00614519e-02 +2.40304902e-01 -3.22513849e-01 +1.26656935e-01 -2.57642388e-01 -3.60521466e-01 -1.11739757e-02 +3.53039242e-02 -1.51979208e-01 -3.14801872e-01 -2.21703038e-01 -1.18414074e-01 -1.29713699e-01 -3.20740044e-01 -3.62743855e-01 -1.85161203e-01 +5.59140705e-02 +1.29404768e-01 -1.14591904e-01 +3.54163557e-01 +2.94499338e-01 -3.71330738e-01 -3.60866226e-02 -6.23266920e-02 +3.31085682e-01 -1.32595538e-03 -3.68587285e-01 -2.71619577e-02 +2.27630675e-01 -1.68383822e-01 -2.67023951e-01 +1.54093072e-01 -1.82389945e-01 -9.56968963e-02 +2.54914254e-01 +2.94921517e-01 +3.15640002e-01 +6.58255890e-02 -8.05299655e-02 -1.74781784e-01 -1.60760596e-01 +3.08681637e-01 +1.09465411e-02 -3.84544641e-01 -1.87603846e-01 +3.61577749e-01 +7.72401318e-02 -1.96080327e-01 -3.06130797e-02 +3.37768018e-01 +3.52542341e-01 +1.58276916e-01 +1.59313455e-01 -2.86320895e-01 -8.14833120e-02 -8.71412829e-02 -3.44995946e-01 +5.04354425e-02 -2.33721405e-01 -1.80740729e-01 +3.50428760e-01 +3.43438685e-01 +1.82507336e-01 -2.04536259e-01 +1.06098033e-01 +3.04065704e-01 -1.75096631e-01 +2.56563097e-01 -3.58844668e-01 -1.06057525e-01 +1.53588399e-01 -3.72468710e-01 +1.12801656e-01 -4.81103780e-03 +6.20405264e-02 +2.85910577e-01 -3.26834351e-01 +2.43667383e-02 +2.71789819e-01 +3.26308340e-01 +2.27548182e-01 +2.91404188e-01 +3.32646310e-01 +2.99490690e-01 +5.62944114e-02 +8.33729431e-02 -1.61385715e-01 -8.93087909e-02 -3.29245329e-01 +1.21264897e-01 +2.14502305e-01 +2.91470915e-01 +9.56136510e-02 +1.37448370e-01 +3.15248489e-01 -1.57944299e-02 -3.76276001e-02 +9.16928649e-02 +1.40710413e-01 -6.07046373e-02 +3.53905827e-01 +3.30210656e-01 +3.05138588e-01 -2.98720837e-01 +2.89268076e-01 +1.46889880e-01 -6.75836727e-02 +1.62550852e-01 -1.39340600e-02 -1.71493754e-01 -2.43090570e-01 +1.04169786e-01 -2.41479561e-01 +2.77945846e-01 -1.41013771e-01 +2.69732028e-01 +4.74915579e-02 +6.57310784e-02 -3.69610310e-01 -2.74909556e-01 +3.91171753e-01 -1.28932208e-01 +3.98705542e-01 +2.15797678e-01 +2.42770776e-01 +2.39267558e-01 -3.00529182e-01 -1.81769371e-01 -2.96172142e-01 -3.00747007e-01 +1.76942535e-02 -1.35884553e-01 +1.71282291e-01 -1.27578929e-01 -1.43612146e-01 +1.82755709e-01 +2.62290865e-01 +1.93706125e-01 +2.89896280e-01 +1.15093179e-02 +1.10909380e-01 -6.21521994e-02 +8.87840614e-02 -5.80216981e-02 -3.04179378e-02 -3.75811815e-01 +2.53766775e-01 -1.39010102e-01 -1.07774712e-01 +1.48635674e-02 -3.58812779e-01 +1.14189051e-02 -9.08831432e-02 +2.55563319e-01 +2.41666779e-01 -1.22096218e-01 -1.81469340e-02 -5.87799773e-02 -1.60603985e-01 +1.45449176e-01 +7.52255544e-02 -2.95717478e-01 +1.31227642e-01 
#Parameter# /_3 {20} 321 ZERO_GRAD
+1.41860276e-01 -2.39346147e-01 -3.28911930e-01 +2.06180066e-01 +2.58831739e-01 -3.22150707e-01 -6.46663755e-02 -3.46034914e-01 +2.37010434e-01 -2.40316018e-01 +2.31201768e-01 -2.63234098e-02 +4.03707802e-01 +3.21745127e-01 +3.87167633e-02 +2.15809405e-01 +4.69957404e-02 -2.03244328e-01 -1.99005261e-01 -1.10855259e-01 
#Parameter# /_4 {20,20} 6401 ZERO_GRAD
+1.05582811e-01 +1.29224747e-01 -4.55439612e-02 +3.32601279e-01 -4.63752747e-02 -2.03063324e-01 -6.37823995e-03 +3.25978190e-01 -1.62972152e-01 +1.49109349e-01 -3.38196009e-01 -1.17410813e-02 -2.19103307e-01 -3.18910897e-01 +2.67216384e-01 -1.34353727e-01 -2.40084082e-01 +1.78474158e-01 +8.45887214e-02 +3.24528009e-01 -2.30212301e-01 +6.46396950e-02 -2.24479392e-01 -2.11803749e-01 +1.65707916e-01 -5.86589761e-02 +5.76642081e-02 -3.87314618e-01 +2.00550362e-01 -2.28240252e-01 +3.46245974e-01 -1.83413699e-01 +1.79278722e-03 +6.56357780e-02 +1.48966357e-01 +9.08788573e-03 -8.95630866e-02 -1.23183928e-01 -1.24922931e-01 -1.86199263e-01 -1.97348222e-01 +2.91016638e-01 -3.66033882e-01 -5.50718606e-02 -1.90407336e-01 +5.76500818e-02 -1.91842169e-01 -1.82922855e-02 +2.18764350e-01 +2.82343507e-01 -7.23142996e-02 -2.12488145e-01 +3.38338643e-01 +4.08455096e-02 +1.48241222e-02 -3.77109796e-01 +6.36900812e-02 +2.09040299e-01 -1.21943563e-01 -2.63022602e-01 -3.25280458e-01 +1.23098098e-01 -3.17658275e-01 +9.84595865e-02 +9.85944085e-03 -3.23245198e-01 +1.53628271e-02 +3.20795774e-01 -2.14077353e-01 -1.89490318e-01 -3.78841221e-01 +1.49382234e-01 -1.69322133e-01 +1.94692001e-01 +1.34355545e-01 -7.18703344e-02 -2.11004674e-01 -8.76438171e-02 -3.81726414e-01 -3.86294365e-01 -2.68264353e-01 +1.06179193e-01 +2.40936413e-01 -2.44029969e-01 +1.08702235e-01 +2.66052455e-01 +1.34521216e-01 -1.87281922e-01 +2.41929099e-01 -2.46045291e-01 +1.03815675e-01 -3.63044441e-02 +1.54264823e-01 +5.36908135e-02 +3.76822054e-01 -2.55627155e-01 -2.01965913e-01 +3.59747857e-01 -4.23896015e-02 -3.86849999e-01 +3.18438351e-01 +3.46931487e-01 +3.30764711e-01 +1.48398519e-01 -3.58487844e-01 -2.63859957e-01 +1.80316940e-01 +2.17891648e-01 +3.31624508e-01 +1.92955047e-01 -6.83282465e-02 +2.55394168e-02 -3.44364911e-01 -3.43068659e-01 +2.49388903e-01 +2.51328886e-01 -4.41068895e-02 +2.11598277e-01 +1.62433177e-01 -2.91261017e-01 +3.12790960e-01 +2.10610196e-01 +2.66802430e-01 +5.09683974e-02 -3.10360074e-01 -1.62065309e-02 +2.14626789e-02 -2.69872159e-01 -3.51290435e-01 +3.44839782e-01 -2.95329224e-02 -2.23962754e-01 -3.67559269e-02 +3.44634354e-01 +1.01761267e-01 +7.73311174e-03 -1.92528978e-01 -1.99962929e-01 -3.34150285e-01 -3.49697590e-01 -3.38431418e-01 -6.93527311e-02 +1.35072231e-01 -2.66259879e-01 +3.67735267e-01 -6.45987391e-02 -1.93525538e-01 +2.22109199e-01 -1.29335850e-01 +4.33944389e-02 -3.06837022e-01 +2.08873451e-01 -1.35693192e-01 +9.65657756e-02 -7.09543973e-02 +3.65482897e-01 +3.58484536e-01 -2.52747923e-01 -1.71028674e-01 +9.38610882e-02 -3.63872886e-01 -3.21678162e-01 +3.01022053e-01 -2.88454115e-01 +1.70410518e-02 -3.69749129e-01 -2.96841979e-01 -5.40613681e-02 +8.02554414e-02 +2.96470404e-01 -2.85282321e-02 -1.28176674e-01 -2.22190365e-01 +1.10589132e-01 +3.16472918e-01 +3.68038177e-01 -6.82990253e-02 -1.22152939e-01 -9.14568678e-02 -2.30134707e-02 +1.44919604e-01 -3.62483561e-01 -1.89057931e-01 -3.49237591e-01 -2.46844813e-01 +3.78181845e-01 +1.14632882e-01 -3.47448528e-01 -2.40267456e-01 +1.43047377e-01 -1.07712589e-01 +1.02043163e-03 -2.20755458e-01 +3.78384441e-01 -1.26292676e-01 -3.38073879e-01 -3.35096627e-01 +1.64737150e-01 -3.63577813e-01 -3.15291822e-01 -2.00590625e-01 -1.17241897e-01 -3.19919229e-01 +2.17676207e-01 -9.48389471e-02 -2.37601072e-01 +1.24232411e-01 -2.30209902e-01 -3.87244076e-01 -3.26400578e-01 +2.29497571e-02 -5.92054129e-02 +1.04905054e-01 +2.34480739e-01 -1.87000498e-01 +3.15509319e-01 -1.26690686e-01 +5.73501140e-02 +2.14164034e-01 +2.36191332e-01 -3.57214093e-01 +4.04233709e-02 +2.33420894e-01 +1.20610192e-01 -2.63113469e-01 -2.09475040e-01 +8.07345472e-03 -9.11238864e-02 -3.55270803e-01 -1.87285185e-01 +2.55281568e-01 -1.78280994e-01 -2.83285797e-01 +1.79315031e-01 +4.58173491e-02 -6.74120709e-02 -4.02127625e-03 -9.91797671e-02 +8.46243203e-02 -1.56547517e-01 -3.63838106e-01 -3.80808711e-01 +1.65017843e-01 -2.80516803e-01 +3.55809122e-01 -3.39028090e-01 +2.96044230e-01 -2.00034454e-01 +2.12775648e-01 -2.85496358e-02 -1.62717447e-01 +1.64239287e-01 -3.17054182e-01 -2.00334221e-01 -9.45518240e-02 -2.62605548e-01 -9.77708772e-02 -8.73090625e-02 +6.11284971e-02 +2.24821374e-01 +3.24134916e-01 +3.47496927e-01 -2.08063319e-01 -2.85936445e-01 +1.68602720e-01 +2.70681828e-01 -1.95468932e-01 -1.78772330e-01 +2.47304350e-01 +3.26977700e-01 -7.04319477e-02 +2.98121780e-01 -1.59062043e-01 -1.99330419e-01 +3.51047516e-01 -2.81871736e-01 -5.16558662e-02 -1.79293036e-01 +6.19872799e-03 -1.31110281e-01 -7.41769793e-03 -1.77385285e-01 +6.45626336e-02 +1.19289793e-01 -2.62529016e-01 -4.20104340e-02 +2.98659712e-01 -2.77504653e-01 -1.75018579e-01 -6.45393953e-02 +3.07890296e-01 -4.75341454e-02 +1.72822401e-01 +6.64763004e-02 +2.38072827e-01 +3.55776340e-01 +6.76784813e-02 +1.73776045e-01 -1.29435688e-01 -1.00691728e-01 +6.73609274e-03 +2.64145374e-01 +3.30564260e-01 +3.57361764e-01 -2.49377429e-01 -2.40336865e-01 -3.69027197e-01 +3.45059246e-01 +1.52756006e-01 +2.03469619e-01 -2.22873375e-01 +2.06248201e-02 +4.65755314e-02 +2.22294152e-01 -2.54929096e-01 +3.64580303e-01 -1.40552402e-01 +1.17819272e-01 +2.40061395e-02 +2.12310404e-01 +2.66213238e-01 -9.98009294e-02 +3.22248071e-01 -8.26731101e-02 +2.96432078e-01 +3.15978289e-01 -1.50578111e-01 +1.65444195e-01 -2.60966182e-01 +2.63932496e-01 +3.46519023e-01 -2.44244874e-01 -3.28762501e-01 +3.50001544e-01 +5.23515716e-02 +3.39486212e-01 +2.91090310e-02 +2.18320385e-01 -3.72447014e-01 +2.80290544e-01 -4.13202085e-02 -2.39423826e-01 -1.39952749e-01 -3.04881334e-01 -3.66579682e-01 +3.07530940e-01 +2.20836133e-01 +2.88367152e-01 -9.17264745e-02 +1.81323990e-01 +1.10574655e-01 +2.30950221e-01 -8.16056058e-02 +1.37617037e-01 -3.02803010e-01 -4.17786203e-02 -1.93668514e-01 +1.84828311e-01 +2.27346882e-01 +3.35899927e-03 +1.48065552e-01 +3.33256990e-01 +3.77504349e-01 -3.29049468e-01 -3.69042397e-01 -2.76542753e-01 +5.76323345e-02 +2.14618191e-01 -2.03347668e-01 -3.41093510e-01 +2.02885084e-02 +1.63100436e-01 -3.46883893e-01 -3.38989705e-01 +1.82618022e-01 -1.73730642e-01 +1.40473202e-01 -3.16997498e-01 +1.28203452e-01 +8.38815793e-02 -3.45324039e-01 +7.49033093e-02 -2.84456342e-01 -2.95558035e-01 +1.38716400e-01 -7.45267570e-02 +1.53079450e-01 +8.28960314e-02 -1.33938536e-01 +2.91022271e-01 +7.95674101e-02 +4.12913188e-02 -1.65722549e-01 +1.05415426e-01 -1.02474816e-01 +5.97716942e-02 -2.52103567e-01 -3.59396666e-01 -1.07128978e-01 -1.14307471e-01 
#Parameter# /_5 {20} 321 ZERO_GRAD
-8.03930014e-02 +2.11076140e-01 +1.42974347e-01 +2.81945646e-01 +4.81479242e-02 -3.66176218e-01 -2.14583889e-01 -3.79152417e-01 -3.78084593e-02 -3.29545975e-01 -4.01651561e-01 +3.84542644e-01 +3.37712854e-01 +1.13416083e-01 -3.67336243e-01 -3.17153096e-01 -3.55809748e-01 -2.54393965e-01 +1.79716945e-01 -3.15629214e-01 
#Parameter# /_6 {6,20} 1921 ZERO_GRAD
-9.95445475e-02 -4.30561639e-02 -4.34351623e-01 +1.61071464e-01 -3.91131580e-01 +1.30693978e-02 +1.91861048e-01 +2.47182772e-01 +5.17480299e-02 +7.33481273e-02 +2.61356413e-01 -2.66413152e-01 +4.72716272e-01 -2.47165069e-01 +2.89321303e-01 -3.44129682e-01 -2.69118160e-01 +4.24988598e-01 +2.34123811e-01 +5.10222651e-02 +3.68829370e-01 +3.24961722e-01 -1.40049085e-01 -1.00179523e-01 +1.51272908e-01 -2.38098085e-01 -7.97675475e-02 -1.67856161e-02 +2.78247178e-01 -2.76572138e-01 +1.34276823e-04 +2.26004705e-01 +2.06350595e-01 -2.89070845e-01 -1.23841323e-01 +1.68975830e-01 +3.32240611e-01 -2.35631853e-01 -1.43501788e-01 -1.64383143e-01 +2.47723162e-01 +3.31168443e-01 -7.11813197e-02 -9.79931504e-02 +4.74764258e-01 +2.65509963e-01 -6.10587783e-02 -8.66002589e-02 -2.83069074e-01 -3.78735095e-01 -3.65982279e-02 +4.66737390e-01 -2.74182558e-01 +4.26689416e-01 -1.34789601e-01 -2.53627539e-01 -2.17818841e-01 +4.98155504e-03 -3.79361153e-01 -1.73677817e-01 +4.62745249e-01 -1.12292729e-01 +3.88073444e-01 +1.81104288e-01 -4.46412772e-01 +1.40403196e-01 -2.85818219e-01 +3.03428173e-01 +2.65620381e-01 -5.46626747e-02 +3.32333684e-01 +5.64904585e-02 -1.28260612e-01 -6.67802766e-02 -1.69064239e-01 -6.60769269e-02 -4.59122777e-01 +4.10926312e-01 -7.14063570e-02 -4.13533747e-01 +2.73804843e-01 -1.70410052e-01 -3.47788595e-02 -4.79455799e-01 -4.10060696e-02 +6.44510090e-02 +6.37032315e-02 +3.75959635e-01 -3.49183083e-01 -8.10324971e-04 -4.76851374e-01 -4.03630883e-01 -2.89502114e-01 +4.17456090e-01 -8.07181373e-02 +4.66932118e-01 +2.11310670e-01 +5.73661625e-02 +6.61180019e-02 -9.56668928e-02 -3.12890410e-01 +3.62903416e-01 +1.35281742e-01 +1.76523462e-01 -4.29932922e-01 +1.69840693e-01 -1.90315485e-01 +3.11650753e-01 -3.44020605e-01 +2.36203894e-01 -4.27589327e-01 +3.15675676e-01 -2.19252631e-01 -1.96066186e-01 -2.78192908e-01 -1.16253771e-01 +4.25668478e-01 +2.37354517e-01 +1.67150646e-01 +9.82882977e-02 
#Parameter# /_7 {6} 97 ZERO_GRAD
+2.68705100e-01 +3.17404568e-02 -5.42131113e-03 +6.40684813e-02 -2.95427680e-01 +1.44717604e-01 
