#Parameter# /_0 {20,24} 7681 ZERO_GRAD
+2.46025354e-01 -2.15165988e-01 +3.46323669e-01 -2.03431889e-01 +1.55601263e-01 +3.63649368e-01 -5.14138006e-02 -1.66650027e-01 -3.09310496e-01 +3.61189932e-01 -9.93510708e-02 -3.11339647e-01 -3.06993455e-01 -2.47548595e-01 -1.46189049e-01 +2.61213094e-01 +2.09138781e-01 -6.45283908e-02 +5.24912886e-02 +1.63887981e-02 -1.18134350e-01 +2.97467500e-01 +2.68297624e-02 +1.34937197e-03 -2.42909878e-01 +1.11844167e-01 -3.14239591e-01 -3.51402253e-01 +2.47863412e-01 +1.48844302e-01 +1.57719642e-01 +2.25133285e-01 +3.17828715e-01 -1.19702369e-01 -2.05778882e-01 -2.10263506e-02 +1.55843729e-02 -2.46624306e-01 -3.30628604e-01 -3.36218774e-01 -2.07580142e-02 -3.11487257e-01 +2.67893374e-01 +1.21597260e-01 -2.93177366e-01 +3.02822322e-01 -2.50730157e-01 -9.41015109e-02 +1.01725243e-01 +2.32700065e-01 +2.35531509e-01 -7.37523288e-02 +2.03926861e-02 -2.77965695e-01 +9.84875038e-02 -3.42312247e-01 +7.54807293e-02 -1.33348750e-02 -4.07476053e-02 +3.46463740e-01 +6.27415478e-02 +2.51800328e-01 +2.40763113e-01 -2.10127443e-01 -8.66445675e-02 +8.66250098e-02 +1.27392173e-01 +2.11031303e-01 +1.33512262e-02 +1.23070270e-01 -2.94979393e-01 +9.74717289e-02 -1.90111101e-01 +2.44377577e-03 -1.61570594e-01 -8.83516967e-02 -1.78633943e-01 +3.42256837e-02 +8.20703730e-02 +2.08827645e-01 +1.35193823e-03 -1.22687027e-01 -1.94367304e-01 -1.23944789e-01 -9.05411243e-02 +2.26507872e-01 -1.01591088e-01 -1.55570239e-01 +1.79259732e-01 +6.97027221e-02 +2.32559651e-01 -2.99710810e-01 +1.95673585e-01 +3.09151381e-01 +2.03565508e-01 -2.92659789e-01 +2.68962711e-01 +8.03018585e-02 +9.14941430e-02 -3.05275023e-02 +1.85566738e-01 -3.16091239e-01 +4.62370329e-02 +2.08387703e-01 +3.68304729e-01 -3.00882280e-01 +1.54528832e-02 -1.14014491e-01 +2.79778630e-01 -1.62872970e-01 -3.12703103e-02 -1.99742481e-01 +7.46084005e-02 -4.83428761e-02 +5.00060171e-02 +2.68415570e-01 +2.72061750e-02 +3.28612953e-01 +2.20389619e-01 +3.32420081e-01 +2.17989936e-01 -1.03146993e-01 +1.24527335e-01 +1.50681943e-01 +2.32827023e-01 -2.06508160e-01 +1.53024971e-01 -1.43927723e-01 +5.41711748e-02 -2.48293087e-01 -1.56084180e-01 +1.18867837e-01 -3.20099354e-01 -1.65912092e-01 +2.91056558e-02 -3.45092535e-01 -2.58895099e-01 +2.22209975e-01 -3.10814470e-01 +6.21215962e-02 -2.66576916e-01 -3.14592361e-01 +4.40870300e-02 -2.46663019e-01 +1.28953367e-01 -2.65188754e-01 +1.96307734e-01 -6.22268999e-03 +1.66726202e-01 -1.88158318e-01 +2.13750690e-01 +1.09980620e-01 -1.81813374e-01 -1.50678344e-02 -2.67475881e-02 +3.07901561e-01 -1.88553959e-01 +1.01151936e-01 +1.41203657e-01 -2.92460471e-01 -1.29958168e-01 -2.40692496e-02 -1.93536371e-01 -2.00486943e-01 +3.17234159e-01 -1.57909438e-01 +3.06650043e-01 +2.36450836e-01 -3.80304009e-02 -2.18117788e-01 +2.46558890e-01 +1.18006743e-01 +3.02188635e-01 -8.37265775e-02 +1.81232959e-01 -3.72640461e-01 -1.15379490e-01 +3.38657230e-01 +9.01711360e-02 -2.60555506e-01 -1.41113490e-01 +1.34313941e-01 -1.60215814e-02 -3.65740240e-01 +2.91614830e-01 +3.43877971e-01 +3.14089388e-01 -2.28291586e-01 +8.94711241e-02 +1.30014315e-01 +3.50894630e-01 +2.39580974e-01 -1.15921661e-01 -6.67646080e-02 -7.87577331e-02 +3.58039409e-01 +1.70425430e-01 +3.64129385e-03 +1.20185629e-01 +1.97452098e-01 +2.17179358e-02 +1.61665007e-01 +3.33018899e-02 +2.80359447e-01 -3.85039374e-02 +2.07906868e-03 -1.34071708e-01 -6.80491626e-02 +5.30478694e-02 +1.20288037e-01 +2.90588997e-02 -1.06602415e-01 +1.71506360e-01 -1.36684760e-01 -2.02757120e-01 -1.58054512e-02 -8.36649984e-02 -2.20499802e-02 +1.04422281e-02 -2.60664448e-02 +2.01798752e-01 -7.71286488e-02 -2.28591949e-01 +2.94006705e-01 -4.36147973e-02 +1.34096622e-01 -2.76577864e-02 -3.30430150e-01 -3.19801241e-01 +5.52152172e-02 -4.06020768e-02 -3.36824387e-01 -1.23974748e-01 +1.96460173e-01 +3.31514806e-01 +1.86625659e-01 -4.25730757e-02 +1.20771028e-01 -1.45742774e-01 +1.96036413e-01 -3.10493205e-02 +2.17399046e-01 -3.66357207e-01 -3.56931895e-01 -2.21221805e-01 -1.27941808e-02 -3.31643134e-01 -2.27717459e-01 -1.87293366e-01 +1.09394073e-01 +1.34726137e-01 -9.88171622e-02 -6.13560267e-02 -2.48871297e-01 -1.18657447e-01 +1.79273680e-01 +2.06612855e-01 +1.54050454e-01 +8.67495164e-02 +3.71210240e-02 -2.77715977e-02 +1.13077737e-01 -2.84847528e-01 +1.51948929e-01 +1.50638493e-02 +1.50151312e-01 +1.62121177e-01 +9.38395485e-02 +1.16715752e-01 +8.65940973e-02 -1.42068088e-01 -8.12462643e-02 +3.67420405e-01 +1.56225905e-01 +1.00709043e-01 -9.16265473e-02 -2.47443125e-01 +2.39695981e-01 -3.03341508e-01 -1.36966467e-01 +2.50090361e-01 -2.49532074e-01 -9.28479359e-02 +2.05222204e-01 +3.44430447e-01 -2.00338736e-01 -3.02636325e-01 +4.10184115e-02 -8.55807513e-02 +1.69212207e-01 +2.81960577e-01 -1.74587548e-01 +1.65913869e-02 +3.38413626e-01 +2.10889027e-01 -1.86027333e-01 -2.39999667e-01 +2.13508621e-01 +1.21799052e-01 +1.50952175e-01 -1.60143465e-01 +2.96861142e-01 -1.57600448e-01 -1.24180531e-02 +4.66208905e-02 +3.11392248e-01 -6.91686571e-02 -2.53682315e-01 -1.12766013e-01 -4.37251888e-02 -1.68320298e-01 +1.11550866e-02 +7.31218159e-02 +1.38832390e-01 +1.56492516e-01 +1.87390357e-01 -2.99308389e-01 -9.91204083e-02 -3.52997817e-02 -3.62875819e-01 +1.57563880e-01 -1.15366831e-01 +1.73412696e-01 -1.92719921e-01 +2.16318574e-02 +2.39623040e-01 +2.12263837e-01 -1.86924234e-01 +1.16298847e-01 -1.96181998e-01 +1.85030565e-01 +2.35880211e-01 -3.51386577e-01 -7.04275742e-02 -2.33622883e-02 -3.49821970e-02 -1.71080023e-01 +1.41260564e-01 +1.75153226e-01 +8.25538337e-02 +2.10028201e-01 -7.25658834e-02 -3.48245025e-01 -1.11965291e-01 -3.15036535e-01 -2.89614886e-01 +3.09939887e-02 +2.88968593e-01 +1.65585652e-01 +1.26266316e-01 -2.07760081e-01 +2.70383596e-01 +1.07372798e-01 +1.50385667e-02 +5.67308255e-03 -3.59102726e-01 -1.20870933e-01 -1.38481677e-01 +2.85377115e-01 -2.97226757e-01 -1.64032117e-01 +4.59890403e-02 -2.76966184e-01 -6.01000898e-02 -3.47444117e-01 -2.29876295e-01 -1.73155829e-01 +2.77791947e-01 -1.28936440e-01 -3.12748730e-01 -3.31770569e-01 -2.76934385e-01 -3.67552377e-02 +2.01610833e-01 -3.51557463e-01 -8.55956823e-02 +3.18560004e-01 -1.79588288e-01 +7.13022277e-02 -3.68116021e-01 -1.85051620e-01 +3.60748202e-01 -3.36341053e-01 -2.80042082e-01 +3.39308858e-01 -1.85415074e-01 -1.52645156e-01 -6.26804605e-02 -1.02808669e-01 -1.60992201e-02 -2.36714706e-01 +1.87480047e-01 -3.11184466e-01 +3.99865843e-02 -1.31237268e-01 +1.77569300e-01 +3.31384867e-01 +1.49913765e-02 -2.41584405e-01 -2.10895896e-01 -2.03021914e-01 +3.40341479e-02 +8.49932283e-02 +7.23781362e-02 +2.69490238e-02 -2.26302892e-01 -4.65137511e-02 +5.33798300e-02 +3.43123943e-01 -1.69050917e-01 +8.19438994e-02 -2.63704002e-01 +6.04945943e-02 +3.44108701e-01 -3.04398596e-01 +3.17514420e-01 +1.30263805e-01 -4.02230620e-02 -1.77750885e-01 -1.41120955e-01 -7.39898607e-02 +2.46794835e-01 -3.34050357e-01 -5.73204309e-02 +4.58557345e-02 -3.97426128e-01 +8.36052075e-02 +1.05094686e-01 -2.44787350e-01 +7.17832595e-02 +2.32305169e-01 +1.15873098e-01 +3.09843272e-01 -9.83119011e-02 -2.61149295e-02 -9.15826578e-03 +1.19171180e-01 +2.09414259e-01 -3.93690377e-01 +1.39736429e-01 -5.72724268e-02 +3.55263025e-01 -1.08749136e-01 -1.11226976e-01 -3.89660709e-02 +1.95318721e-02 -3.50147724e-01 +2.74167269e-01 +1.38674021e-01 -9.90310237e-02 +6.17886968e-02 +2.38811329e-01 -3.06786388e-01 -5.99722490e-02 -3.27168286e-01 +1.20471150e-01 +1.70312915e-02 -5.99079616e-02 -7.25801811e-02 +3.29814315e-01 +1.52772382e-01 -4.35375795e-02 +2.36861646e-01 -4.42743935e-02 -2.42361441e-01 -3.26386988e-01 +1.66964412e-01 -3.60553741e-01 -1.94230631e-01 +9.32780728e-02 -5.61262928e-02 -1.96511641e-01 +1.54437855e-01 +1.64091229e-01 +2.52262235e-01 +5.00065126e-02 +1.12608541e-02 -3.73693347e-01 +1.68752342e-01 +3.11780214e-01 
#Parameter# /_1 {20} 321 ZERO_GRAD
+1.55676827e-01 +5.69570959e-02 -3.45916331e-01 +3.52031961e-02 +1.37215227e-01 +9.83508006e-02 -1.70199797e-01 +1.21338718e-01 -1.10508397e-01 -2.11781114e-02 -2.12396532e-01 -1.31914079e-01 -1.21061178e-03 -1.15456335e-01 -2.47659504e-01 +3.66790175e-01 -1.86438393e-02 +8.17588866e-02 -1.18901908e-01 +3.88323441e-02 
#Parameter# /_2 {20,20} 6401 ZERO_GRAD
+2.66286433e-01 -1.35214850e-01 +3.38904917e-01 +2.41983123e-02 +2.33046398e-01 +2.59072691e-01 -3.41618508e-01 -3.54259759e-01 -1.47256717e-01 +1.89746588e-01 -3.68401483e-02 +3.30596149e-01 -3.13728809e-01 -1.41287029e-01 +8.18854943e-03 +1.28679767e-01 +2.48853743e-01 -1.90398097e-01 -1.93971097e-01 -3.45786661e-01 +1.66831300e-01 +1.95164472e-01 -2.31790036e-01 -3.01539868e-01 +9.39210951e-02 +1.13356158e-01 -2.84620345e-01 -2.21769825e-01 -8.67823437e-02 +2.02378228e-01 +3.15426081e-01 -2.73165345e-01 +2.43743643e-01 -2.18517296e-02 -3.22435081e-01 +1.40767917e-01 +1.28849193e-01 -1.60049051e-01 -4.54310328e-02 +3.09163719e-01 -1.75266668e-01 -1.59997270e-01 -3.41927379e-01 -1.62298903e-01 -3.36900204e-01 -6.34170622e-02 -2.57585704e-01 +3.59311551e-01 +2.64203459e-01 +1.56624869e-01 +1.04939170e-01 +5.85686751e-02 +1.17546350e-01 -5.67636751e-02 -1.86767653e-01 -3.69762838e-01 -2.51726300e-01 -3.84148896e-01 -1.99124023e-01 -2.37640411e-01 -2.06152096e-01 -1.71987697e-01 +1.74896955e-01 +2.80806571e-01 -1.25565097e-01 -1.65211365e-01 +8.08963254e-02 -1.87938929e-01 -2.48429894e-01 +5.39764091e-02 +3.50294933e-02 +1.34000301e-01 +2.25333393e-01 -9.53209847e-02 +6.78706616e-02 -3.80313694e-01 -6.64452165e-02 -2.22086653e-01 +1.30889952e-01 -1.18743628e-01 +2.66377907e-02 -2.48342052e-01 -7.57931322e-02 -3.97558212e-01 -4.17980889e-04 -1.30625442e-01 -2.10408390e-01 -9.34718549e-02 -1.14834778e-01 -2.25318134e-01 +9.62350667e-02 -3.67142111e-02 +3.15371275e-01 +2.71935165e-01 +7.02634305e-02 -6.16304530e-03 +1.04142122e-01 +1.60999626e-01 -1.50904402e-01 -1.66649431e-01 +3.42449784e-01 +2.99382776e-01 -3.20073724e-01 -7.01011866e-02 +2.59146333e-01 +1.85582876e-01 -2.15084836e-01 -1.68675020e-01 +3.11019331e-01 -3.36765945e-01 +2.86210328e-01 +1.94929585e-01 +2.22159937e-01 +2.70332515e-01 -2.22873464e-01 -1.35718659e-01 +8.74830112e-02 -3.36782068e-01 -2.21221089e-01 +2.47479647e-01 +3.60280961e-01 +3.25300246e-01 +5.53936027e-02 -1.23874836e-01 -2.61389226e-01 +3.84468883e-01 +1.76528797e-01 -2.69735277e-01 -2.60213822e-01 -1.19114503e-01 -2.24269554e-01 -1.47991022e-03 +1.16100378e-01 -2.18458295e-01 +2.68255711e-01 -3.73763025e-01 -1.46697223e-01 +2.60860264e-01 -3.55273008e-01 -6.52303696e-02 -1.74044624e-01 +1.14865780e-01 -2.40290865e-01 +1.36918813e-01 +3.17087322e-01 +1.02462240e-01 -3.26229095e-01 +1.79639384e-01 +9.86418799e-02 +9.08021703e-02 +1.84531137e-01 +1.76784277e-01 +3.13669622e-01 +3.85643423e-01 -1.38686970e-01 +1.82570219e-01 +1.32027656e-01 -3.84670049e-01 +1.97383448e-01 +7.13376775e-02 +1.94195166e-01 -3.10566753e-01 -1.13816887e-01 -4.53288034e-02 -1.44123241e-01 -3.09863210e-01 -3.09221029e-01 +2.18043357e-01 -2.80761629e-01 -3.62011790e-01 +7.47305602e-02 -2.89311141e-01 -3.43207195e-02 -3.43479723e-01 +2.68088818e-01 -2.02322766e-01 +2.25563347e-01 +1.35775492e-01 -2.06753403e-01 -1.89821824e-01 +1.08900122e-01 +1.74179763e-01 +8.41866881e-02 -2.00849622e-02 -1.40079781e-01 +1.52592257e-01 -3.13682467e-01 +3.83060247e-01 -3.37307639e-02 +2.19115272e-01 -1.33743435e-01 -1.29205724e-02 -2.70729750e-01 -3.38110536e-01 +1.73301026e-01 -1.40261605e-01 -1.94776520e-01 -3.79581273e-01 -3.19473982e-01 +2.45796755e-01 -1.88083142e-01 -3.41352940e-01 -1.62579492e-01 -3.86605859e-01 -7.04811662e-02 -5.62095270e-02 -1.99443921e-02 -6.42025620e-02 -2.93606222e-01 -2.97972292e-01 +1.89284593e-01 +4.82372604e-02 +1.52082637e-01 +8.43779668e-02 -2.78259844e-01 +6.74907258e-03 +2.00668760e-02 -2.80824043e-02 +3.12423497e-01 +5.55055551e-02 +1.16730146e-02 +2.99892217e-01 -7.14805722e-02 -3.03730398e-01 -3.29267740e-01 -2.96945244e-01 +3.08552891e-01 -2.39249408e-01 -2.96606421e-02 -1.28052980e-01 -2.98977554e-01 +2.66398787e-01 -1.69087410e-01 +1.75487101e-01 +1.93179160e-01 -2.57082224e-01 -2.59213924e-01 +3.66983235e-01 -3.03535163e-01 +3.49206418e-01 -1.82018653e-01 -2.04703256e-01 +4.33800101e-01 +3.83542664e-03 -6.01463020e-02 +1.84642505e-02 +7.56834820e-02 -4.88692746e-02 -2.27187485e-01 +2.67306626e-01 -2.59125859e-01 -1.22230507e-01 -8.25411230e-02 -1.61549598e-01 +3.52982402e-01 -9.48699787e-02 +3.15080822e-01 -1.90794513e-01 -3.63168004e-03 -3.37380648e-01 +3.04497451e-01 -3.55527192e-01 +5.76413460e-02 -2.42606610e-01 -2.58576553e-02 +2.68259913e-01 +2.66520768e-01 -1.25647679e-01 +2.86133170e-01 -8.28342959e-02 -3.38779330e-01 -2.08933167e-02 -3.16047877e-01 -1.62572145e-01 +3.54592413e-01 -2.00223222e-01 -1.00228027e-01 +3.07830572e-01 +2.31143624e-01 -1.67520508e-01 -2.18553573e-01 -1.47866622e-01 +3.43002021e-01 -1.01172850e-01 +2.27927804e-01 +2.57388145e-01 -1.96536213e-01 +3.59214097e-02 +2.36982033e-01 +3.17870855e-01 -7.87413493e-02 +2.26938613e-02 +1.64087454e-04 -4.45357636e-02 +1.59243509e-01 +1.51359335e-01 -2.11019263e-01 +1.71996057e-01 -6.13340586e-02 +1.35381237e-01 -1.65950507e-01 -2.08004683e-01 -2.15385869e-01 +9.28402692e-03 -2.90435672e-01 -1.33524701e-01 -3.75747740e-01 +2.17440948e-02 -2.17006609e-01 -2.97288209e-01 +3.19150388e-01 +2.32678894e-02 +1.57024011e-01 -3.32030505e-01 -1.66473195e-01 -7.98341408e-02 +9.76701975e-02 -3.81688714e-01 +3.20388556e-01 -1.79580182e-01 +4.84210178e-02 +3.64442348e-01 -3.32832724e-01 +2.94843346e-01 -4.20615263e-02 +3.34490761e-02 -1.78984404e-01 +3.24187219e-01 +1.91700652e-01 +2.08626315e-01 -3.66801322e-01 +9.32997838e-02 +2.35681549e-01 +1.50278181e-01 -1.01848863e-01 -3.50466371e-01 -2.46042863e-01 -3.58876109e-01 -1.18551046e-01 +2.39345893e-01 +3.28717053e-01 +3.74942750e-01 -2.73454607e-01 +7.33719096e-02 -9.45459008e-02 -3.12770188e-01 +2.55309582e-01 +1.87144130e-01 -1.43383548e-01 +2.42984429e-01 +2.26975039e-01 +1.88771293e-01 +2.04122499e-01 -1.89160243e-01 -2.67900944e-01 -3.21692578e-03 +9.57286060e-02 -2.24821314e-01 -3.02197486e-01 +1.33275703e-01 +1.18462600e-01 +1.39527112e-01 +2.72991836e-01 +2.38087863e-01 +1.85690206e-02 -3.25395972e-01 -2.73536682e-01 +1.70765683e-01 +9.41001549e-02 -3.25551867e-01 -1.22077964e-01 -5.73338680e-02 -1.11485764e-01 -1.67907104e-01 -2.77794540e-01 +3.52159023e-01 -3.37332487e-01 +2.78707892e-01 -1.84280932e-01 +3.52223307e-01 -1.50970876e-01 +3.39400470e-02 -3.35249037e-01 -2.55547464e-01 -2.13747039e-01 +1.24789819e-01 +3.41211706e-01 -4.35696356e-02 -2.12273404e-01 +3.05791587e-01 +1.23227768e-01 -1.86166927e-01 -1.12683184e-01 +3.40086311e-01 +1.68194965e-01 +9.10089463e-02 -6.35404736e-02 -1.03438534e-01 +1.13644041e-01 -3.45085151e-02 
#Parameter# /_3 {20} 321 ZERO_GRAD
+8.29218626e-02 +3.02801967e-01 -2.37572804e-01 -3.24418187e-01 -2.61654735e-01 +2.09888831e-01 -2.35085845e-01 +2.82113701e-01 +6.05489463e-02 -1.44622460e-01 +3.45675617e-01 +1.65618271e-01 -2.59409934e-01 -1.89584553e-01 -3.18203092e-01 +9.13587883e-02 +2.57599086e-01 -3.11261982e-01 -2.08004653e-01 +6.44910038e-02 
#Parameter# /_4 {20,20} 6401 ZERO_GRAD
+1.55157940e-02 -2.92304792e-02 -1.40809953e-01 +6.82897791e-02 -1.77590340e-01 +1.11208528e-01 -1.68073297e-01 +2.65189916e-01 +2.04616770e-01 -3.28500807e-01 +3.57451975e-01 -2.15696141e-01 +2.09475279e-01 +2.76074797e-01 -2.54897952e-01 -2.96104848e-01 +1.33096457e-01 +1.64069906e-01 -2.32615862e-02 -2.34681278e-01 +1.89114615e-01 +1.33919850e-01 +2.96065927e-01 +4.93286736e-02 -3.68572354e-01 -6.38014749e-02 +3.49020734e-02 -2.23394886e-01 +9.71879065e-02 +1.11443654e-01 -1.71840042e-01 +5.46668470e-02 +2.29228199e-01 -1.82141975e-01 -1.37591019e-01 +2.82682121e-01 +1.12401687e-01 -2.41520450e-01 -1.63223550e-01 -2.64851749e-02 -1.53903276e-01 -6.03849366e-02 -9.51206237e-02 -2.40510538e-01 -3.42855453e-01 -2.76244164e-01 +3.26330632e-01 -1.23215668e-01 +3.09642464e-01 -5.06001972e-02 -1.41407967e-01 -3.76585238e-02 -5.77678159e-02 -2.87594587e-01 -3.41938078e-01 -8.42602253e-02 -3.46101731e-01 -1.77464247e-01 +1.08254738e-01 +9.71415117e-02 +2.48902868e-02 -1.06189989e-04 +2.38871902e-01 +2.23439500e-01 +2.49190509e-01 -3.14636767e-01 +1.78335249e-01 -7.69537613e-02 -1.51456654e-01 +4.26700532e-01 +2.48244498e-02 +2.33987719e-01 -1.18259363e-01 +2.73884535e-01 -9.52609852e-02 +8.82604122e-02 -2.59305686e-01 +2.59919703e-01 -3.74695927e-01 +3.39896709e-01 -1.05185844e-01 -3.17502201e-01 -2.00090377e-04 +2.31431007e-01 -1.79623097e-01 -1.50312245e-01 +1.74835756e-01 +2.86044329e-01 +5.75729273e-03 -3.07797372e-01 +3.61065269e-01 +2.84445196e-01 -8.66414458e-02 +3.27128351e-01 +2.55282730e-01 -3.18880022e-01 +3.85078222e-01 -2.75876194e-01 -1.16190501e-01 -6.85780868e-02 -3.47921163e-01 -3.79284859e-01 -4.00456309e-01 +6.05894141e-02 +8.82578716e-02 +2.30116516e-01 -3.77146751e-01 -1.19871065e-01 +1.35985404e-01 +1.53976068e-01 +1.75017163e-01 +8.40999037e-02 -1.55242801e-01 +1.40344352e-01 -6.53431788e-02 -1.11218423e-01 +2.09938660e-02 -2.54632354e-01 -1.77382991e-01 -2.22259432e-01 +2.94620484e-01 -4.16575707e-02 -1.90285087e-01 +2.44130492e-01 -1.01222880e-01 -1.87198520e-01 +6.81485832e-02 -2.11345255e-01 -1.46352723e-01 -3.33178937e-01 +7.49576651e-03 -9.72193033e-02 +2.60813594e-01 +1.27222389e-01 -2.97372907e-01 -8.06084499e-02 -2.46904250e-02 +6.69078678e-02 -5.81860207e-02 -1.02474494e-02 -3.40154558e-01 -2.15942547e-01 +1.73358563e-02 -1.50637776e-01 +1.44660726e-01 -1.84058607e-01 +3.46501261e-01 +2.48524502e-01 +2.35960767e-01 -2.84195215e-01 +9.40410644e-02 +2.58176774e-02 -2.95869470e-01 -1.78726524e-01 -3.66099685e-01 +3.39521021e-01 -1.73288360e-01 +1.44801453e-01 -3.57255727e-01 +1.92849338e-01 +1.29616885e-02 +3.64163011e-01 -2.37220433e-02 +1.42758265e-01 +1.20804869e-01 -1.33568898e-01 -3.18781212e-02 +1.80906430e-01 +8.06369334e-02 +7.22117722e-02 -1.88010201e-01 -1.07404448e-01 -2.90895253e-01 -1.37654785e-02 -2.03437656e-01 -6.61014169e-02 +2.26271510e-01 -3.17960382e-01 +8.20036530e-02 +2.02071890e-01 +4.21884097e-03 -3.51533890e-01 +1.96846783e-01 -1.44582033e-01 -3.39452177e-01 -8.12100023e-02 -3.71173501e-01 +2.20785830e-02 -7.30442554e-02 -6.27831072e-02 -3.95212114e-01 -1.20652020e-01 +1.54430419e-02 +2.52284199e-01 -7.59691298e-02 -3.38477999e-01 -4.08097021e-02 -2.99258262e-01 -3.08751523e-01 -3.12393099e-01 +6.47749975e-02 -1.94185182e-01 +1.49873957e-01 -1.71030611e-01 +1.08515136e-01 -3.65344733e-01 +6.09676205e-02 -2.30538845e-01 +1.84756203e-03 +1.88503504e-01 +2.02081114e-01 +3.36506367e-01 +3.85840237e-01 -2.33496115e-01 -2.74386555e-01 +9.41670686e-02 -2.00726137e-01 +1.25469938e-02 +2.57807285e-01 -3.37191343e-01 +6.25348985e-02 -3.07373226e-01 +2.87181228e-01 -2.62468219e-01 +6.68281317e-03 +2.81555444e-01 -1.21099710e-01 -1.93845689e-01 +7.51681402e-02 -2.71690369e-01 -3.43700677e-01 -1.47595003e-01 -3.14476907e-01 +6.79741949e-02 -2.82022417e-01 -3.28502923e-01 -4.11147289e-02 -6.39010966e-02 +3.53353113e-01 +3.39326143e-01 -1.24268070e-01 -3.31584990e-01 -8.18983559e-03 +1.36496201e-01 -2.05867872e-01 +3.68470907e-01 -3.67894322e-01 -3.40468794e-01 +1.47516519e-01 -1.07030280e-01 +1.05172478e-01 +3.37648958e-01 -1.56147510e-01 +2.61595875e-01 +1.31466717e-01 -3.48395318e-01 -4.15518275e-03 -2.86099911e-01 +3.62258852e-02 +8.19715634e-02 +4.10640389e-02 -3.77793580e-01 -2.75399894e-01 -2.41017282e-01 -7.03727752e-02 -3.15301508e-01 +1.23109423e-01 +3.69547963e-01 -1.93108022e-01 +4.34332304e-02 -3.57843310e-01 +1.90838635e-01 -2.34587878e-01 -2.18655057e-02 -3.20659280e-01 -3.01800162e-01 +5.18476181e-02 +2.46002182e-01 +6.87675774e-02 +3.50459963e-01 -3.56338978e-01 -1.44488007e-01 -2.56433815e-01 -8.19208920e-02 -1.39777973e-01 +5.33558754e-03 -2.42173672e-01 +9.42342682e-04 -3.20785403e-01 +1.23069353e-01 -1.07066790e-02 -2.58002467e-02 -2.84334511e-01 -2.26545464e-02 +3.18422139e-01 -1.04316749e-01 +2.01646879e-01 +5.63393310e-02 -1.30083591e-01 -1.77310646e-01 -1.25543997e-01 -2.28609577e-01 -7.70394057e-02 +1.61406115e-01 -3.19020927e-01 +2.65645266e-01 -2.06482023e-01 +1.79178908e-01 +3.07021439e-01 -3.10564451e-02 -2.84275055e-01 -9.86116007e-03 -2.25083351e-01 +1.39124736e-01 -3.87127608e-01 +3.28287840e-01 +3.03048909e-01 -1.44011289e-01 -1.99620277e-01 -5.63586541e-02 -3.86121988e-01 -3.60237323e-02 -4.26410675e-01 +8.55565146e-02 -2.75148511e-01 +1.36315882e-01 +1.47059903e-01 +2.94967592e-01 +9.56049860e-02 +1.49700478e-01 -2.41343513e-01 -3.73388045e-02 -7.41689354e-02 +2.47676119e-01 +1.23498403e-01 +2.62724340e-01 +2.17635468e-01 +6.57860842e-03 -1.37582079e-01 +1.08197823e-01 +9.24581438e-02 +2.22640887e-01 -3.13581944e-01 -2.10025832e-01 -3.47610861e-01 -3.32069129e-01 +2.30555143e-02 -2.49238148e-01 +1.20164387e-01 -8.35031271e-02 -3.04035932e-01 -3.51524442e-01 -3.83013159e-01 +1.52830938e-02 -1.55879976e-03 +2.01451927e-01 -4.07693395e-03 +2.08053708e-01 +2.38784626e-01 +3.80111337e-01 -6.55051414e-03 +3.85127604e-01 -9.81839672e-02 +2.21642867e-01 +1.62732601e-01 +2.78748393e-01 -2.74606168e-01 +1.68317243e-01 -9.33047980e-02 -6.87627569e-02 -1.09223388e-01 +1.96544603e-01 -2.83757299e-01 -8.02351460e-02 -1.53321726e-02 -1.13545902e-01 -3.75683546e-01 -3.40782374e-01 +9.59130600e-02 +7.09219202e-02 -3.81112009e-01 -3.33180726e-01 +3.34220946e-01 -1.59883097e-01 -2.73995906e-01 -8.14464316e-02 -2.03901738e-01 +3.09872359e-01 -2.84604490e-01 -1.79504067e-01 -4.08008287e-04 +1.01038784e-01 +2.71464705e-01 -4.12101187e-02 -1.70875154e-02 -1.29404500e-01 +1.07595876e-01 +1.49141952e-01 +3.36507782e-02 -2.51002163e-01 
#Parameter# /_5 {20} 321 ZERO_GRAD
+1.35018006e-01 +2.24816531e-01 -9.19141471e-02 +7.26185516e-02 -2.07864091e-01 -2.77095646e-01 -9.68746841e-02 -4.00859505e-01 +4.05853897e-01 +2.01575577e-01 +2.55265329e-02 -1.41117617e-01 -3.41068178e-01 -3.79983991e-01 -5.81089854e-02 -1.25144869e-01 -1.97911054e-01 -2.47824028e-01 -8.44938532e-02 -2.23106429e-01 
#Parameter# /_6 {6,20} 1921 ZERO_GRAD
+4.39484805e-01 +3.53462309e-01 +9.45096910e-02 -4.39174950e-01 -2.53694743e-01 +4.15747404e-01 -2.32375726e-01 -3.81091952e-01 -2.32682675e-01 +1.54137269e-01 -1.67746976e-01 +9.94832888e-02 -1.96396753e-01 -1.41921297e-01 -2.20507085e-01 +3.60495113e-02 -2.31794834e-01 -2.71266311e-01 +9.81795788e-02 +1.20268211e-01 -2.82726854e-01 +3.21300745e-01 -3.66512358e-01 +4.22904551e-01 +1.82940885e-01 +2.58505255e-01 -1.89526483e-01 -6.77511767e-02 +6.93960339e-02 -2.47263208e-01 -2.05077320e-01 -4.41132903e-01 -2.47804135e-01 +2.97219247e-01 -8.05708244e-02 -4.32934135e-01 +1.42210841e-01 +2.89622873e-01 -4.17487204e-01 +5.70932664e-02 +9.64608714e-02 -3.78126383e-01 -3.78524840e-01 -2.81053275e-01 +1.61159337e-01 +2.96025485e-01 -3.45412195e-01 +4.02876824e-01 +5.75986020e-02 -4.87635702e-01 +1.43893868e-01 +1.62428603e-01 +3.55450779e-01 -2.36456990e-01 +1.87252060e-01 -1.17671661e-01 -1.48497233e-02 +3.34268296e-03 -6.01113103e-02 +5.78445375e-01 +3.95994224e-02 -2.99267657e-02 +5.17162355e-03 +3.78538877e-01 -2.80663073e-01 +1.99354198e-02 +2.58461684e-01 +1.83423191e-01 -4.89047654e-02 -2.09890872e-01 -2.15223163e-01 +1.26333296e-01 -3.41729857e-02 -8.19882154e-02 -7.88355619e-02 +3.22454929e-01 -3.47802937e-01 +3.55459034e-01 -4.36108202e-01 -4.19943005e-01 +1.53509974e-01 +9.57301706e-02 -4.37706172e-01 +3.08839262e-01 -4.54875231e-01 -3.00596088e-01 +3.43985736e-01 -1.20048903e-01 +1.00024112e-01 -4.15034324e-01 -1.02671795e-01 +3.95833910e-01 -1.82734057e-01 -4.18402404e-01 -7.21659977e-04 -1.66278273e-01 +3.04789305e-01 -3.19219351e-01 -3.40960115e-01 -1.94183841e-01 +2.14525849e-01 +7.00859576e-02 -6.39364719e-02 -3.32304835e-01 -1.93912789e-01 -2.08110854e-01 -1.15032174e-01 +3.13151777e-01 +3.29356194e-01 -9.50873867e-02 +4.75269496e-01 +3.05524141e-01 +7.58335143e-02 +4.08643074e-02 -1.72071889e-01 -3.57122608e-02 -4.22091752e-01 +1.84789687e-01 +2.07107067e-01 -1.62391752e-01 
#Parameter# /_7 {6} 97 ZERO_GRAD
-9.54949334e-02 +3.50183040e-01 -8.40763673e-02 -9.58658159e-02 -1.89617872e-01 -3.77730615e-02 
