#Parameter# /_0 {15,18} 4321 ZERO_GRAD
+2.35717669e-02 +1.45385608e-01 +9.81415361e-02 +6.89681545e-02 +1.52270287e-01 -2.56568611e-01 -5.94771467e-02 +4.30518053e-02 -3.71975787e-02 -1.22862317e-01 +2.57256061e-01 -2.05379054e-01 -1.22366257e-01 +4.90350947e-02 +2.14236423e-01 -2.74410516e-01 +2.39850972e-02 -1.38393044e-01 -1.65825859e-01 +2.06256196e-01 +1.31725997e-01 +2.35018462e-01 +2.77606845e-01 +2.05889061e-01 -1.52441606e-01 +1.82380274e-01 +1.16612539e-01 +1.38027593e-01 -7.99532086e-02 -1.91449299e-02 +2.05821887e-01 -2.74659216e-01 +6.82086311e-03 -1.36653244e-01 -2.76243627e-01 +1.93871632e-01 -1.03943944e-01 +1.68354601e-01 -1.28743395e-01 +5.11597432e-02 -2.18203872e-01 -9.44581553e-02 -1.78711236e-01 +1.08867496e-01 -1.01551235e-01 -1.33961111e-01 -1.63067672e-02 +1.98574677e-01 +7.89316818e-02 +1.29501954e-01 -2.61108190e-01 -1.73873395e-01 +1.38145924e-01 +1.18649915e-01 -2.74593621e-01 -1.41313851e-01 -1.15350142e-01 -1.30683538e-02 +1.48297802e-01 -1.43834010e-01 -2.35474244e-01 +1.60781026e-01 +1.14030860e-01 +2.44597539e-01 +2.20042795e-01 +1.66715682e-01 -1.49779886e-01 -2.20572039e-01 -3.21353413e-02 -1.27139434e-01 +2.05217019e-01 -5.20249978e-02 -1.97003826e-01 -3.14147100e-02 -2.40510270e-01 -1.45044714e-01 -2.49635205e-01 +1.05193734e-01 +2.31753230e-01 -1.28396586e-01 -1.57533377e-01 +8.30905437e-02 +1.94805935e-01 -2.51332223e-01 -9.60587859e-02 +2.51432713e-02 -9.82721001e-02 -2.57246792e-01 +9.09725353e-02 -1.56049088e-01 +2.70442039e-01 +1.95454538e-01 -2.38639578e-01 +2.27818266e-01 +5.45995729e-03 -1.69440240e-01 -1.70151442e-01 +3.67865525e-02 +8.78627002e-02 -1.59085598e-02 -2.16619730e-01 +1.78689912e-01 -2.47823507e-01 -6.97536096e-02 +1.68395385e-01 -2.12967083e-01 +8.65610614e-02 +2.75648031e-02 +1.51025772e-01 -1.11171991e-01 +2.25530833e-01 +2.75080860e-01 +1.69897065e-01 -1.49500594e-01 +2.34442815e-01 +3.19114923e-02 +2.59604491e-02 -1.49956629e-01 +1.51381969e-01 -1.79573178e-01 +1.37021676e-01 -1.25011399e-01 +1.75458968e-01 -5.95477410e-02 +1.99330132e-02 -1.76969260e-01 +2.06901535e-01 -2.56706923e-01 +4.89197597e-02 -1.61181971e-01 +8.56149048e-02 -5.96039593e-02 +2.02313989e-01 +8.13449994e-02 +2.27827519e-01 +1.95668533e-01 +2.44773388e-01 -6.87812269e-02 +3.85370664e-02 +1.07134683e-02 +1.22263171e-01 -2.70185590e-01 -8.92830864e-02 +2.71960557e-01 -3.00046001e-02 +1.44237071e-01 +8.22640136e-02 -1.56511754e-01 -1.70801997e-01 -1.30314097e-01 +1.63473964e-01 -1.74350590e-01 -1.16890192e-01 +1.73434541e-01 -2.04279855e-01 +6.77054375e-02 +2.21614197e-01 +1.12976797e-01 -2.46554121e-01 -1.33357476e-02 -4.15793285e-02 -1.44431680e-01 -1.91432908e-01 -1.48554534e-01 +1.49103761e-01 -1.62797719e-01 -1.38399184e-01 -8.12592953e-02 -2.05878958e-01 +1.04792528e-01 -1.78266764e-01 +2.14197308e-01 -4.46451604e-02 +1.65303499e-02 -2.64195323e-01 +1.06720909e-01 +2.26280928e-01 +9.89673436e-02 +1.28273815e-01 -1.96537659e-01 +3.99337821e-02 -6.97722957e-02 -2.52648056e-01 +7.95894936e-02 -4.87591513e-02 +3.74013484e-02 +1.04791023e-01 +6.14424720e-02 +3.60883139e-02 +2.39633977e-01 -1.12765618e-02 -1.57297343e-01 +1.51001424e-01 -7.67774731e-02 -1.56249493e-01 -1.27610743e-01 -1.66528642e-01 -2.68044531e-01 -2.60495432e-02 -1.17702700e-01 -1.12505898e-01 +1.01320423e-01 -2.39454478e-01 +4.23443951e-02 +2.46105522e-01 +4.22576442e-02 -2.76418626e-01 -8.75255540e-02 +2.04319894e-01 +1.51889861e-01 -1.20431602e-01 -1.74014837e-01 -1.78779870e-01 +4.62787375e-02 +7.84071162e-02 -2.24392503e-01 +6.42714351e-02 +2.58133356e-02 +1.67570725e-01 -2.36169204e-01 +2.30687913e-02 +1.70323756e-02 +9.63131785e-02 -1.62998676e-01 -1.23372771e-01 -1.58114165e-01 -1.29498050e-01 -1.84288025e-01 +1.35987148e-01 -2.41016269e-01 +3.37105989e-02 +2.02407345e-01 -7.29594156e-02 -1.78927369e-02 +3.94963473e-02 -2.30144516e-01 -1.17399136e-03 -2.59943396e-01 +1.31657973e-01 +2.20913082e-01 +2.63228625e-01 -1.04529530e-01 +2.28605568e-01 +1.25791766e-02 -5.08238971e-02 -2.68956512e-01 +9.28413719e-02 -1.14944205e-03 +1.15726776e-01 +1.74227864e-01 +1.06763296e-01 +9.27119851e-02 +1.45281270e-01 +1.73230588e-01 +2.69272655e-01 +1.80539712e-01 -1.38277426e-01 -1.89411140e-03 +8.66171941e-02 +2.07833186e-01 +2.20956549e-01 +2.28773057e-01 +1.26587689e-01 +1.39532149e-01 -1.06364213e-01 -1.63827613e-01 -7.29703456e-02 +1.50145188e-01 -1.76240280e-01 -9.77310836e-02 
#Parameter# /_1 {15} 241 ZERO_GRAD
+3.11414506e-02 -6.02956925e-06 +1.84265748e-01 -2.55078673e-01 +1.13765515e-01 -1.58071950e-01 -2.83684254e-01 -1.39406592e-01 -1.74576268e-01 +6.70489147e-02 +1.13771044e-01 -1.40791852e-02 -2.05109000e-01 +8.91352072e-02 +4.55280244e-02 
#Parameter# /_2 {15,15} 3601 ZERO_GRAD
-1.89016894e-01 -1.22440020e-02 -3.38086337e-02 +1.01005375e-01 -5.03487065e-02 +2.34635752e-02 -1.24293745e-01 +2.27500141e-01 +1.85014993e-01 +2.58924872e-01 +2.30133578e-01 -8.28700364e-02 -7.56690279e-02 +2.84158707e-01 -9.03787557e-03 +1.56587258e-01 -9.29440707e-02 +2.01811329e-01 +2.80246027e-02 +1.67931423e-01 -2.10737675e-01 -2.56694496e-01 +8.98476243e-02 +1.06402069e-01 +2.02615067e-01 +1.47102952e-01 -2.38986686e-01 -2.71232724e-01 -4.31013517e-02 -2.74216980e-02 +2.53355384e-01 -1.56637430e-01 -1.10027097e-01 +1.31752431e-01 -1.78104058e-01 -2.77497303e-02 -2.33849525e-01 -7.27349967e-02 -1.91143364e-01 -2.17211857e-01 +6.71781898e-02 -1.60147354e-01 +2.28692200e-02 +1.75853327e-01 -6.98880702e-02 -2.49682203e-01 +2.52272636e-01 +1.38770789e-01 +2.29827598e-01 +2.74811894e-01 +2.77855694e-01 -2.68869549e-01 +1.42880410e-01 +2.73287624e-01 +7.50275403e-02 -9.55164954e-02 -1.31298959e-01 +2.51077026e-01 +8.41936022e-02 -7.49937966e-02 -2.52664596e-01 +4.18464728e-02 +1.20259203e-01 +1.05045475e-01 -4.28798273e-02 +2.58764714e-01 +1.47317320e-01 -2.45269164e-01 -3.03862579e-02 -2.88674265e-01 +1.51416674e-01 +2.01674074e-01 +1.57718971e-01 +2.30106533e-01 +7.52261877e-02 -2.50271577e-02 +3.34604792e-02 +1.92206442e-01 +2.10209236e-01 -1.05404936e-01 +1.09388597e-01 +9.97972414e-02 +1.40461892e-01 -6.16140626e-02 +2.65518010e-01 -2.35592183e-02 -1.40518904e-01 -4.14951481e-02 -1.71814546e-01 +2.46384189e-01 -1.38393044e-01 +9.43572670e-02 -8.05710107e-02 +8.49152729e-02 +7.23836049e-02 +2.07097009e-02 -2.66121957e-03 +9.41466838e-02 -2.36491203e-01 -1.99118465e-01 -1.71096951e-01 -1.02990642e-01 -2.71881640e-01 +8.63408223e-02 +1.26661435e-01 +2.80663967e-01 -2.90663183e-01 -6.38751015e-02 +3.81747112e-02 -1.64149463e-01 +1.53437048e-01 -7.21717114e-03 -2.11256891e-01 +2.30595663e-01 -6.40514046e-02 -7.67862191e-03 +2.79518127e-01 -2.79769152e-01 -4.05231863e-02 +1.88886523e-01 +1.12666480e-01 -9.72369835e-02 -2.31135935e-01 -1.42091289e-01 +7.15835467e-02 -2.77380079e-01 -1.15001321e-01 -1.13474473e-01 +2.43450418e-01 +3.15153413e-02 +1.26806438e-01 -1.95969939e-01 +1.93699032e-01 -2.31111035e-01 -1.04805112e-01 -1.30373105e-01 -1.46306038e-01 +6.64442182e-02 +2.13369489e-01 +6.58309087e-02 -2.86072642e-01 +1.14366502e-01 -1.10214919e-01 -2.78503627e-01 +2.56286591e-01 -2.20550150e-01 +1.95343345e-01 +2.81426832e-02 -2.41995320e-01 +2.87786871e-01 +9.22021270e-02 -1.46614432e-01 -1.69558063e-01 -1.03657335e-01 +2.16897532e-01 -4.25795391e-02 -2.38005649e-02 +1.08576752e-01 +7.78023973e-02 -6.30763397e-02 -2.26419449e-01 +1.16187045e-02 -2.45748937e-01 -1.47140935e-01 -2.12744147e-01 +1.89252675e-01 -2.41309166e-01 +3.30000073e-02 -1.86506078e-01 -1.02475405e-01 +1.22500092e-01 -2.13148803e-01 -3.41910832e-02 +2.73531228e-01 +2.11113155e-01 -1.35044962e-01 +2.03230157e-02 -7.18098953e-02 -2.07478926e-01 -1.34309903e-01 -7.33855590e-02 +2.86770500e-02 +2.04433780e-03 +1.45457402e-01 +3.91676314e-02 -1.67621505e-02 +1.47256970e-01 -1.95677936e-01 -1.41540363e-01 -2.00206459e-01 -1.95198789e-01 +2.46986717e-01 -6.94815516e-02 +9.06879306e-02 -1.90324426e-01 -1.24068081e-01 +1.97336543e-02 -1.69763297e-01 +1.80513591e-01 +8.17132965e-02 -9.71411690e-02 -5.54597378e-02 -1.23905635e-03 +2.25463808e-01 +2.39506483e-01 +1.03818692e-01 +2.20419198e-01 -2.75321435e-02 +1.52389467e-01 +4.65689525e-02 -1.20415084e-01 +5.62957563e-02 -2.21700892e-01 -7.37755448e-02 +1.00300878e-01 -5.02801426e-02 +1.04052529e-01 -7.35128969e-02 -1.29953742e-01 -2.33141661e-01 -1.27303287e-01 +2.14953110e-01 +4.40824293e-02 -1.02434717e-02 +1.54974297e-01 
#Parameter# /_3 {15} 241 ZERO_GRAD
-1.21949695e-01 +1.35405719e-01 -1.87938154e-01 +2.58894652e-01 +1.69272214e-01 +2.03269988e-01 +5.08069992e-02 +3.18992101e-02 -2.15601295e-01 +3.15968134e-02 -2.00680584e-01 -6.86547253e-04 +2.14293495e-01 -1.70195401e-01 +7.89692029e-02 
#Parameter# /_4 {15,15} 3601 ZERO_GRAD
+1.43358201e-01 -1.24864183e-01 +1.62956536e-01 +1.65496338e-02 -1.64848939e-01 +3.40017863e-02 +1.62738785e-02 -1.89524770e-01 +5.52431606e-02 -1.26045540e-01 +1.19767189e-01 +2.15973496e-01 +1.54326305e-01 +1.02840401e-01 -1.96073964e-01 -2.79127240e-01 -6.54527918e-02 +2.78286725e-01 -7.63639733e-02 +2.13830143e-01 +2.16939107e-01 +2.01201495e-02 +2.88710594e-01 +6.39048964e-02 +1.76752191e-02 -2.62416750e-01 -5.61085753e-02 -6.66089170e-03 -3.60193886e-02 +8.57216790e-02 +1.16913840e-01 +1.57592312e-01 +1.40749320e-01 -2.67144054e-01 +3.35265324e-02 +2.80717671e-01 -1.64388776e-01 +8.31310749e-02 -2.13717654e-01 +1.75804228e-01 -2.84533888e-01 +7.74932504e-02 -1.93627298e-01 +2.03572214e-02 +5.13176657e-02 -1.86895385e-01 +2.43736699e-01 +2.36212045e-01 +6.37083948e-02 +1.88312866e-02 -1.91676274e-01 -9.48464125e-02 +1.10959902e-01 +2.44126469e-01 -1.83290288e-01 -8.13420266e-02 +1.71136990e-01 -1.76401615e-01 +1.33786365e-01 -2.68803000e-01 +1.06537648e-01 -2.27339864e-01 +2.11010082e-03 -4.88713719e-02 -1.63859814e-01 +1.15554668e-01 +1.48328081e-01 +2.09004596e-01 -7.19769020e-03 -3.18587460e-02 -8.66589472e-02 -2.59145200e-01 -2.50733852e-01 +2.90906370e-01 +2.68242627e-01 -1.50909230e-01 -1.64475158e-01 +2.31871128e-01 -2.43124500e-01 +3.79556529e-02 -2.37967700e-01 +7.16065094e-02 -3.60379517e-02 -1.27505824e-01 -7.01266602e-02 -1.11531302e-01 +1.07159771e-01 -2.08355665e-01 +2.94934779e-01 +1.64295116e-03 -1.06096841e-01 -1.09304041e-01 +2.53573745e-01 -1.25051841e-01 -1.87442929e-03 +2.11869463e-01 -7.80372694e-03 +2.17601545e-02 +1.11503333e-01 +3.60066183e-02 -7.29022101e-02 +1.95567667e-01 +2.35097617e-01 -2.01637238e-01 -8.76609609e-02 -2.19530612e-01 -7.20690787e-02 -7.59222284e-02 -2.37010464e-01 -2.27335051e-01 +2.78139234e-01 -1.59065127e-01 +1.78836301e-01 +3.79744284e-02 +1.69204459e-01 -1.17525710e-02 +1.55782670e-01 -2.72725075e-01 -8.32627248e-03 -3.56738605e-02 -2.29513243e-01 -1.45768240e-01 -1.95167482e-01 +2.39175946e-01 -6.26026988e-02 -2.19229251e-01 +1.78768903e-01 -1.45451665e-01 -1.66331604e-02 -2.54238486e-01 -7.43464381e-02 +1.81922391e-01 -1.36777028e-01 -2.62903333e-01 -1.46709800e-01 -1.96111977e-01 -2.05390662e-01 +2.15832487e-01 -3.26071791e-02 +2.04656348e-01 -1.49545848e-01 +1.38599023e-01 +1.33868307e-01 -7.92464837e-02 +2.79856384e-01 +5.42463027e-02 -1.34501174e-01 -1.71508402e-01 +1.94338530e-01 +8.18389878e-02 +2.21127309e-02 +7.65898228e-02 -2.16804996e-01 -2.69047678e-01 +4.59447615e-02 -2.70730376e-01 +2.14943379e-01 -2.18080074e-01 +2.79587656e-02 +9.05217156e-02 -1.27800241e-01 +9.76839736e-02 -1.14516867e-02 -1.24805294e-01 +1.63534820e-01 +1.06942363e-01 -2.01566651e-01 +1.45954058e-01 +9.52971727e-02 -1.47374690e-01 -1.77813590e-01 +1.35897219e-01 +2.55240977e-01 -1.29562452e-01 +1.90758869e-01 +5.62304817e-02 +4.01103348e-02 +2.64757156e-01 -1.04872152e-01 +1.83728978e-01 +2.69353569e-01 -1.03439130e-01 -1.06558189e-01 -6.26117438e-02 +1.95312113e-01 -1.36548102e-01 -2.59241253e-01 -2.04310805e-01 -2.90739000e-01 -5.24725989e-02 +1.01517305e-01 +3.73028219e-03 -2.61633247e-01 +1.88341513e-01 -2.45993454e-02 -2.44273677e-01 +1.60340026e-01 +5.26126325e-02 +2.38086894e-01 +2.87613422e-01 -1.43501967e-01 +2.40778908e-01 +2.24148095e-01 -1.79706633e-01 -1.69782773e-01 +1.46895647e-01 -1.30450994e-01 -1.34400636e-01 -2.29872003e-01 +7.15244934e-02 +6.66173324e-02 +2.12865710e-01 +2.79404849e-01 -4.78392504e-02 -4.59127650e-02 +1.14618376e-01 -1.56519875e-01 -5.54879755e-02 -2.00890630e-01 +1.67468831e-01 -5.59732132e-02 +2.36813009e-01 +2.29399845e-01 -1.94197357e-01 -2.29167104e-01 
#Parameter# /_5 {15} 241 ZERO_GRAD
-5.26735038e-02 -4.65354249e-02 -2.43033931e-01 -9.45636705e-02 -2.77059615e-01 +2.00666696e-01 +2.22337758e-03 +1.43212363e-01 +5.66168353e-02 +8.73918906e-02 +1.87557265e-01 -2.56434530e-01 +2.68833280e-01 -1.22856446e-01 +2.44717434e-01 
#Parameter# /_6 {15,15} 3601 ZERO_GRAD
-1.63124725e-01 +5.34203127e-02 +2.56225169e-01 +6.01870269e-02 +1.65877286e-02 -1.30792344e-02 -2.61529446e-01 +2.06233650e-01 +2.86008745e-01 -1.49340183e-01 -7.86049888e-02 +8.54905844e-02 -2.72375822e-01 -1.80915818e-01 +1.86504275e-01 +2.83380270e-01 -2.37295076e-01 +1.21886149e-01 -2.09996790e-01 +1.54553398e-01 +6.34433404e-02 -7.94216171e-02 +9.75616723e-02 +1.19666383e-01 +5.23524135e-02 +1.47112787e-01 -5.47965169e-02 -9.00199786e-02 +9.16004553e-02 -1.87435359e-01 +1.84601307e-01 -1.04503207e-01 -2.07630381e-01 +9.14714262e-02 +2.12224916e-01 -6.06337897e-02 +2.16398954e-01 +7.71963000e-02 -3.85606587e-02 -2.02935219e-01 -2.07506403e-01 -1.79581016e-01 +2.57036358e-01 -7.11015761e-02 +9.42616817e-03 -1.94138139e-01 -3.77549343e-02 -2.04057246e-01 -2.25455351e-02 +2.05496237e-01 -1.04567461e-01 -1.06226973e-01 -4.61117104e-02 -1.61829352e-01 -7.79207200e-02 -1.06301136e-01 -1.79990157e-01 +1.43940046e-01 +1.44011736e-01 +2.22344026e-02 -4.98854145e-02 +1.91187054e-01 +1.94559634e-01 +8.30161572e-02 +1.52997851e-01 -2.54210681e-01 -1.39063476e-02 +2.30266020e-01 -1.66935310e-01 +1.61796078e-01 -3.49599496e-02 +2.33564422e-01 +1.42598659e-01 +4.15520296e-02 -8.31532180e-02 +1.19776979e-01 +1.59720838e-01 +1.85491502e-01 -2.91536540e-01 +2.36680523e-01 +2.08194971e-01 -2.21658014e-02 -2.86730617e-01 -2.70091951e-01 +8.50087553e-02 -2.64979333e-01 +1.85542718e-01 -2.44173169e-01 +1.43170550e-01 +2.42312020e-03 -1.94832578e-01 +1.10852212e-01 +1.30234301e-01 -6.53057471e-02 +2.71324012e-02 +3.64743657e-02 +1.59971938e-01 +4.61770557e-02 -1.19127318e-01 -2.81092048e-01 -8.65733922e-02 -9.50535983e-02 -1.49545014e-01 -2.16865301e-01 +1.87199071e-01 -1.54007182e-01 -8.24907273e-02 +2.74601132e-01 -6.08770438e-02 +2.39640042e-01 +2.60334879e-01 +8.16551000e-02 -2.23215237e-01 +1.68107674e-01 -1.08043298e-01 +1.62745535e-01 -1.60832226e-01 +1.42279446e-01 +1.00881383e-01 -2.22134843e-01 -2.10797042e-02 +2.58667558e-01 +2.76680797e-01 -4.02502678e-02 -2.34098777e-01 -3.21441591e-02 -1.27024651e-01 -2.43851483e-01 +4.57657278e-02 -2.30428144e-01 -2.37666547e-01 +1.29921123e-01 -1.78024486e-01 +2.50115752e-01 +1.13392189e-01 +1.69099797e-03 -2.39284225e-02 -4.39343192e-02 -2.80479521e-01 -5.92210293e-02 -1.39785677e-01 +7.06027672e-02 -1.96327686e-01 -1.48333579e-01 +2.60254830e-01 -2.64810741e-01 -2.47022644e-01 +1.17961116e-01 +1.32948056e-01 +1.78869411e-01 +2.85599053e-01 +5.30701801e-02 +1.39133886e-01 +3.95008251e-02 +4.04356942e-02 +1.71353370e-01 -2.04117492e-01 -2.06271395e-01 +1.24289759e-01 -1.87957093e-01 -9.18183401e-02 +6.00151299e-03 +8.98065604e-03 +2.20724091e-01 -1.94246501e-01 +4.02848423e-03 -1.40586207e-02 -1.03849359e-01 +2.36217976e-02 -7.86501020e-02 +2.81921066e-02 +2.90785581e-01 +2.66416460e-01 -2.59656519e-01 +1.18843406e-01 -1.07480548e-01 +1.44670457e-01 +1.88013166e-01 +2.81973720e-01 -2.34511465e-01 -1.77640110e-01 -8.39051679e-02 +2.64917821e-01 +2.86399066e-01 +1.50705487e-01 -5.50578050e-02 +2.78059304e-01 +5.92944697e-02 +5.87376989e-02 +2.35582113e-01 -2.20551446e-01 +9.75539759e-02 -1.49953052e-01 +1.75111145e-01 +2.29046687e-01 +3.96826193e-02 +2.77996715e-02 -2.41000533e-01 +1.86369464e-01 -9.01667625e-02 -1.11507855e-01 -6.17687106e-02 +5.24543263e-02 +3.86739261e-02 -2.13126063e-01 +5.49967848e-02 +2.50916034e-01 -7.93683231e-02 -1.82225093e-01 +2.72138178e-01 -2.92848535e-02 -1.70518473e-01 -3.38941403e-02 +2.92257726e-01 +2.36818835e-01 +2.66955435e-01 +2.09829241e-01 +7.10752010e-02 -2.90590227e-01 +7.60315657e-02 -2.23849893e-01 -2.85229892e-01 +2.58993715e-01 +2.38797888e-01 -2.39195168e-01 
#Parameter# /_7 {15} 241 ZERO_GRAD
-1.23089075e-01 +2.04308182e-01 +2.22763792e-01 -1.72171295e-01 -8.80280808e-02 -1.53309539e-01 -5.69587164e-02 -1.23323970e-01 +2.53935695e-01 -8.67398269e-03 -6.83209300e-02 +1.92312244e-02 +1.93520546e-01 -7.46974945e-02 +1.72467995e-02 
#Parameter# /_8 {15,15} 3601 ZERO_GRAD
-1.79262772e-01 -1.81357595e-04 -1.87360682e-02 -1.99401170e-01 +1.55258238e-01 +1.70635104e-01 +2.52837658e-01 -9.16527510e-02 -1.91412956e-01 -1.40313119e-01 +8.27629492e-02 +1.11017615e-01 +2.63994098e-01 +1.68942928e-01 -3.74629870e-02 -7.10865930e-02 +2.73235798e-01 +1.87720031e-01 +1.73428673e-02 +1.65404484e-01 +4.70818132e-02 +1.18243478e-01 +2.45896816e-01 +4.15082984e-02 -2.72196710e-01 +1.73188411e-02 +1.71641171e-01 +3.64502855e-02 +1.28897829e-02 +3.84140089e-02 -2.04247028e-01 +6.36883900e-02 -1.95551798e-01 -3.11983209e-02 +4.65069935e-02 -2.51998931e-01 +2.37654582e-01 +1.99268200e-02 +1.04445890e-01 -1.85600117e-01 +2.44471893e-01 -2.56373454e-02 -9.43753943e-02 +6.83977902e-02 -1.00362383e-01 -4.17310521e-02 -1.00886896e-02 +1.63863346e-01 -1.48550635e-02 +1.92926526e-01 +9.47730914e-02 -8.38186592e-02 +2.02702910e-01 +1.49202988e-01 +2.00057477e-01 +1.72763094e-01 +2.76212037e-01 +9.87937227e-02 +1.39419988e-01 +1.78720698e-01 +1.92956009e-03 -8.82003158e-02 -1.73830330e-01 -7.93458223e-02 +2.59763211e-01 +6.56577274e-02 -2.31210768e-01 -2.91030824e-01 -2.77317166e-01 -1.42644465e-01 -1.90398961e-01 +1.56667665e-01 -1.65180877e-01 -3.48641835e-02 +2.87013322e-01 -2.07811832e-01 -2.16013696e-02 +1.13512732e-01 -5.53060137e-02 -1.56984702e-01 +1.06552757e-01 +1.26903653e-01 -1.01717137e-01 +2.49967873e-01 -1.19110860e-01 -6.89727142e-02 +6.13290519e-02 +1.05164431e-01 -1.01226248e-01 +7.83300400e-02 +2.04310343e-01 +1.02806665e-01 -2.40528211e-01 +5.41323386e-02 -9.42068249e-02 -5.12286909e-02 +1.45686105e-01 +8.55571702e-02 -6.38695955e-02 +2.61920005e-01 +1.26722725e-02 +4.55971397e-02 +1.41687244e-01 -4.33687717e-02 +2.62324691e-01 +2.29165241e-01 -1.95367917e-01 -2.46792927e-01 +8.54917318e-02 -1.79460198e-01 -1.47603914e-01 +1.12431049e-01 +2.08495438e-01 +1.28484622e-01 +2.21003979e-01 +2.27361515e-01 +1.16650634e-01 +1.78734630e-01 +4.02464680e-02 -8.17764029e-02 -2.05201238e-01 -5.13201244e-02 +2.20994622e-01 +2.62031257e-01 -5.32709472e-02 +2.78834909e-01 +2.44838558e-03 -1.03150100e-01 -4.31082100e-02 -1.44451559e-01 -2.71772474e-01 -2.59632885e-01 +2.12999538e-01 -2.24436909e-01 -2.43436515e-01 -1.68381959e-01 +1.61019519e-01 +4.42603678e-02 +2.91899532e-01 -2.23126009e-01 -1.49971321e-01 +1.58556029e-01 +4.78379913e-02 -2.61742920e-01 +1.21848233e-01 +9.59622711e-02 -8.42755660e-02 +2.73649633e-01 -4.12994176e-02 -2.91141391e-01 +2.83789217e-01 +1.22142941e-01 -3.17124687e-02 +1.30074650e-01 -1.25623811e-02 -2.94176774e-04 -1.98399991e-01 +1.80285901e-01 -1.35470152e-01 -3.01705189e-02 +1.64411947e-01 +1.35940060e-01 +2.52218008e-01 +3.23083848e-02 -1.64637230e-02 +1.21080481e-01 -6.01143725e-02 +9.88889784e-02 +8.49148110e-02 -2.74306178e-01 +1.11052752e-01 -4.23641354e-02 +6.03303052e-02 -2.38573715e-01 +2.85358876e-01 +2.75478899e-01 -2.21787632e-01 -1.20703809e-01 +9.53308716e-02 +2.31178120e-01 +2.83709079e-01 -3.15156691e-02 -1.45679817e-01 +2.28829920e-01 -1.91565529e-01 -1.72962353e-01 +2.62633711e-01 +1.60307273e-01 -1.75628200e-01 +8.66848305e-02 -1.44602045e-01 -1.89244807e-01 +2.13019297e-01 +2.20596626e-01 -5.81761710e-02 -4.48880941e-02 +2.76294388e-02 +2.78313965e-01 +2.14798421e-01 -2.75692582e-01 +1.81335226e-01 -1.95877582e-01 +9.72200334e-02 -9.65584889e-02 -1.12089477e-01 -1.86858624e-02 -1.33720070e-01 +2.11207539e-01 +2.55484283e-01 -6.73480984e-03 +2.07842961e-01 +1.47864014e-01 +5.38856350e-02 -1.71584055e-01 +1.41414240e-01 -1.12634182e-01 -2.83360541e-01 -2.54681170e-01 -1.19902149e-01 -2.86917716e-01 -2.70397395e-01 -2.86942095e-01 +2.18125805e-01 +2.64559031e-01 -2.30714351e-01 
#Parameter# /_9 {15} 241 ZERO_GRAD
+2.66753197e-01 -2.08576098e-01 +2.32711136e-01 +2.80493587e-01 +2.26934835e-01 +1.48084894e-01 +2.01227397e-01 -1.94659084e-02 +2.29224488e-01 +2.70941198e-01 -1.88025594e-01 -1.54472664e-01 +8.11963528e-02 +5.05770044e-03 +1.41170591e-01 
#Parameter# /_10 {15,15} 3601 ZERO_GRAD
-2.23863982e-02 -1.80547759e-01 -1.83665931e-01 -2.35546008e-01 -2.74794161e-01 +1.99094355e-01 -2.11013407e-01 +2.04683781e-01 +1.54999152e-01 -4.54244437e-03 +1.98497400e-01 -1.07200675e-01 -5.13346680e-02 -9.36177596e-02 -1.58774897e-01 +1.95826441e-01 -1.74634624e-02 +1.90872122e-02 -1.84341019e-03 -1.24297842e-01 +3.27353366e-02 +2.21758723e-01 +2.06851453e-01 +3.49414945e-02 +9.00982842e-02 -7.33842701e-02 -1.43741503e-01 -1.05916776e-01 +2.26249725e-01 -1.43435583e-01 +2.10580036e-01 +3.35315205e-02 +1.69984907e-01 -1.58365592e-02 +6.42241016e-02 -7.89487809e-02 +9.82271656e-02 -6.34567067e-02 +1.44908771e-01 -2.16489568e-01 -2.75042895e-02 -2.02011034e-01 +2.04237290e-02 -7.01226890e-02 +3.49157117e-02 -1.74945980e-01 +1.98912084e-01 -2.58476883e-01 -2.07015518e-02 -1.02793731e-01 -2.26003438e-01 -4.17998433e-02 -5.05663082e-02 -1.05269618e-01 -7.19761923e-02 +1.35682756e-02 +1.96243778e-01 +3.38240974e-02 -5.50802946e-02 -2.09390134e-01 +7.60284439e-02 +1.19884545e-02 -1.93408187e-02 -1.11598559e-01 -4.59346734e-02 -3.93655943e-03 +5.95852323e-02 +2.65726149e-01 +1.75886333e-01 -1.65344492e-01 +8.11691731e-02 -2.25770712e-01 -2.71060169e-01 -7.35923946e-02 +2.78430820e-01 -1.18609369e-01 -2.34627619e-01 +1.54233813e-01 -7.04664290e-02 +8.81909281e-02 +1.99980855e-01 +1.17739610e-01 +1.90142654e-02 +6.06683046e-02 +2.25757174e-02 +2.52649635e-01 -5.58146760e-02 -1.64852142e-01 -4.55208076e-03 +1.74516032e-03 +2.60261923e-01 -2.30054006e-01 +2.31769189e-01 -1.99381858e-01 +2.88241446e-01 +4.55258973e-02 +2.55657107e-01 -1.63413167e-01 -1.67337030e-01 -7.37021938e-02 -1.27490610e-01 +2.27254957e-01 +1.60352960e-01 -1.90466881e-01 -1.14830747e-01 -2.60258704e-01 +2.52560019e-01 -1.95637494e-01 -2.02915356e-01 -1.83191165e-01 -1.82670459e-01 -2.63017625e-01 +2.61824727e-01 +1.38066292e-01 +4.33413126e-02 -2.12811083e-01 -3.58144939e-02 +1.52602732e-01 +1.40162390e-02 +1.62078261e-01 -1.67536363e-01 +1.81947723e-02 -1.16059907e-01 -3.51457335e-02 -2.40096256e-01 -2.60886043e-01 -5.76526709e-02 -2.65541106e-01 +1.00566834e-01 -1.79564923e-01 -2.56880254e-01 -1.38361961e-01 +2.02638492e-01 -1.47337755e-02 +1.44294739e-01 +1.62733421e-01 -1.58807442e-01 -5.08110784e-02 -1.61453038e-02 -2.38572717e-01 +2.25669220e-01 -2.81880051e-01 -2.08418220e-01 +9.10398960e-02 -9.16715339e-02 +7.81780779e-02 -8.98700394e-03 -9.60772783e-02 -1.70233503e-01 +2.79659390e-01 +7.76752159e-02 -2.87237972e-01 +2.08725855e-01 -1.51118383e-01 +2.69627701e-02 +2.73771793e-01 +1.09919190e-01 +2.33622253e-01 -1.59042314e-01 +1.18970720e-03 -2.85057425e-01 +1.35622099e-02 +2.02899538e-02 +2.06262976e-01 +1.08339995e-01 +1.34916246e-01 +1.35101393e-01 -7.90763050e-02 -1.18478425e-02 -2.63051927e-01 -1.65063024e-01 +1.66281134e-01 +1.75015584e-01 -2.59695232e-01 -2.03983963e-01 -2.21501291e-03 +4.34428379e-02 +4.62317094e-02 -1.04300737e-01 +7.36441836e-02 -3.76546085e-02 -9.53432322e-02 -1.40195027e-01 -2.60787100e-01 -2.36058816e-01 +2.45385036e-01 +1.56632978e-02 -2.68651664e-01 +1.00981936e-01 +2.69099679e-02 +1.95650846e-01 -5.35609424e-02 -1.37874544e-01 -1.60377264e-01 -2.14476660e-01 +2.56586373e-01 +2.75752097e-01 -2.02428445e-01 +2.47179251e-02 -1.66601181e-01 +1.31136514e-02 +1.11322820e-01 -2.14091405e-01 -2.15928480e-01 +2.59440452e-01 -6.91231564e-02 -1.75650001e-01 -5.42516783e-02 +2.03657493e-01 +8.01511705e-02 +1.04527369e-01 -1.17000163e-01 +2.30568007e-01 +2.34315455e-01 -2.02173404e-02 -2.38338619e-01 +1.85790062e-02 +2.96675023e-02 +2.77021617e-01 +6.29671812e-02 +1.25060141e-01 -3.54991257e-02 -6.29637856e-03 -1.33834615e-01 +1.66046366e-01 
#Parameter# /_11 {15} 241 ZERO_GRAD
-2.67177224e-01 +2.42940262e-01 -1.31532505e-01 -5.62627316e-02 +9.70630646e-02 -1.76728945e-02 -5.32733724e-02 +1.02279268e-01 +1.33276761e-01 -1.31585672e-01 +1.13292873e-01 -1.25889912e-01 +2.23637208e-01 -1.86111212e-01 +2.10706949e-01 
#Parameter# /_12 {15,15} 3601 ZERO_GRAD
-1.54482216e-01 -4.11484651e-02 +2.72903055e-01 -1.55472353e-01 -2.18901429e-02 -4.28689867e-02 +1.42844260e-01 -1.41955033e-01 -2.81144202e-01 +1.78578079e-01 +8.44804049e-02 -1.92296326e-01 -4.22244295e-02 +2.14471549e-01 +1.99817032e-01 -2.41009280e-01 -9.34049487e-03 +2.25715488e-01 -1.12417109e-01 -8.44169036e-02 +2.49431998e-01 -2.73364723e-01 -8.31751525e-02 +5.72418533e-02 +2.15271011e-01 +1.70305446e-01 -2.03051612e-01 -1.20062597e-01 -1.16704673e-01 -2.27580130e-01 +1.26975760e-01 -4.30211723e-02 -3.42437699e-02 -3.07489913e-02 +4.49582487e-02 -4.69007120e-02 +5.37780076e-02 -1.74208835e-01 +9.29621607e-02 +1.46696419e-01 -2.11903185e-01 +1.26427352e-01 -9.46679860e-02 -1.30978227e-01 +1.34458661e-01 +2.65137911e-01 +2.66241014e-01 -2.71908104e-01 -2.18219697e-01 -1.93571627e-01 +1.36542737e-01 -1.78889751e-01 +2.64843553e-01 +1.80555597e-01 -1.37804091e-01 +1.48953825e-01 -1.57054529e-01 -7.96158835e-02 +2.27774575e-01 +2.48518601e-01 -2.76793629e-01 +2.14681506e-01 -2.87819713e-01 +2.12553754e-01 +1.82153583e-01 +5.74516542e-02 +6.64039254e-02 -1.10486805e-01 -1.39685348e-01 -2.29991287e-01 -4.04389463e-02 -2.60502659e-02 -5.84250465e-02 +2.10772872e-01 +7.28073642e-02 -5.40272780e-02 +2.33223200e-01 -6.46792278e-02 +2.78821915e-01 +2.44956866e-01 -2.45376736e-01 +2.48838499e-01 -1.70729086e-01 +2.19753802e-01 +9.18555036e-02 -5.47608640e-03 -2.34055445e-01 -1.48835197e-01 +2.73843378e-01 -2.37113118e-01 +5.25728613e-02 +2.75173426e-01 -1.15483679e-01 +3.12105170e-03 -2.52530456e-01 +1.03264218e-02 +2.87467331e-01 +3.21282819e-02 +3.09617966e-02 -1.79711670e-01 +2.50091374e-01 -5.90484440e-02 +1.36186481e-01 +2.32146189e-01 +8.88747722e-02 +6.89012511e-03 -2.39221871e-01 -2.44830698e-01 +1.00702286e-01 -8.68794695e-03 +7.47453980e-03 +1.53511554e-01 +2.87386924e-01 +1.13012955e-01 +2.62685895e-01 +1.01141393e-01 -2.71674246e-01 -2.19237749e-02 -1.93344846e-01 +1.80312753e-01 +1.51271373e-01 +1.25545755e-01 -2.76497692e-01 -2.26419523e-01 +2.35028639e-01 +2.35173121e-01 -7.54195452e-02 +1.21094408e-02 +1.63923591e-01 -1.00797325e-01 +6.41491488e-02 -2.02909976e-01 -2.12236702e-01 -2.68595964e-01 -1.07248247e-01 +7.49107450e-02 -1.60925020e-03 +2.36536533e-01 -6.69474378e-02 -1.64765686e-01 +9.40890610e-02 +2.88115680e-01 +1.95005298e-01 +1.16078518e-01 -2.61196911e-01 -4.75547463e-02 +2.88851142e-01 -2.67326236e-01 +1.42291367e-01 +5.60471490e-02 -2.05156982e-01 -1.33731186e-01 -1.55776650e-01 -1.25632554e-01 +2.62428343e-01 -2.33017892e-01 +1.62496164e-01 -6.22796603e-02 +1.60065725e-01 +7.79395178e-02 +9.17351898e-03 -1.23626076e-01 -4.41679917e-02 -1.07359551e-01 -4.51484583e-02 +1.90619439e-01 -2.64358129e-02 +1.81555718e-01 -1.53830424e-01 +6.72656000e-02 +2.68210977e-01 -2.78148472e-01 +2.85378039e-01 -3.30002345e-02 +8.82141292e-02 -2.33913779e-01 -1.20751835e-01 -9.49462578e-02 -1.68789238e-01 -1.69129282e-01 -2.01073557e-01 +4.32319902e-02 +2.29239613e-02 -1.96293905e-01 -1.16306722e-01 -1.14144370e-01 +1.32214800e-01 -1.15532782e-02 +1.75848365e-01 -1.85138613e-01 -2.40557909e-01 -1.58341333e-01 -1.27619252e-01 -1.49106517e-01 -4.40666229e-02 +1.61517039e-01 +2.83601224e-01 -1.42903641e-01 +2.77912974e-01 -3.51426825e-02 -1.88771024e-01 -1.77222446e-01 -1.43430784e-01 -2.89558977e-01 -1.53631568e-01 -9.40267071e-02 +7.21354336e-02 -2.90829241e-01 -2.82558113e-01 -1.77145097e-02 +2.18534961e-01 -2.73235701e-02 +1.16754331e-01 -1.41399726e-01 -6.92882538e-02 +5.87484650e-02 -1.46666616e-01 -8.31475258e-02 -1.00157326e-02 -9.53372419e-02 -2.09403753e-01 -2.57252842e-01 +1.76905822e-02 +9.80718248e-03 +2.68963367e-01 
#Parameter# /_13 {15} 241 ZERO_GRAD
-2.65683979e-01 -4.14980948e-02 +2.60062516e-01 -2.88929343e-01 -2.17553571e-01 -7.07378089e-02 -2.62838274e-01 +1.90702423e-01 +2.42704526e-01 +2.37745628e-01 -6.61428422e-02 -7.26888850e-02 -1.85068354e-01 -2.87375569e-01 -2.27153331e-01 
#Parameter# /_14 {1,15} 241 ZERO_GRAD
+2.86912233e-01 -3.45292240e-02 +3.67718413e-02 +3.00740927e-01 +3.96258146e-01 +2.49661922e-01 +3.10658187e-01 -1.14164613e-01 -2.35095203e-01 +2.92719752e-01 +1.47075756e-02 -1.35991156e-01 -1.49883926e-01 -1.32835373e-01 -9.87072214e-02 
