#Parameter# /_0 {15,18} 4321 ZERO_GRAD
-2.07129821e-01 -3.09631556e-01 -4.48587000e-01 -2.13376358e-01 -2.86262818e-02 +3.74283403e-01 +4.22962457e-01 -3.10024798e-01 +3.27846408e-01 +3.47147703e-01 +6.37091339e-01 -4.49673757e-02 -2.80256391e-01 -1.34827122e-01 -6.31692111e-02 +5.67625351e-02 +3.04957163e-02 -2.52003193e-01 +2.34515935e-01 -8.89611095e-02 -7.75088221e-02 -2.10978687e-01 -4.35054332e-01 -2.27223933e-01 +3.29345316e-02 +1.97529405e-01 -4.16782826e-01 -3.19141835e-01 -7.33908936e-02 +3.73719148e-02 +1.17332309e-01 +3.43142509e-01 +3.98672372e-01 -2.44304284e-01 +1.91590995e-01 -8.97719413e-02 -2.95213848e-01 +2.98701584e-01 +1.82255611e-01 +7.23060966e-03 +1.66642100e-01 -7.20692500e-02 -3.89648974e-01 -2.45729581e-01 +1.30475566e-01 +2.77986765e-01 +2.30249822e-01 -2.69489676e-01 -1.97587639e-01 +4.56633806e-01 +3.28049213e-01 -1.86642110e-01 -6.29582629e-02 -1.56640768e-01 -3.56422305e-01 -3.17925274e-01 -3.91700387e-01 +2.21162021e-01 +6.18794933e-02 +3.37103079e-03 -1.62799358e-01 -1.61769480e-01 -3.83615270e-02 -6.04222715e-02 +2.32758000e-01 +3.58291566e-02 +1.81650266e-01 +4.79227394e-01 -3.70095372e-01 +1.91475496e-01 -3.78067642e-01 -3.64824384e-01 -7.69963488e-02 -1.76425621e-01 -2.49251336e-01 -2.87755966e-01 +1.15523383e-01 +9.66492593e-02 -4.15284842e-01 -1.20260365e-01 +6.63979426e-02 +2.10158452e-01 +8.47688913e-02 -2.38883868e-01 +5.51323332e-02 +1.56646341e-01 +2.42956984e-03 +2.75363117e-01 +3.72246236e-01 +3.75842959e-01 -3.06317091e-01 +4.09680218e-01 -1.56924546e-01 +1.25929192e-01 -3.17857950e-03 -1.94011346e-01 +6.45496696e-02 -1.38756931e-01 +6.73342645e-02 +4.21514750e-01 -1.46009788e-01 -3.85080511e-03 +2.37911910e-01 +2.06176221e-01 +1.96903720e-01 -1.17786126e-02 +1.70246243e-01 -2.61204302e-01 -4.03741032e-01 -9.60054621e-02 -3.13516378e-01 +3.35799217e-01 -3.48692447e-01 +2.51935273e-02 -3.36231560e-01 -3.17147225e-01 -1.71453252e-01 -2.06883460e-01 -3.54104549e-01 +2.58373171e-01 -6.58359677e-02 -2.88975835e-01 +1.25181690e-01 +2.72848517e-01 -1.66715369e-01 -2.59929150e-01 -1.72772538e-02 -1.15605630e-01 -2.88143009e-01 -2.07068875e-01 +3.13692063e-01 -4.21984434e-01 +2.72337466e-01 +2.74523616e-01 +1.97568871e-02 +2.83100277e-01 -3.38457048e-01 +2.61841506e-01 +4.35108989e-01 -5.62837049e-02 -1.87378466e-01 -1.92480147e-01 -2.54865110e-01 -1.14550561e-01 -3.65465939e-01 +3.19947660e-01 +1.66221574e-01 -4.26168710e-01 -2.31958449e-01 +5.25108837e-02 +3.73509139e-01 +5.64292558e-02 +4.38576192e-01 -2.34083608e-01 -3.47690731e-01 +3.65338624e-02 +2.04371177e-02 -2.81779706e-01 -3.42156380e-01 +1.76102459e-01 +2.44823053e-01 +8.24670643e-02 -7.42387474e-02 -1.45365879e-01 +3.31655711e-01 -2.62087464e-01 +2.79444426e-01 -1.41234815e-01 -3.17363292e-01 +2.76218891e-01 +1.71928868e-01 -1.36336446e-01 +9.53444988e-02 -6.23624325e-02 +7.55277202e-02 +2.77978480e-01 -3.26946765e-01 -2.64198244e-01 -3.00317883e-01 -8.22609738e-02 -4.02806282e-01 +2.64499694e-01 +1.22829944e-01 +1.48398742e-01 +1.77963376e-01 +2.71784931e-01 -2.56825358e-01 -2.90936142e-01 -7.85024986e-02 -1.46882176e-01 +4.58136171e-01 -8.03521872e-02 +2.65336931e-01 -2.37985291e-02 +6.94127008e-02 +2.90694267e-01 +3.73247772e-01 +1.01106688e-01 +4.11182106e-01 +2.93276101e-01 +3.17138374e-01 -2.94202685e-01 +9.13734809e-02 +6.31758794e-02 +3.75580639e-01 -1.95618365e-02 +1.29760087e-01 -4.18896526e-01 -2.10433565e-02 -2.25467049e-02 +1.98787123e-01 -2.21830159e-01 +2.18658924e-01 +1.82003304e-01 +2.50043809e-01 -7.36988708e-02 -2.73628324e-01 -8.50781519e-03 -2.32903570e-01 -8.21392313e-02 -4.52043861e-01 +2.27542985e-02 -3.51257116e-01 -2.84412831e-01 +3.43176752e-01 +6.19207621e-02 -2.10560992e-01 +3.49631935e-01 +2.67122805e-01 -9.63350162e-02 -2.16968030e-01 -1.07767165e-01 +1.08343914e-01 -1.23310648e-01 -1.07002836e-02 +3.36280286e-01 +2.03337520e-01 +3.11714578e-02 +3.76381338e-01 +1.46032065e-01 -3.17792147e-01 +1.12332456e-01 +4.52546716e-01 -9.89004001e-02 -1.97380573e-01 +3.59264165e-02 -3.85281384e-01 +4.90761623e-02 +2.65550911e-01 -1.49823219e-01 -7.30915144e-02 +3.69750589e-01 +1.32460639e-01 -2.18518630e-01 +2.66746223e-01 +3.97069544e-01 +2.95540959e-01 +5.34112863e-02 +9.56895277e-02 +3.79032999e-01 +3.25660676e-01 -5.31841516e-02 +3.09329748e-01 +3.65433812e-01 -2.14273065e-01 -6.18167520e-02 -2.57150263e-01 -3.40499401e-01 -1.90785304e-01 -1.27541557e-01 
#Parameter# /_1 {15} 241 ZERO_GRAD
-4.26314503e-01 -3.78310293e-01 +8.44550058e-02 +1.90541998e-01 -1.03737131e-01 -8.29427168e-02 +4.35976833e-01 -2.69124120e-01 -4.18161154e-01 -2.57801294e-01 +3.44916701e-01 +4.61626612e-02 +2.86694139e-01 +4.14562911e-01 -2.43090644e-01 
#Parameter# /_2 {15,15} 3601 ZERO_GRAD
+3.43115807e-01 +2.38980591e-01 +6.52328506e-02 +4.22315747e-01 +2.05047175e-01 +4.22963828e-01 +2.18355030e-01 -1.29534140e-01 -2.81807214e-01 -8.31929445e-02 +1.45045087e-01 +1.15103036e-01 +2.31613293e-01 +2.75632977e-01 +3.66030574e-01 -1.58318266e-01 +2.42643766e-02 -1.73267245e-01 -1.91483557e-01 -1.68912053e-01 -1.61841616e-01 -2.38620862e-01 -6.57706931e-02 +2.19960466e-01 -1.17906608e-01 +1.18673973e-01 +1.36014551e-01 +4.25944239e-01 +1.07258327e-01 -1.49867699e-01 +1.98164940e-01 -1.96523383e-01 -3.61996204e-01 +1.11343689e-01 -2.34170094e-01 +3.56577128e-01 +4.31314170e-01 -1.92919031e-01 -2.70325273e-01 +1.76568866e-01 +4.40240562e-01 -2.05646574e-01 -2.62899965e-01 -2.60488570e-01 -3.84018809e-01 -5.70988422e-03 -7.69888684e-02 -3.86772990e-01 -8.66021663e-02 -2.64290452e-01 +2.44147591e-02 -3.34276199e-01 -1.13099016e-01 +3.55047524e-01 +4.01846200e-01 -1.89456925e-01 -4.30831969e-01 -3.12127054e-01 +4.53256190e-01 +3.46833140e-01 +1.09700859e-02 -3.62512976e-01 -4.14198518e-01 +1.68023854e-01 -3.29248667e-01 -2.76828974e-01 +1.45095557e-01 +4.10332978e-01 -3.20031345e-01 +1.04253776e-01 +9.99815296e-03 -4.07315910e-01 -2.19198205e-02 -2.07747504e-01 -1.71189040e-01 +2.31979787e-01 -2.16157913e-01 -1.74749777e-01 -4.30458754e-01 +2.71017224e-01 -2.85559028e-01 +3.10748965e-01 -1.87125459e-01 +9.20041651e-02 +3.82517278e-01 -1.11639291e-01 -3.40989441e-01 -3.97858441e-01 +2.31204987e-01 -7.58568663e-03 -1.59718797e-01 +1.71427444e-01 -4.85368557e-02 -2.60612667e-01 -8.91379565e-02 -3.68313044e-01 +4.31246191e-01 +3.31878096e-01 -2.76362449e-01 +3.90207678e-01 +2.94429868e-01 +1.05891787e-01 -4.24184501e-01 -3.61482441e-01 -1.57472625e-01 -1.41331479e-01 -3.93885165e-01 +3.26003760e-01 +2.28916720e-01 -3.40917319e-01 +2.04707786e-01 +4.00311410e-01 -5.63384332e-02 +2.32077330e-01 +2.23786775e-02 +1.53331473e-01 -3.77585232e-01 -3.80638301e-01 -4.78395879e-01 +3.55547845e-01 -2.49366146e-02 +4.03220095e-02 -2.62264721e-02 +3.17416966e-01 +1.25221878e-01 -1.45858124e-01 +3.60372841e-01 +2.51253009e-01 -2.01681003e-01 +2.64573574e-01 +3.15003783e-01 +2.78280944e-01 +4.18060333e-01 +4.02495682e-01 +1.69282600e-01 -1.40568435e-01 -3.05437416e-01 -3.12306553e-01 +4.05467629e-01 +4.40188497e-01 -2.24452555e-01 +1.70860425e-01 -4.03819174e-01 -2.19575077e-01 +3.30620468e-01 -4.27612841e-01 +6.49216101e-02 +5.06105348e-02 +3.54831487e-01 -3.97962928e-01 +2.70859361e-01 -4.00139809e-01 +5.58787212e-02 -2.60198236e-01 -3.44979048e-01 -2.76955098e-01 -2.47634366e-01 -4.59953815e-01 -9.70745906e-02 -2.98816562e-01 -1.29109591e-01 +4.75782603e-01 -4.09666687e-01 +4.46434796e-01 -2.26034760e-01 +9.39070880e-02 +2.22290576e-01 +4.11965668e-01 +3.99010688e-01 +4.33213681e-01 +2.71946549e-01 +1.09459378e-01 -2.12754041e-01 +9.27011669e-02 -2.34745860e-01 -2.27261841e-01 -6.72965795e-02 -4.09542233e-01 -1.32837012e-01 +3.80310684e-01 +2.35285327e-01 -1.87180936e-01 +1.71825364e-01 +2.09591553e-01 -1.72218338e-01 -3.63885581e-01 +2.37593099e-01 +3.59305233e-01 +1.34842232e-01 -1.20660946e-01 -9.57482979e-02 -4.27573979e-01 +2.30239078e-01 -1.13271907e-01 +1.16438024e-01 -4.06196207e-01 +2.58680549e-03 +2.05795139e-01 +4.54122387e-03 +6.85086548e-02 +9.46071893e-02 +2.99216777e-01 +2.30919942e-01 -3.35547417e-01 +1.66468099e-01 -1.12081192e-01 +1.71799093e-01 -2.11308539e-01 +5.82707487e-02 +3.23947191e-01 -1.36791304e-01 +1.39635354e-01 +8.76652077e-02 -4.13633257e-01 -8.24782159e-03 +2.64196754e-01 +3.40347201e-01 +3.56653869e-01 +4.21250373e-01 -2.04518914e-01 -8.17123279e-02 +6.92211613e-02 +1.08601533e-01 +3.18075001e-01 +4.46891151e-02 
#Parameter# /_3 {15} 241 ZERO_GRAD
-3.61262113e-01 +3.30014713e-02 +3.35199982e-01 -3.81534621e-02 +1.66790694e-01 +1.89537734e-01 -1.50788993e-01 +1.79662824e-01 -9.55428556e-03 -3.58941802e-03 +2.55489916e-01 -3.93549725e-02 +3.37168157e-01 -6.80213943e-02 -1.71356946e-01 
#Parameter# /_4 {15,15} 3601 ZERO_GRAD
+4.06138301e-01 +1.25319898e-01 +3.89702618e-01 +5.84735237e-02 -1.34992421e-01 +7.44987503e-02 -5.67117594e-02 +6.05507456e-02 +1.33810667e-02 -9.22451764e-02 +3.10464147e-02 -2.53294110e-01 -2.76657939e-01 -1.81519434e-01 -3.98267299e-01 +2.38562360e-01 -4.80844267e-02 -7.41810277e-02 +3.82669538e-01 +3.84225070e-01 -3.13708127e-01 +2.57396817e-01 -4.09409285e-01 -2.82880127e-01 -2.52878010e-01 +2.41755061e-02 +4.25644457e-01 -1.39687341e-02 -7.48178661e-02 -2.73075551e-01 +1.50176525e-01 +3.45081955e-01 +3.69857013e-01 +2.54422426e-01 +3.08114111e-01 -2.74275512e-01 +1.96897262e-03 -6.38321787e-02 +1.64555639e-01 -3.56441855e-01 -2.76358485e-01 +3.68603647e-01 +7.14668334e-02 +2.97746122e-01 +4.11247700e-01 -7.17595685e-03 +2.14917094e-01 -1.45973578e-01 +3.62740695e-01 -1.48940995e-01 +1.42797783e-01 +3.86617541e-01 -1.19660042e-01 +2.87622586e-02 +2.92146057e-01 -5.72765879e-02 -3.36114943e-01 +1.26449645e-01 -3.50071728e-01 +3.05591464e-01 +3.48096699e-01 +3.34457546e-01 +2.53110796e-01 +3.94641817e-01 +2.50073761e-01 -2.57733136e-01 +3.76457572e-01 +3.86974633e-01 -1.62134200e-01 +1.06570825e-01 -3.84122729e-01 -2.85958707e-01 +7.14012086e-02 +3.70662436e-02 +3.51026237e-01 -4.03828323e-02 +1.82198957e-01 -1.54604837e-02 +4.23268616e-01 -3.69857520e-01 +6.13950705e-03 +7.67870769e-02 +3.78752589e-01 +2.32686833e-01 -4.35069859e-01 +4.06161040e-01 +2.71787584e-01 +7.67672658e-02 -3.01670611e-01 -1.33152669e-02 -3.65069985e-01 -2.71454751e-02 +2.09749833e-01 -1.66021466e-01 -2.67708749e-01 -1.04269341e-01 +2.93399900e-01 +2.18476611e-03 +2.54861236e-01 +3.36222112e-01 +5.59020378e-02 +4.01830018e-01 +4.03578132e-01 -2.53849514e-02 -1.19082006e-02 +8.53643119e-02 +3.84847164e-01 +4.02377278e-01 -3.16284806e-03 +3.34837615e-01 +1.31726697e-01 -3.26150090e-01 -1.99776903e-01 -1.19224794e-01 +1.79613099e-01 +2.66826034e-01 -2.53827542e-01 +3.41817230e-01 -3.59086215e-01 -5.63679077e-02 +3.01268280e-01 -1.86854765e-01 -1.04273848e-01 +1.40776232e-01 +3.31334263e-01 -1.27145723e-01 +3.02972972e-01 +1.64387763e-01 -1.98191658e-01 +4.02886905e-02 +9.91619453e-02 +1.79547504e-01 +2.68140405e-01 -1.84793621e-01 -7.32684582e-02 -1.28596649e-01 +1.18487872e-01 +1.09384526e-02 +4.80267666e-02 -3.70289445e-01 +3.88660699e-01 +3.68654758e-01 +4.09826577e-01 +8.74318108e-02 -2.93979764e-01 +1.35727063e-01 +4.18499053e-01 +3.08469236e-01 +2.72113472e-01 -2.53658205e-01 -4.85099226e-01 +3.49709275e-03 +4.07672711e-02 -2.06998587e-01 +4.22776103e-01 -4.43988353e-01 -4.47711237e-02 -4.10554528e-01 -1.44884974e-01 +7.36921132e-02 +3.68706048e-01 +3.34256172e-01 +4.39979821e-01 +1.85130328e-01 +2.04283208e-01 +3.27396274e-01 +2.57653773e-01 +3.17104280e-01 +3.63075703e-01 -1.32959366e-01 -1.36460021e-01 +1.38658002e-01 -2.96274662e-01 -3.34464103e-01 +1.41631275e-01 +2.51725107e-01 -4.03128624e-01 -3.59921940e-02 +3.54656987e-02 -3.55681449e-01 +6.47560805e-02 -2.79994607e-01 +8.32794458e-02 +1.75296832e-02 -3.57971340e-01 +1.34560540e-01 +4.37902480e-01 -4.16936986e-02 +4.60650474e-02 -4.43977654e-01 +2.93349773e-01 +3.50330621e-01 -4.12878752e-01 -1.31681129e-01 -1.60002440e-01 +3.80932093e-01 +1.80707157e-01 -9.23078582e-02 -2.19865605e-01 +1.09356642e-01 +4.27640051e-01 +3.35904866e-01 +1.97219610e-01 +4.31256071e-02 +1.80442497e-01 +3.73821974e-01 +2.55546331e-01 +3.25489283e-01 +3.83676529e-01 -4.62191969e-01 -1.15204386e-01 -5.85124679e-02 -2.09493324e-01 -3.32758129e-02 -1.87780425e-01 -1.77792341e-01 +2.86786109e-01 +3.58577728e-01 -1.37640424e-02 -1.71824351e-01 -2.59368688e-01 -3.75038475e-01 -3.64181697e-01 +2.04492569e-01 -1.59178421e-01 
#Parameter# /_5 {15} 241 ZERO_GRAD
+2.50702381e-01 +3.05578887e-01 -2.62008399e-01 -1.39396591e-02 -3.33609790e-01 +1.38166696e-01 +4.55980450e-01 +7.32799321e-02 -1.11764289e-01 +2.75237024e-01 +1.29498085e-02 -5.10393083e-02 -3.77142876e-01 +2.97500759e-01 +2.58496463e-01 
#Parameter# /_6 {15,15} 3601 ZERO_GRAD
+3.87517512e-01 -1.58390313e-01 -2.70410597e-01 +1.37177840e-01 -1.49138877e-02 +5.21788120e-01 +3.71370763e-01 +3.81464213e-01 -1.44456634e-02 +1.24611132e-01 +2.78369784e-01 +4.14440148e-02 +1.41207529e-02 +1.10721059e-01 +1.25198781e-01 -4.10102308e-01 +3.17501463e-02 +2.54363358e-01 +2.09073827e-01 -3.26915205e-01 -2.12726861e-01 +3.73769730e-01 +4.34062839e-01 +2.73214638e-01 -8.36575627e-02 +2.49694839e-01 +3.19491804e-01 +4.11011904e-01 -2.74618953e-01 +3.04062515e-01 -1.66929781e-01 -2.28742182e-01 -1.43009260e-01 +3.36677372e-01 -3.42704147e-01 +2.13447437e-02 +3.55333149e-01 +4.00527626e-01 -3.44817936e-01 +2.99425423e-01 -4.11542356e-02 -3.88205558e-01 +3.97705555e-01 -5.25157712e-02 +1.62021339e-01 +2.74705142e-01 +5.80788553e-02 +2.87765991e-02 +2.60313064e-01 -1.21623039e-01 +3.71208459e-01 +8.38476978e-03 -5.00613675e-02 -2.79981643e-01 -6.71748444e-02 -1.94401778e-02 +3.89513731e-01 +5.35205193e-02 -3.34975690e-01 -1.40874147e-01 +3.14784855e-01 +2.86601651e-02 -5.22329248e-02 -4.95311245e-03 +3.44356894e-01 +2.21968204e-01 -3.40243250e-01 -3.94053251e-01 -4.37339514e-01 +4.47189480e-01 -3.84011120e-01 -6.23438433e-02 +2.14464635e-01 +2.99825430e-01 -1.01082355e-01 -8.62329826e-03 -4.71358031e-01 -4.07015562e-01 -2.88068324e-01 +9.39995199e-02 -1.17888264e-01 +1.24396667e-01 -6.27204552e-02 +2.37453893e-01 -3.41441125e-01 +4.12495613e-01 -2.36433893e-01 -2.73060054e-01 -2.76003093e-01 -4.18162107e-01 -1.07820243e-01 -2.52269030e-01 +4.12928790e-01 -2.21972942e-01 +2.72068799e-01 +3.31114113e-01 -4.31121022e-01 -1.18646197e-01 +2.53768593e-01 +5.72129823e-02 -8.73291772e-03 +2.73811035e-02 -3.83323133e-01 +1.86893374e-01 -2.95823663e-01 +1.04723185e-01 +2.47403428e-01 +6.56776801e-02 +2.24801570e-01 +3.82244378e-01 -4.30999905e-01 +3.81778598e-01 +1.82180188e-03 -4.33147818e-01 +2.99098492e-01 -1.62265942e-01 +2.78593332e-01 -2.93296784e-01 -2.77566642e-01 -2.53558874e-01 -1.24616832e-01 -2.09849179e-01 +3.88680995e-01 +1.26036912e-01 +3.73660177e-01 +4.41024870e-01 +7.37741962e-02 +2.95851916e-01 -1.17219787e-03 +2.08283007e-01 -3.82369161e-01 +2.66238391e-01 +2.58213013e-01 -3.49347778e-02 +4.34794128e-01 +1.19693846e-01 +2.97329605e-01 -2.11260721e-01 +1.34671792e-01 -3.35607380e-01 -3.36000621e-01 -3.42880446e-03 +3.88096273e-01 -4.26309705e-01 +3.60408664e-01 -1.59760982e-01 -3.22329491e-01 +6.46850094e-02 -3.00755724e-02 +1.67431131e-01 +1.91224869e-02 -4.74989116e-01 -2.37423062e-01 +1.73765123e-01 +1.26792014e-01 -2.49962896e-01 +3.41617733e-01 +4.42724377e-01 +3.61682028e-01 +7.50403106e-02 -2.44569361e-01 +5.17355241e-02 +3.63646626e-01 -2.90591031e-01 -3.53582352e-02 -3.38185728e-01 -1.66681126e-01 -4.08503115e-01 -2.20176190e-01 -7.98451528e-02 -8.53723362e-02 -1.34668320e-01 +1.47161052e-01 -1.80958599e-01 -3.93341243e-01 -2.73934633e-01 -1.61753044e-01 -3.24109554e-01 +4.29293394e-01 -2.90838510e-01 -6.30264506e-02 -1.98745817e-01 -1.04496747e-01 +2.01777816e-01 +2.64585614e-01 +4.34751846e-02 +2.75081694e-01 -1.96375921e-01 -3.44767869e-01 +3.98432344e-01 +1.62952974e-01 -1.90420762e-01 +1.46780238e-02 -2.56877691e-01 +2.03710809e-01 +2.52817988e-01 +2.53504127e-01 -1.70062393e-01 -3.15203875e-01 -9.54585001e-02 +2.81349719e-01 -2.38416538e-01 -1.23923138e-01 -3.20124626e-01 +5.10891452e-02 +2.16661081e-01 -3.89793813e-01 -3.71153772e-01 -3.13266009e-01 +4.21261191e-01 +3.80822927e-01 +6.56026378e-02 +3.50982785e-01 +1.86973020e-01 +3.70281756e-01 -3.62626463e-01 +3.30020517e-01 -3.96821052e-01 +2.40862191e-01 -2.16863811e-01 -1.89807624e-01 +3.60529065e-01 -4.09070045e-01 +9.52375457e-02 -3.24561775e-01 
#Parameter# /_7 {15} 241 ZERO_GRAD
-1.69400051e-01 +2.06103444e-01 -1.45428136e-01 -3.85975718e-01 +2.24325016e-01 +2.83669710e-01 +2.22581029e-01 -2.37834096e-01 -4.42672223e-01 -1.46007434e-01 +2.05558240e-01 -3.30247670e-01 -1.31478727e-01 -3.76519531e-01 -3.79421800e-01 
#Parameter# /_8 {15,15} 3601 ZERO_GRAD
+2.31018335e-01 -3.00743461e-01 +2.12035522e-01 +3.36548656e-01 -1.47658587e-01 +2.25686178e-01 +1.35253653e-01 -3.15254718e-01 +2.40735099e-01 -3.58852953e-01 -2.55636573e-01 +3.61324325e-02 -2.01386273e-01 -2.66194552e-01 -1.76513195e-01 +4.34423059e-01 -1.10160455e-01 -2.45244250e-01 -4.20491517e-01 +2.16076061e-01 +3.18177760e-01 -3.62880915e-01 +2.03183442e-01 -3.31042498e-01 +2.81057477e-01 -4.97733176e-01 -4.33331311e-01 -4.04459894e-01 -3.67710590e-01 +1.76251441e-01 +3.80841851e-01 -4.09751654e-01 -2.29867890e-01 +2.57654302e-02 -5.60400151e-02 +1.09968714e-01 -6.62204549e-02 +3.64744812e-01 -2.34813392e-01 +7.05867074e-03 -4.01044339e-01 +1.35120368e-02 +2.44077221e-01 +4.13434505e-01 -2.26296708e-01 +9.61973146e-02 -3.99378948e-02 +4.24154609e-01 +3.47832322e-01 -2.42517188e-01 -3.95056039e-01 -2.82569587e-01 +9.47295874e-02 -3.47699791e-01 +9.20750722e-02 -3.04551814e-02 -3.56814295e-01 -3.18320245e-01 +4.30543661e-01 -2.92183399e-01 +4.18607175e-01 -2.26371601e-01 -1.69248462e-01 -1.34857804e-01 +2.98329741e-02 -1.90526675e-02 +1.63311020e-01 -4.21664357e-01 -5.80243506e-02 +2.24273264e-01 -1.88490883e-01 -4.94931219e-03 +7.97928348e-02 -3.84970516e-01 +2.76831925e-01 +4.02152210e-01 -3.91715646e-01 -2.61674404e-01 +1.00867815e-01 +2.24742010e-01 -2.14952394e-01 +4.04382646e-01 -1.87048316e-01 -2.63471782e-01 -1.64893955e-01 +4.72354919e-01 +2.22657815e-01 +1.99466631e-01 +3.74866091e-02 -3.31153631e-01 -3.16972047e-01 +3.70912164e-01 +3.16923410e-01 +3.24824542e-01 +3.77192408e-01 +3.28657478e-01 +4.33652282e-01 -4.10042971e-01 -3.21446717e-01 +8.64749774e-02 +2.84529656e-01 +3.47809613e-01 -3.67727757e-01 -4.41999346e-01 -2.31781393e-01 +1.19855002e-01 -3.32849354e-01 +5.79190515e-02 +3.92944157e-01 +4.45406705e-01 +8.23510364e-02 +2.17476264e-01 -2.53677428e-01 -4.32338357e-01 +1.65591225e-01 +5.41589975e-01 +1.28645465e-01 -3.97802025e-01 +8.18336233e-02 +4.05966848e-01 -3.15676391e-01 +4.30329770e-01 +2.07615376e-01 -1.46775842e-01 -9.04415920e-02 -9.97710899e-02 -4.25543785e-01 +4.35083032e-01 -1.91140503e-01 -3.22705865e-01 -2.58708745e-01 +1.14441276e-01 +4.46667999e-01 -2.49106824e-01 +2.18784571e-01 -2.12474555e-01 +2.53116071e-01 +1.89106464e-01 +4.19391751e-01 +1.38691097e-01 +3.90807569e-01 -5.72633231e-04 -4.09561008e-01 -1.34962678e-01 +3.03627312e-01 -1.14594348e-01 -3.73379886e-01 +3.86010498e-01 -1.16141476e-01 -1.79448634e-01 -1.11670740e-01 +2.24744052e-01 -2.07500115e-01 +5.72332144e-02 +1.76533058e-01 -8.81727599e-03 -3.87231745e-02 +1.15156084e-01 -2.41892517e-01 +2.84212559e-01 +1.57026291e-01 +3.21220994e-01 -2.01370940e-01 -1.81276634e-01 -9.21990648e-02 +3.53888363e-01 -4.28160161e-01 +9.32223499e-02 -2.23096445e-01 -4.20443773e-01 -6.75193220e-02 -3.82804424e-01 -2.49262571e-01 -1.92846715e-01 +3.75365317e-01 +2.27863446e-01 +2.20592424e-01 +2.00372085e-01 +8.25391561e-02 -4.02182966e-01 -3.02307248e-01 +6.91032484e-02 -2.02461436e-01 +2.01183707e-01 -2.88542330e-01 +2.50650972e-01 -4.09905165e-02 -6.28015548e-02 +1.20875448e-01 -1.28284723e-01 +3.65214646e-01 -1.28515005e-01 -1.18026346e-01 -1.41311884e-01 -4.16344404e-01 +4.40115035e-01 +2.42898390e-01 -2.18119435e-02 +2.10634381e-01 +1.04682989e-01 -4.45619762e-01 -1.18254788e-01 -3.00305516e-01 -1.23639837e-01 +2.32794315e-01 +3.29477727e-01 -1.71880409e-01 +3.50606352e-01 -8.82404968e-02 -4.08397228e-01 -3.33071351e-02 -1.54268384e-01 -4.43121642e-01 +8.00348744e-02 +1.17338141e-02 +3.16896111e-01 +3.60253215e-01 +7.47568235e-02 -2.11021051e-01 -7.78773129e-02 +1.77622408e-01 +9.40723568e-02 -2.44698599e-01 -4.30612653e-01 -4.19791549e-01 
#Parameter# /_9 {15} 241 ZERO_GRAD
+2.63256371e-01 -1.40094221e-01 +2.50893794e-02 -2.76340216e-01 +1.32742614e-01 +1.80837914e-01 -3.20478320e-01 -1.31136328e-01 +5.01455963e-01 +2.80948550e-01 -6.88344538e-02 -3.89411241e-01 -4.01911706e-01 +5.67864664e-02 -5.84184602e-02 
#Parameter# /_10 {15,15} 3601 ZERO_GRAD
+1.83785707e-02 -7.01835304e-02 -1.43172413e-01 -1.54323325e-01 +8.09730440e-02 +3.88056897e-02 -2.20589861e-02 +2.87034549e-02 -2.53864795e-01 -4.16266322e-02 -2.09625274e-01 +3.53477418e-01 +3.27045649e-01 -1.31097153e-01 +3.05263996e-01 -1.42027393e-01 +3.33857149e-01 -2.89920628e-01 -1.38935402e-01 -3.16089839e-01 -1.96069732e-01 -4.66983132e-02 +9.64763537e-02 +3.58206153e-01 +3.86410812e-03 -3.27248052e-02 -8.93040448e-02 -1.07284434e-01 -1.70840859e-01 -2.70379353e-02 +4.25004750e-01 -2.97127783e-01 +3.63180488e-01 +3.38327646e-01 +3.43748093e-01 +3.99320811e-01 +3.41025144e-01 -7.93032497e-02 +2.27072611e-01 -8.09312612e-02 -2.60469001e-02 +2.37763643e-01 +3.34186435e-01 -1.59568638e-01 -3.29413176e-01 -8.33915845e-02 +2.77413636e-01 +6.34863228e-02 +3.14916670e-01 -4.21712071e-01 +7.54463002e-02 +3.66349399e-01 -4.27046746e-01 -8.81062597e-02 -1.07107781e-01 +3.69432271e-01 -3.69306147e-01 -1.05845384e-01 -2.15540477e-03 -1.19826216e-02 -2.99219429e-01 +1.81141317e-01 -1.61285773e-01 -3.60916257e-01 -1.14492379e-01 -2.07549274e-01 -2.56474540e-02 -3.19523871e-01 -6.63727671e-02 +8.33320096e-02 +8.34459439e-02 -1.61639020e-01 +3.25452834e-01 -4.31936175e-01 -3.10226351e-01 +1.97914675e-01 -9.47555304e-02 +2.84307688e-01 +3.80050689e-02 +2.79114783e-01 +2.29740590e-01 +1.90338880e-01 -1.27009585e-01 -3.15951049e-01 -1.47130102e-01 -4.09367681e-03 -2.67540477e-02 +1.79167569e-01 +3.38882625e-01 -4.09869879e-01 -1.03874065e-01 +1.04542613e-01 +2.55596876e-01 +2.56604165e-01 -1.90848634e-01 -1.60102576e-01 -3.84512842e-01 +6.57962486e-02 +4.13271487e-01 -3.14185441e-01 +1.46854028e-01 -1.94852963e-01 +4.79261242e-02 +3.11106205e-01 +2.85453320e-01 +2.02932402e-01 -1.79694936e-01 +1.76879883e-01 -3.71798217e-01 +8.19709525e-03 -1.25947341e-01 -3.83988410e-01 -1.69173684e-02 -1.62834749e-01 +1.56897098e-01 +1.95277169e-01 -3.34065557e-01 -4.10569340e-01 +2.16400713e-01 +3.19317430e-01 -1.62684113e-01 -1.50676489e-01 -2.81420916e-01 -1.80477992e-01 -1.17203265e-01 +1.90048590e-01 -4.31279749e-01 +2.29745835e-01 +3.15311283e-01 -3.37784052e-01 +1.10007944e-02 -3.32790822e-01 -3.56596768e-01 -2.90404528e-01 -3.74978453e-01 -3.30662251e-01 -3.92759144e-02 +3.18086445e-01 -3.12359333e-01 -2.13450834e-01 -5.35171218e-02 -2.22098097e-01 -3.94982427e-01 -2.53165126e-01 +2.89583594e-01 +2.90454656e-01 -1.75226092e-01 -2.87810005e-02 -7.02897087e-02 -2.44789049e-01 +3.19622099e-01 +4.36594337e-01 +4.16639894e-01 +3.37487400e-01 +3.88093263e-01 -6.37520671e-01 +1.86595996e-03 -1.45332843e-01 +3.54639024e-01 -9.34071988e-02 -4.30559069e-02 +3.01484764e-01 -2.03961998e-01 -3.73994768e-01 +2.58653790e-01 +3.65942091e-01 +4.28190857e-01 +3.70549619e-01 +2.76067317e-01 +3.34284127e-01 +2.82511503e-01 +2.87522852e-01 -3.23755331e-02 +4.17772204e-01 +2.11646721e-01 -4.34123605e-01 +3.41419578e-01 +2.01733157e-01 -1.51673138e-01 +2.51360923e-01 +1.15767732e-01 +3.31535161e-01 -2.81733900e-01 +2.04289660e-01 +3.03283215e-01 -1.46611080e-01 +3.80811661e-01 +1.09034210e-01 -2.66732246e-01 -2.90970683e-01 -1.53261915e-01 -4.33819264e-01 +1.37335271e-01 -4.05512184e-01 -4.12903756e-01 -1.68921173e-01 -1.61535770e-01 -3.87651414e-01 +3.94688249e-01 -6.61748694e-03 +1.57227844e-01 +4.30169851e-02 -3.14778090e-01 +4.36802328e-01 -1.95808843e-01 -2.55786180e-01 +3.46601814e-01 -3.92602295e-01 -2.65765935e-01 +2.23852992e-01 +2.01584399e-01 -3.82197171e-01 +1.37113050e-01 -6.67512789e-02 +1.55671030e-01 +3.51086289e-01 +1.70637801e-01 -4.18216884e-01 +2.67413594e-02 -7.88423121e-02 +3.70022893e-01 +2.75692314e-01 +2.16725349e-01 +4.17939633e-01 -9.58095565e-02 
#Parameter# /_11 {15} 241 ZERO_GRAD
-4.30752546e-01 -3.71394604e-01 -3.11026484e-01 -3.63358796e-01 -8.47957656e-02 +2.08821282e-01 -6.90323636e-02 +4.60131727e-02 -3.55571359e-01 -6.14113323e-02 -2.29089871e-01 -4.24426556e-01 -2.30553001e-01 +4.01186757e-02 -3.34540904e-02 
#Parameter# /_12 {15,15} 3601 ZERO_GRAD
+7.88776875e-02 +8.93960372e-02 -3.73480260e-01 -2.75198743e-02 -3.37416053e-01 +1.48954943e-01 -3.30433398e-01 -3.60404164e-01 +7.30841607e-02 +3.67353261e-01 -8.51448551e-02 -3.51150241e-03 +5.18416688e-02 -1.00785486e-01 +2.64885873e-01 +4.13105637e-01 +2.20749885e-01 -1.60949510e-02 -3.31312537e-01 -1.61205754e-01 +1.42592192e-01 +3.48055899e-01 +2.85387307e-01 +2.20495135e-01 -2.09309399e-01 -1.18818432e-01 -7.37187872e-03 -3.30697149e-01 +1.81710616e-01 -1.93864077e-01 -1.17111489e-01 -3.56464833e-01 +1.46300182e-01 -1.60979003e-01 -3.53581935e-01 -3.68830979e-01 -2.57426918e-01 -4.41903293e-01 -3.29586565e-01 +2.52295524e-01 -2.11455196e-01 -4.18198943e-01 +4.13898855e-01 +2.57349551e-01 +3.77714813e-01 -1.80669516e-01 -3.54034990e-01 -3.51864621e-02 -2.55116657e-03 +6.85583428e-02 -2.61639636e-02 +3.82178485e-01 +2.92894077e-02 +3.20538312e-01 -1.01634022e-03 -3.57632548e-01 -3.99427563e-01 +2.23627061e-01 -3.75801265e-01 +1.86958298e-01 -4.20486212e-01 +8.39967653e-02 -3.07023853e-01 -1.82657227e-01 +3.35688949e-01 -6.37961477e-02 -9.18797925e-02 -1.81771204e-01 -1.63508683e-01 +3.16091895e-01 -5.94851449e-02 -1.13797270e-01 +1.84099227e-01 -2.26470068e-01 -1.34130880e-01 +1.23392150e-01 -4.02898937e-01 -7.05291182e-02 +2.04407975e-01 +2.95949996e-01 +2.63511360e-01 -2.51710534e-01 -2.82314539e-01 +7.22742975e-02 +3.56542796e-01 +1.04364716e-01 +1.33350939e-01 +4.18020725e-01 -5.99988341e-01 +4.63157892e-01 -2.88963109e-01 -1.21887282e-01 +3.40374172e-01 +3.37414712e-01 -4.49189693e-01 -3.97924215e-01 +1.98430166e-01 +3.68783146e-01 -2.94442564e-01 +2.64389455e-01 +4.25835729e-01 -3.18800509e-02 -4.23182011e-01 +2.61800647e-01 +2.33907163e-01 +4.02159065e-01 +1.01925641e-01 +2.68977731e-01 -1.93463251e-01 -5.20624891e-02 +1.07123293e-01 -5.99185713e-02 +3.73256922e-01 +7.75482431e-02 +3.98325622e-01 +2.36375183e-01 -1.39059618e-01 +2.82299370e-02 +3.46067473e-02 -7.76029155e-02 -1.01944031e-02 -2.99583133e-02 -2.34205723e-01 -2.62342960e-01 -1.23388231e-01 -3.27653944e-01 +4.82022725e-02 -1.42589599e-01 +7.81819075e-02 +2.51801759e-01 +3.28235894e-01 +3.21024209e-01 -1.31111279e-01 +2.96900421e-01 -2.61127859e-01 +1.19515248e-01 +1.92251712e-01 +9.20366347e-02 -1.91916257e-01 +2.15571932e-02 +1.79609090e-01 +3.24932307e-01 -5.61620221e-02 -4.05609846e-01 +3.95697176e-01 -5.18106408e-02 -3.27591956e-01 +1.70156702e-01 +3.20734471e-01 +4.46897805e-01 +5.60543314e-02 +2.69210964e-01 +3.03002179e-01 -4.39678393e-02 -2.82185853e-01 -2.04818219e-01 +4.22015846e-01 -1.27085477e-01 -1.30571917e-01 -3.78484398e-01 -3.27027678e-01 -2.36742541e-01 -1.92677617e-01 -9.51937437e-02 -5.54294996e-02 +4.75478657e-02 +3.48466665e-01 -3.58383387e-01 -2.64235914e-01 +1.42653942e-01 -1.71472766e-02 +1.44441232e-01 -1.57178640e-01 -3.81584674e-01 +1.96654320e-01 -4.39230233e-01 +8.91341195e-02 -1.34345695e-01 -5.24739511e-02 -7.75038078e-02 +2.09875435e-01 -3.01245421e-01 +2.15804458e-01 +3.13921541e-01 +2.84160048e-01 +8.30889568e-02 -1.60335615e-01 -1.73572540e-01 +3.13879430e-01 -3.31201643e-01 -4.02073979e-01 -3.82333040e-01 -4.33977544e-01 -9.39944834e-02 -3.50733578e-01 +3.30625653e-01 -1.08930625e-01 +2.41258025e-01 -1.39882222e-01 -4.27704662e-01 -4.22905684e-01 -2.90345494e-02 +1.78020656e-01 -1.60655007e-01 -3.15967232e-01 -1.40169814e-01 +1.49473026e-01 +2.17349455e-01 -1.17384046e-01 -9.61259305e-02 +3.99817228e-01 +2.65861839e-01 -3.91236365e-01 -3.05120111e-01 -3.02554041e-01 -3.24307561e-01 +2.64009625e-01 +3.68806064e-01 +2.52943665e-01 +2.25408852e-01 +1.66957349e-01 -2.18604371e-01 -8.75402763e-02 +4.95552234e-02 -9.66983214e-02 
#Parameter# /_13 {15} 241 ZERO_GRAD
-1.54422775e-01 +8.41933489e-02 -5.95926344e-02 +1.75123196e-02 -9.78696495e-02 +9.46333110e-02 -4.82137548e-04 -2.11729035e-01 -2.58655846e-01 -2.36295000e-01 -1.76197916e-01 -4.26279962e-01 -2.98175842e-01 +1.31435692e-01 -2.42457688e-02 
#Parameter# /_14 {1,15} 241 ZERO_GRAD
-1.46787152e-01 -8.74665827e-02 -1.09654076e-01 +1.53660014e-01 -4.00497049e-01 +3.20323464e-03 -2.66971320e-01 +4.27540123e-01 +5.43563545e-01 -2.35126704e-01 -5.01610279e-01 -1.14607036e-01 +2.28225499e-01 -2.72409558e-01 +2.41383627e-01 
