#Parameter# /W1 {20,37} 11841 ZERO_GRAD
+5.22287451e-02 +1.83210988e-02 -7.86101446e-02 -5.08263595e-02 +5.04299998e-02 -2.84682065e-02 -1.10283187e-02 -5.83121851e-02 +4.97391932e-02 -5.75133525e-02 -2.09176913e-02 -6.81296811e-02 +1.70718990e-02 -7.37260059e-02 -3.15743275e-02 -1.34609863e-02 -1.11834612e-02 +5.00737131e-02 +4.71031703e-02 +2.74646562e-02 +4.97925393e-02 -5.39672598e-02 -7.65746236e-02 +7.29395002e-02 +5.72528876e-02 -2.14901119e-02 -2.92224102e-02 -6.48100376e-02 +2.57471553e-03 +5.39473481e-02 +4.33129398e-03 -9.29453596e-03 +1.12112816e-02 -1.73621513e-02 +5.28083332e-02 +6.71014637e-02 -2.74123643e-02 -7.23596439e-02 +3.29065323e-02 -4.58663516e-02 +6.73604012e-02 -2.21771151e-02 +1.45852463e-02 +7.01613538e-03 -7.40029290e-03 -6.66319802e-02 +7.09024370e-02 -3.03133782e-02 -7.71150067e-02 +2.36638729e-03 -7.60789737e-02 +6.77566305e-02 +1.94060747e-02 -4.64543588e-02 +7.18029886e-02 +3.88178229e-02 -6.02565557e-02 +7.72014856e-02 -2.36716364e-02 -2.61993855e-02 -2.41899341e-02 -6.33370355e-02 +5.70203774e-02 -2.15842538e-02 -2.24638097e-02 +2.22188464e-04 +7.68737346e-02 -3.70249711e-02 -4.04012427e-02 +4.90176538e-03 +2.20886432e-02 +9.54875629e-03 -4.03891802e-02 +5.99154644e-02 -6.51871711e-02 +5.84883131e-02 -4.84786928e-02 +3.61240432e-02 -3.35573666e-02 -4.49520387e-02 +1.16778454e-02 -5.56352490e-04 -5.33814505e-02 -7.32850060e-02 +6.37133196e-02 -3.19869816e-02 +5.45854606e-02 -1.14063639e-02 -3.43905576e-02 +1.77256502e-02 -7.90357962e-02 -4.78385054e-02 +1.93986911e-02 +6.05602078e-02 +1.39620090e-02 +7.92772025e-02 -6.67202473e-02 +6.13807142e-02 +6.52721375e-02 +3.65733281e-02 +6.06108271e-02 +1.53729087e-02 +2.34874357e-02 +5.30131124e-02 +3.46910097e-02 -6.43306226e-02 -4.11032513e-02 -7.53840730e-02 -5.99489398e-02 -4.48776186e-02 -4.69346829e-02 +4.82140556e-02 +7.83722922e-02 -5.82488626e-02 +9.60810483e-03 +6.67092651e-02 -1.57278851e-02 -3.46439257e-02 +3.20802890e-02 +2.22932920e-02 +1.25440909e-02 -6.18221983e-02 -1.70735605e-02 +2.43589710e-02 +1.42347133e-02 +1.42863533e-02 -7.13395402e-02 +7.91630447e-02 -3.35850799e-03 +3.06585804e-02 +5.26536815e-02 -7.25353062e-02 -2.71008965e-02 -4.30834107e-03 -5.69876507e-02 +1.49179678e-02 +6.18899055e-02 -4.00026627e-02 -3.93817797e-02 -3.01227514e-02 -2.91808527e-02 +5.35990205e-03 +7.53204664e-03 -8.18855129e-03 +1.95306819e-02 -1.59067698e-02 -5.86853251e-02 -1.49539635e-02 +7.50196278e-02 -3.98492031e-02 -1.50672290e-02 -2.14932505e-02 +1.97399072e-02 -6.09233007e-02 +3.23156640e-02 -6.11012913e-02 -9.31390468e-03 -6.01214208e-02 -6.53382465e-02 -1.56926531e-02 -3.82616296e-02 +6.18308671e-02 +5.05655166e-03 -1.67424120e-02 -1.18937138e-02 -1.56458896e-02 -7.77249560e-02 +2.65797880e-02 +9.98085272e-03 -7.18709007e-02 -4.57235910e-02 +7.75846615e-02 -6.94538578e-02 +7.92254210e-02 +5.15296720e-02 +1.82475208e-03 -1.94346327e-02 +1.25067569e-02 +6.35020882e-02 -5.41073345e-02 -7.17247725e-02 -6.02713935e-02 -2.99853683e-02 +7.56273977e-03 +5.56057617e-02 +7.84332305e-02 -6.10544235e-02 +5.51045202e-02 +2.05105282e-02 -4.06975783e-02 +5.95007266e-04 +2.21127160e-02 +3.35884541e-02 +4.09050547e-02 -1.11502677e-03 -3.16387340e-02 +3.32162599e-03 +7.02303275e-02 +2.40388103e-02 +1.20210936e-02 +2.57824231e-02 +7.18735680e-02 -2.61627454e-02 -7.72795230e-02 +3.23664658e-02 +1.41177727e-02 -4.09415038e-03 -2.48730672e-03 -2.13830080e-02 -3.54475379e-02 +5.68397976e-02 -7.72681162e-02 -6.20176569e-02 +8.94479174e-03 -2.36479677e-02 -5.82088269e-02 +7.59253427e-02 +2.12617498e-02 -6.78129047e-02 -8.13901797e-03 -5.82665764e-02 -2.82577835e-02 -8.89957324e-03 +4.10995558e-02 -2.12459192e-02 -2.91770957e-02 +4.03578905e-03 +5.34556508e-02 -6.94822893e-02 -5.33093140e-02 -4.14663665e-02 +5.86789772e-02 +9.62562335e-05 -4.37103026e-02 +1.81414913e-02 -7.13943988e-02 +5.43953963e-02 +7.54813254e-02 +7.22520351e-02 -1.74795967e-02 +5.14346734e-02 +7.10402876e-02 -1.22298561e-02 -4.19554710e-02 +4.61134985e-02 +2.36209389e-02 +5.56188971e-02 -5.39620593e-02 -2.72587612e-02 +1.27552170e-02 -3.90067995e-02 +6.18636906e-02 +4.85305600e-02 +2.26353572e-04 -1.55343674e-02 -7.55482167e-03 -1.10751241e-02 +3.51896100e-02 +6.94496706e-02 -6.94841519e-02 -5.66629358e-02 -5.01063690e-02 -7.54770339e-02 +1.70323078e-03 -2.90696770e-02 -4.31977324e-02 -2.73217559e-02 +6.60458356e-02 +5.94546348e-02 +1.52145494e-02 -7.27147236e-02 -6.62248954e-02 -7.17304796e-02 +2.90097799e-02 +6.24515079e-02 +3.37754339e-02 -5.00490107e-02 -2.99850870e-02 +4.85843830e-02 -3.46819721e-02 -1.01668120e-03 -7.56207062e-03 +1.85700096e-02 -9.02095158e-03 -6.05227910e-02 -4.28398401e-02 -2.38897484e-02 -2.22078227e-02 +5.92537299e-02 +7.33549371e-02 +2.28165835e-02 +2.41666902e-02 -1.62295625e-02 -5.78213446e-02 -7.16256499e-02 -4.96759824e-02 +5.05642109e-02 -7.76217729e-02 -4.81134951e-02 +3.29720266e-02 -1.13329310e-02 -6.54907078e-02 -3.47362459e-03 -3.31514440e-02 +5.44211976e-02 +4.62388061e-03 -5.91731817e-03 +3.89984958e-02 -3.97531800e-02 -4.14885543e-02 +4.45150770e-02 -6.05351776e-02 -6.67363033e-02 -7.62299821e-02 +6.12530857e-03 +4.17250954e-02 +5.32051586e-02 -5.61867952e-02 +2.19401568e-02 +6.03678972e-02 +4.91901650e-04 +6.56878650e-02 -2.29353830e-02 -4.74427864e-02 -1.03244316e-02 +7.78834596e-02 +5.58810979e-02 +7.39120841e-02 +3.97370569e-02 +3.93819585e-02 -2.74633765e-02 -6.58688098e-02 +6.66484088e-02 -6.91857748e-03 -3.71793122e-03 -1.39435316e-02 +3.86914276e-02 -7.42122978e-02 -5.50278388e-02 -7.66679868e-02 +1.04690129e-02 -7.89920762e-02 +5.60352858e-03 -5.29849492e-02 -7.57747740e-02 +3.90956476e-02 +3.55381593e-02 -4.92372103e-02 +3.73704731e-02 -6.80963024e-02 -1.55642806e-02 -1.34582613e-02 +5.43384030e-02 -1.56331267e-02 +8.06115102e-03 -7.93509632e-02 -7.88090844e-03 -3.77591141e-02 +3.68976146e-02 -3.05133034e-03 -1.01523707e-02 +4.60254364e-02 -6.86213896e-02 +7.93027431e-02 -5.21546677e-02 +7.03316778e-02 +2.17932668e-02 -6.01197258e-02 +7.72226602e-02 +7.46039301e-02 -3.27817239e-02 -2.76554134e-02 -4.55566384e-02 +6.03098609e-02 -4.63081077e-02 +7.59026036e-02 -7.73475021e-02 +6.66797683e-02 -3.56342532e-02 +5.82711361e-02 +2.22221427e-02 +5.22633176e-03 +4.81091477e-02 +4.90990467e-02 -2.31363848e-02 +3.18756066e-02 -4.77719717e-02 -1.38302939e-03 +3.01714372e-02 +1.43532327e-03 +6.93070963e-02 -9.47184023e-03 +5.80798388e-02 +2.33368040e-03 -6.05511805e-03 +6.91481084e-02 -5.20957261e-03 -7.25396872e-02 -7.21407905e-02 +1.61177274e-02 -7.58256093e-02 -6.77063912e-02 -3.62980291e-02 +1.72286818e-03 +1.13549884e-02 -2.11258372e-03 -1.52286692e-02 -5.83725376e-03 +1.37941563e-03 +6.34096414e-02 +5.58669195e-02 +7.56224692e-02 -1.75987277e-02 -2.77636517e-02 -7.38750026e-02 -7.04459473e-02 -7.29487687e-02 -5.84185831e-02 +4.49503921e-02 +1.49776135e-03 +2.72335038e-02 +7.19712675e-02 +3.20771486e-02 +3.21586756e-03 +7.80744925e-02 +2.37135198e-02 +2.64468268e-02 -4.74505499e-02 -1.33783510e-03 +6.13243133e-02 -4.21880260e-02 +2.85930540e-02 +1.17338449e-02 +7.83701763e-02 -5.83733320e-02 -5.73635986e-03 -1.38888601e-02 -2.09039021e-02 +7.27888718e-02 -5.08881472e-02 -6.80278838e-02 -3.06728929e-02 +5.19500719e-03 +5.50396740e-02 +6.69449940e-02 +3.84744885e-03 +2.68620830e-02 -3.24425735e-02 -6.81381375e-02 -7.85937756e-02 +2.58451421e-02 +6.00583926e-02 +7.52557740e-02 +2.80802120e-02 -3.98660898e-02 -4.01747189e-02 -4.85918336e-02 +6.83599561e-02 +1.84658135e-03 -5.08396663e-02 +5.72007373e-02 +2.61486066e-03 +6.07779585e-02 +4.83556129e-02 +4.30216128e-03 -4.28163223e-02 +5.28405309e-02 -5.23566566e-02 -1.48647595e-02 -1.86558831e-02 -7.56607624e-03 -4.22196314e-02 -2.59459969e-02 -5.37828617e-02 -5.63707985e-02 +5.83584644e-02 -1.39643985e-03 +3.30893062e-02 +8.18474405e-03 -7.73391202e-02 -6.03776462e-02 +2.39059106e-02 +3.77368405e-02 +3.75558995e-02 +1.16475858e-02 +1.76761602e-03 -4.71184477e-02 +2.89295539e-02 +7.15294033e-02 +4.31989357e-02 -6.80046305e-02 +4.25445363e-02 +3.04188970e-02 +6.66814446e-02 -6.85689151e-02 -7.35430866e-02 -3.63095514e-02 +6.56891838e-02 +5.63809723e-02 +7.50187188e-02 -7.31966496e-02 +7.58537874e-02 -4.88700606e-02 -3.90614495e-02 +2.23331619e-02 +5.06913997e-02 -6.88236654e-02 -2.24383641e-02 +1.25371758e-02 +4.27005850e-02 -5.26807979e-02 +2.65854653e-02 -5.17352335e-02 -7.09508806e-02 +3.64914946e-02 -3.58420536e-02 -2.82977484e-02 -5.71568199e-02 -4.63229269e-02 +1.99515335e-02 -7.28965178e-02 +7.97908679e-02 -5.07750697e-02 +7.17871683e-03 +2.86312494e-02 +2.58595496e-02 -1.29424343e-02 -1.58429332e-02 -2.49211323e-02 +3.10913008e-02 -2.49513257e-02 -7.23691955e-02 +9.83653497e-03 -2.46229582e-02 +5.12069964e-04 -2.91943587e-02 +7.73579478e-02 -4.72089946e-02 +3.46532762e-02 +2.24027201e-03 +2.31852252e-02 -4.66949865e-02 +6.42878981e-03 +2.05798000e-02 +5.83442254e-03 -2.98186690e-02 +5.53022064e-02 -6.96207583e-02 +3.34416796e-03 +1.38876420e-02 +4.43635136e-02 +2.37243772e-02 +4.92194258e-02 +4.95164916e-02 +7.93826804e-02 -7.90917501e-02 +4.00818475e-02 -6.49248511e-02 -4.23390307e-02 -5.56757972e-02 -4.21907492e-02 +5.02944551e-02 -6.14864519e-03 +2.80644223e-02 -1.47999935e-02 -3.98798510e-02 +1.03616184e-02 +5.01219044e-03 +7.11945221e-02 +2.96665505e-02 +7.19698146e-02 +5.88472635e-02 -7.83900358e-03 +5.89621626e-02 -5.82535900e-02 +7.34607950e-02 +6.53890967e-02 -2.36324612e-02 +5.91383129e-02 -2.83120852e-02 +2.49207933e-02 -3.24368365e-02 +1.49235548e-02 -5.96980974e-02 -1.26738260e-02 -3.70954238e-02 +5.44819161e-02 -5.10140955e-02 -6.13872223e-02 -6.17922209e-02 +7.04203695e-02 -6.63920119e-02 -4.98139374e-02 +1.69660915e-02 -3.26948985e-02 +7.80703649e-02 -4.59523387e-02 +1.30807078e-02 -6.62154332e-02 +7.91677013e-02 -3.86094814e-03 +6.79971278e-02 +6.36348352e-02 -2.03706641e-02 -3.90480980e-02 -5.64264879e-02 +3.05797551e-02 -6.42489195e-02 +2.25585736e-02 -2.08884804e-03 +5.97485416e-02 -1.49827264e-02 +5.24492338e-02 -2.38852166e-02 +6.44455552e-02 +1.90418437e-02 -2.22374778e-03 +6.32202253e-02 -6.83868378e-02 -2.84903939e-03 -3.59447114e-03 -4.38979454e-02 -2.09465111e-03 +3.80542129e-02 -3.91050912e-02 +7.43510202e-02 -2.83820322e-04 +5.04877344e-02 +1.01098232e-02 -5.52914143e-02 -7.68823251e-02 -5.54327071e-02 +7.24463984e-02 -3.54942828e-02 -4.09812331e-02 +7.33257756e-02 -2.92942505e-02 +8.87312926e-03 +5.36596701e-02 -5.45304343e-02 +5.82567090e-03 +2.39922889e-02 -7.22210780e-02 +7.54436255e-02 +6.29890263e-02 +7.20770881e-02 -1.05498638e-02 -2.51540262e-02 +2.60741599e-02 -7.45923370e-02 +3.89813096e-03 +4.91503552e-02 +3.77194607e-03 +3.97529192e-02 +7.54754543e-02 +3.54218856e-02 -5.21383807e-02 +4.29431498e-02 +5.42075597e-02 -2.14369502e-02 +6.03776611e-03 +1.56184752e-02 +2.22745985e-02 -6.96152896e-02 -7.58836344e-02 -2.82895695e-02 +7.54643530e-02 -5.55998972e-03 -1.89148251e-03 +2.70806690e-04 -4.28293422e-02 +6.67665377e-02 -9.39054298e-04 -6.05644770e-02 +4.33147931e-03 +4.37618233e-02 -5.63549697e-02 +7.23060742e-02 +1.76173430e-02 +3.73244509e-02 +5.74381799e-02 +3.63500789e-02 +4.61727381e-02 -5.12441099e-02 +5.50024910e-03 +6.44674301e-02 -2.79525444e-02 -7.57166371e-02 -6.29070178e-02 -3.94946709e-02 -3.70971709e-02 -5.48665673e-02 -7.17239454e-02 +3.17202918e-02 -3.05165481e-02 -7.70757496e-02 -4.58874628e-02 +8.55592452e-03 +2.05019433e-02 +4.25028577e-02 -3.79398204e-02 +4.64662015e-02 +1.60905588e-02 -5.12845181e-02 -1.45421438e-02 -4.98698268e-04 +9.47996508e-03 -6.48893788e-02 +6.91663921e-02 -3.97361728e-04 -7.09284842e-02 -2.41024923e-02 +7.81037807e-02 +7.88681135e-02 -5.77896498e-02 +4.63216864e-02 +7.22379982e-02 +6.30178899e-02 +3.07298061e-02 +2.42305294e-04 -1.31167695e-02 -3.25985588e-02 +4.35641210e-04 +6.47530705e-02 -3.62693034e-02 -2.92622820e-02 -4.25436050e-02 -2.17542779e-02 -6.04456179e-02 -5.53348772e-02 -1.14752585e-03 -6.62065297e-02 +6.66262731e-02 -6.84514269e-02 +3.75761688e-02 -8.27798527e-03 +1.19075574e-01 -2.25774124e-02 -9.57276300e-03 -3.73302326e-02 
#Parameter# /b1 {20} 321 ZERO_GRAD
-5.60825504e-02 -2.52131838e-02 -6.09104782e-02 +1.15257679e-02 +6.18562885e-02 -5.04394472e-02 +8.62185061e-02 +8.75337124e-02 -3.84940021e-02 +9.04942825e-02 +8.85954406e-03 +8.90086126e-03 -6.26141354e-02 -8.76958203e-03 +8.60914439e-02 -1.16478084e-02 +1.86570864e-02 -2.45624017e-02 +5.29143587e-02 +9.26699340e-02 
#Parameter# /W2 {20,20} 6401 ZERO_GRAD
+7.64604611e-03 -7.79560953e-02 -7.87508041e-02 -7.52022443e-03 +3.70239317e-02 +1.84943434e-02 +2.31896620e-03 -9.45698842e-02 -6.29208907e-02 +5.36510460e-02 -6.90004602e-02 +2.94801090e-02 +6.76342323e-02 +7.90162683e-02 -8.43247995e-02 +3.89812212e-03 -3.67668793e-02 -1.11215757e-02 -6.57161474e-02 +2.09543966e-02 -7.24913999e-02 +9.41538960e-02 -3.75638250e-03 -6.19844608e-02 +6.49074987e-02 -5.96725047e-02 +7.86918774e-02 +4.34002690e-02 -1.36790937e-02 +3.21234204e-02 -3.19671049e-03 +3.98595259e-02 -7.51366094e-02 -7.63782039e-02 -7.82993063e-03 -5.10045514e-02 -9.52509865e-02 +1.53771248e-02 -5.73625974e-03 +5.43796979e-02 +6.28411844e-02 +4.68415432e-02 -2.43115127e-02 -2.25819871e-02 +6.77559078e-02 -8.45500305e-02 +9.31018069e-02 -6.75378665e-02 -1.01227080e-02 +1.65020153e-02 -7.33471066e-02 -3.53978984e-02 -3.85441555e-04 -6.89838827e-02 -6.34785071e-02 +1.54541805e-02 +8.45235512e-02 -1.83909312e-02 +8.71774033e-02 +6.61248863e-02 -4.67195697e-02 -3.89623977e-02 -4.89502288e-02 +2.02577375e-02 -8.15118402e-02 -6.89676628e-02 +7.51475915e-02 -2.74059940e-02 -1.07872244e-02 +9.97538269e-02 +9.27255377e-02 +8.28372538e-02 +2.20056456e-02 +7.49903321e-02 -2.40477212e-02 +3.08263078e-02 -2.14102715e-02 +4.92963083e-02 +2.74889041e-02 +1.87424328e-02 +3.23484577e-02 -1.24130426e-02 +3.46545428e-02 +7.23370984e-02 -7.47251809e-02 +3.15278843e-02 +2.08091419e-02 +2.47853417e-02 +1.85289029e-02 +4.16873693e-02 +8.64472333e-03 -8.68454278e-02 -3.75658721e-02 -5.24618886e-02 -5.87841682e-02 -2.52458863e-02 -2.92719565e-02 -5.38975820e-02 +9.23426971e-02 +4.79156338e-03 +6.47824854e-02 -9.06722024e-02 +9.52022523e-02 -8.93821865e-02 +7.75461271e-02 -6.15099333e-02 -7.91600943e-02 +7.90511668e-02 -3.96426022e-02 +2.52661705e-02 +1.34905549e-02 +9.48014669e-03 -3.53953056e-02 +4.48838510e-02 +8.42205808e-02 -3.12316194e-02 -5.08710667e-02 -1.21137975e-02 +8.42184648e-02 -1.90171301e-02 +5.02227768e-02 +8.45226571e-02 -2.77166851e-02 -5.35987765e-02 -5.66924289e-02 -5.85806146e-02 +7.65957385e-02 +3.62979178e-03 -2.44563241e-02 +5.12602255e-02 -3.90007608e-02 -7.23815113e-02 -7.29487538e-02 -4.59271669e-02 +8.12057927e-02 -8.70406702e-02 -8.51399451e-02 +5.86963333e-02 +6.83534071e-02 -4.55314368e-02 -7.48123135e-03 +5.34795821e-02 -7.32321888e-02 +7.32186064e-02 +9.18539017e-02 -6.08924888e-02 +4.06511128e-02 +5.39932540e-03 +1.40092717e-02 +2.52004284e-02 -5.28892167e-02 -4.39621098e-02 -1.74870323e-02 +5.27920537e-02 -4.48833331e-02 -8.90114084e-02 +9.54518095e-02 -6.29436597e-02 -9.30576697e-02 +1.15584889e-02 +9.42376554e-02 +1.28236450e-02 -3.88909318e-02 -7.34822527e-02 +1.36922975e-03 -9.48489085e-02 -6.01255707e-03 +8.06531906e-02 +7.76323825e-02 +3.42591926e-02 +1.25055192e-02 +4.19347696e-02 +3.02469283e-02 -1.77869969e-03 -7.60143325e-02 +2.89316326e-02 +4.00676802e-02 -8.35978314e-02 +5.38619328e-03 +3.09692528e-02 -8.56937394e-02 +5.34827150e-02 +8.64682794e-02 +6.74059317e-02 -2.64321901e-02 +2.82912496e-02 -7.83423111e-02 +6.88938051e-02 +8.94171298e-02 +6.87143877e-02 -4.55826670e-02 +6.55905008e-02 -8.10365602e-02 -4.86976318e-02 +5.94651215e-02 -2.93687955e-02 -3.80231068e-02 -8.70266706e-02 -2.45035607e-02 +8.65731481e-03 +6.90682083e-02 +2.14390792e-02 +3.99900749e-02 -5.86616108e-03 -8.32771212e-02 +6.02096841e-02 +4.94844504e-02 +8.53741094e-02 +8.16096067e-02 -8.30090884e-03 -6.51354641e-02 +5.94039122e-03 +2.37899274e-03 +3.50502282e-02 -2.37539653e-02 +1.35488398e-02 -9.43227932e-02 +8.07285383e-02 -2.84302197e-02 +8.67693312e-03 +5.95442727e-02 +2.75856797e-02 +3.15617174e-02 -8.37915242e-02 +6.93844408e-02 -8.40401053e-02 -9.28371102e-02 +7.32530802e-02 +1.93922650e-02 +6.98076785e-02 -2.99453139e-02 -5.97839765e-02 +3.21611576e-03 -4.11787257e-02 -8.62626061e-02 +7.55932136e-03 +4.15804423e-02 -4.48609740e-02 +3.57791185e-02 +1.95332617e-02 +2.98495777e-02 +4.64514308e-02 +4.57078330e-02 -5.85420765e-02 +9.81484819e-03 +4.02892083e-02 +6.15791709e-04 +5.61996922e-02 +5.98269999e-02 +9.37623009e-02 +3.29083577e-02 +6.33275211e-02 +4.55610566e-02 -5.53567074e-02 -6.74305856e-02 -1.08858142e-02 -3.12415063e-02 -9.17584896e-02 -4.09317529e-03 -3.39736007e-02 +2.58758888e-02 +2.45525967e-03 -4.32462096e-02 +3.72338183e-02 -8.12467374e-03 +3.42194177e-02 +9.35091451e-02 +3.35776322e-02 -9.10924226e-02 -1.98438000e-02 +5.68022914e-02 -4.87548709e-02 +3.19434665e-02 -6.92034960e-02 -2.33798381e-02 -2.64435932e-02 +1.54764690e-02 -6.03587627e-02 -4.35860828e-02 -8.75577405e-02 +6.10901266e-02 -9.06965211e-02 -2.43401527e-02 +3.69534865e-02 +5.30438013e-02 -8.29273928e-03 +1.95531268e-02 -7.21538067e-02 -2.75375042e-02 -8.96899104e-02 -4.76267887e-03 -7.05974251e-02 +5.34719378e-02 +8.60868171e-02 -3.66806909e-02 -6.07158197e-03 -6.57318905e-02 +7.71181434e-02 -5.95818274e-02 -8.25120583e-02 -8.84101242e-02 -7.70507753e-02 +5.69453053e-02 -3.16855945e-02 -5.74251786e-02 +2.98435800e-02 +1.03608845e-02 +9.33152512e-02 +1.03459544e-02 -6.59737140e-02 -8.27933773e-02 +2.76260432e-02 +3.69647108e-02 -5.58479428e-02 +7.95179862e-04 -6.42711390e-03 +7.06703663e-02 +4.69247773e-02 +5.72048873e-02 -6.29181489e-02 -9.32991579e-02 -6.32055104e-02 +6.09694868e-02 +4.41621244e-02 -2.39843614e-02 -3.29549587e-03 +2.01912969e-02 +1.98863465e-02 -8.54546949e-02 +1.02099158e-01 +4.94116060e-02 -2.18066219e-02 +7.93850869e-02 +9.93620753e-02 -4.33760844e-02 -6.26935139e-02 +2.97044739e-02 -7.40035027e-02 +4.25524684e-03 -2.28295997e-02 -3.11782081e-02 -8.08658525e-02 +7.02449381e-02 -3.83233838e-02 -2.07168963e-02 +2.67100073e-02 -5.57720065e-02 -6.69407919e-02 -8.23548809e-02 +1.25253126e-02 +2.99113188e-02 +9.05920416e-02 +3.72579359e-02 -7.03452975e-02 +4.39512245e-02 -5.35169169e-02 +7.36152902e-02 -5.96535690e-02 -5.69214718e-03 +6.09709024e-02 -2.08698921e-02 +6.86582550e-02 +1.42323151e-02 +1.79438968e-03 -3.80358323e-02 -2.41386089e-02 -5.51881716e-02 -4.65692431e-02 +7.33010322e-02 -7.06615895e-02 -4.36238572e-02 +1.60575714e-02 -4.42124605e-02 -1.62673928e-02 +6.24614656e-02 -6.37507141e-02 -8.09971392e-02 -4.08810228e-02 +7.36515224e-02 +7.76912272e-02 +4.66219634e-02 -9.12268385e-02 +2.40406748e-02 +9.02114958e-02 +3.60817276e-02 +5.50656840e-02 +6.99491575e-02 +6.55557290e-02 +4.35924679e-02 -7.81471059e-02 -1.42970057e-02 +3.31023373e-02 -2.66757067e-02 -5.90680577e-02 -3.78450453e-02 +4.79841679e-02 +7.30547681e-02 +5.50547056e-02 -4.11643647e-03 -6.51656613e-02 
#Parameter# /b2 {20} 321 ZERO_GRAD
+1.71703100e-02 +5.86794727e-02 -6.12994144e-03 +6.10366948e-02 -6.27089441e-02 +4.10025343e-02 -9.53871086e-02 +6.06893972e-02 -6.40022457e-02 +2.45417878e-02 -3.38189341e-02 +8.09494928e-02 +7.49815479e-02 +3.12803574e-02 +8.71029049e-02 +7.48557374e-02 +1.05792843e-02 +3.09177339e-02 +2.81235315e-02 +3.32963355e-02 
#Parameter# /W3 {20,20} 6401 ZERO_GRAD
-4.02714722e-02 -6.80622552e-03 -2.33895965e-02 +1.04365069e-02 -1.68055873e-02 +2.31870431e-02 +6.96666539e-02 -1.92722417e-02 -9.40432772e-02 +8.85488540e-02 -8.04707874e-03 -9.23662782e-02 +1.11444732e-02 -3.55367437e-02 -5.67339882e-02 -2.00440623e-02 +3.88238654e-02 -7.46552199e-02 +7.05184340e-02 +4.97618355e-02 +5.93477152e-02 +6.37002196e-03 +6.43722042e-02 -7.98471197e-02 -5.60731776e-02 -3.12725976e-02 -4.75781597e-02 +3.07003222e-02 -7.86410868e-02 -1.16622867e-03 +5.05862162e-02 +4.73325849e-02 +4.02723774e-02 +8.51575732e-02 +7.14122178e-03 +8.02915692e-02 -7.97445700e-02 -7.16717020e-02 +7.84688219e-02 +8.98897722e-02 -9.07437876e-02 +3.39434221e-02 -2.60256138e-02 -7.50562549e-02 -6.65896088e-02 -5.55629060e-02 -9.76906717e-02 +4.65476103e-02 -1.40544316e-02 +4.66865674e-02 -3.49185318e-02 +7.05937147e-02 +4.77274321e-02 -8.72253776e-02 +2.72512827e-02 +2.27240585e-02 +6.73456863e-02 +1.66820455e-02 -3.64741348e-02 +8.30845162e-02 +8.67691264e-02 -3.47068049e-02 -2.86299754e-02 +7.80872628e-02 -4.01126593e-02 +7.57377744e-02 -8.55987668e-02 +7.60506988e-02 +6.99191913e-02 +7.10111037e-02 -6.27734959e-02 +7.11032003e-02 +5.06901694e-03 -6.46413565e-02 -6.63701026e-03 -8.81631225e-02 +8.74991640e-02 +6.33663312e-02 -3.44299190e-02 +4.88228314e-02 -6.10645637e-02 -1.81693994e-02 -7.36325979e-02 +2.35771984e-02 +9.18866098e-02 +9.51422155e-02 -5.10437321e-03 +2.83776820e-02 +6.58561215e-02 +8.57252181e-02 +7.62883853e-03 -3.47052328e-02 +1.88929234e-02 -6.37467206e-02 -5.93924522e-02 -8.44805539e-02 -9.17149037e-02 -8.72729048e-02 +5.95033541e-02 -5.80589697e-02 +8.37723389e-02 +6.49965107e-02 -7.95084015e-02 -9.25543308e-02 +4.97784987e-02 -6.65753782e-02 +7.64277503e-02 -1.14254933e-02 -2.92715319e-02 -3.11393086e-02 -9.50224549e-02 +3.23785432e-02 +6.26760870e-02 -6.33567721e-02 +2.81989574e-02 +9.28757712e-02 +3.30228396e-02 -8.13802332e-02 -3.32717933e-02 +7.20020384e-02 -1.70816351e-02 +5.76138087e-02 -9.34164673e-02 +3.06614712e-02 +1.20682186e-02 +8.18502083e-02 +7.87488222e-02 -5.40521170e-04 -2.92659197e-02 +5.56779606e-03 +2.25783028e-02 +4.21664044e-02 -1.86756998e-02 +1.21522089e-02 +4.24778685e-02 +2.49755383e-02 -5.78888096e-02 +2.20273808e-02 +5.54153882e-02 -3.06108296e-02 -2.91071311e-02 -2.17032041e-02 -7.15316832e-02 -7.67993182e-02 -8.40899795e-02 +1.85226928e-02 +8.75197351e-02 +2.49609910e-02 +2.43896786e-02 -4.09139246e-02 -1.18799526e-02 -7.06238532e-03 +2.56071240e-02 +5.03411628e-02 -5.45964353e-02 -8.91862214e-02 +8.42382610e-02 -5.95413856e-02 -8.84496644e-02 -7.11554214e-02 -1.27102602e-02 +7.22858012e-02 +3.22348736e-02 +9.30513442e-02 -3.94435860e-02 +7.49671832e-03 -1.96129438e-02 +7.98613578e-02 -3.71121219e-03 +9.24882442e-02 -3.53050530e-02 +7.20550166e-03 +6.74469545e-02 +2.37243157e-02 +4.58726436e-02 +1.32322675e-02 -3.45462076e-02 +8.92811045e-02 -1.28511805e-02 +3.30600291e-02 +6.62714839e-02 -8.28475282e-02 -5.87880872e-02 -3.31023522e-02 -2.60189921e-02 -2.50846595e-02 -9.17626321e-02 -9.40639451e-02 +2.25196294e-02 -3.94943319e-02 -8.06242507e-03 +1.09176926e-01 -8.01713318e-02 -6.41374364e-02 -1.57849472e-02 -6.05313256e-02 -4.91425693e-02 +1.08413603e-02 -3.06102401e-03 -2.87405699e-02 +6.12087697e-02 -4.94320579e-02 -8.28758329e-02 +1.37842093e-02 -8.38457197e-02 +6.48943335e-02 -3.84461395e-02 -4.27030921e-02 -5.80617189e-02 -3.57876644e-02 +6.08962215e-02 +3.91744673e-02 -1.87103543e-02 -3.79768685e-02 +7.88408741e-02 +3.46897021e-02 -3.19001302e-02 -1.44917872e-02 +7.87885413e-02 -2.66075656e-02 +2.84762699e-02 +7.98958316e-02 -8.49716142e-02 -8.23938772e-02 -9.24501345e-02 +7.67135322e-02 +8.77065361e-02 +7.59666637e-02 -4.92904149e-02 -7.74098635e-02 -4.58676107e-02 -2.80134249e-02 +8.09358209e-02 +9.26221609e-02 +1.38613582e-03 +5.54801188e-02 +8.67221951e-02 +8.95733386e-02 -7.37969056e-02 +7.55321831e-02 +9.11699161e-02 -7.21878186e-02 +7.56409811e-03 -5.42160049e-02 -7.04760626e-02 -7.05011413e-02 -8.12402740e-03 +7.26138726e-02 -8.37839395e-02 +6.72832727e-02 +6.83998747e-04 +4.15118784e-02 -2.88029518e-02 +5.84785640e-02 -3.40166949e-02 -5.92067875e-02 -3.80632505e-02 +1.48041863e-02 -1.39398379e-02 -1.25494786e-02 +7.21189827e-02 -6.51102886e-02 +7.38935098e-02 -6.02400377e-02 +8.01076517e-02 +2.47188229e-02 -4.30028290e-02 +2.01069824e-02 -4.88315038e-02 -3.99876088e-02 +5.19184917e-02 +8.18466619e-02 -7.75556564e-02 -8.75010267e-02 -7.45963007e-02 -5.55122793e-02 +5.11276610e-02 -9.44862962e-02 +9.78753790e-02 -2.32879594e-02 -4.14549140e-04 +7.39387721e-02 -1.07475808e-02 +4.29248214e-02 +5.34960963e-02 +8.70588198e-02 -8.19829926e-02 +9.48511660e-02 -9.29653123e-02 -2.24739909e-02 -4.06649597e-02 +8.25401992e-02 +7.59281218e-02 -5.12499874e-03 +2.96918191e-02 -8.68077502e-02 -7.46695101e-02 -9.15488973e-02 +9.26341116e-02 +6.00355938e-02 -5.32582067e-02 +6.20819107e-02 -7.10389540e-02 +3.84781957e-02 -8.31457376e-02 +7.35222250e-02 +4.97528836e-02 -2.27245577e-02 +5.12510166e-02 -8.08078330e-03 -9.14395526e-02 +9.62061714e-03 -1.95271824e-03 +4.47499715e-02 +2.12231856e-02 +7.24104047e-02 -7.72516197e-03 -7.49750808e-02 -8.52895901e-02 +6.28987402e-02 -3.56362499e-02 -8.98827836e-02 -8.54743421e-02 +1.72790997e-02 +7.14978054e-02 -6.46409243e-02 -3.99633758e-02 -1.56727359e-02 -7.16639906e-02 -4.22624545e-03 -4.51660156e-02 +8.20961222e-02 +4.57802676e-02 -4.86871880e-03 +2.37248447e-02 +1.07020261e-02 -7.15381056e-02 +5.68290725e-02 +7.02117905e-02 +9.40680206e-02 -3.65390256e-03 +1.64987985e-02 +3.77268381e-02 -2.51615793e-02 +5.83219752e-02 -7.85537735e-02 -1.32895065e-02 +1.69650593e-03 -2.97388528e-02 +9.34385955e-02 -1.01346411e-02 +9.12285149e-02 -6.74828216e-02 +2.78194696e-02 +7.31839053e-03 -2.91224141e-02 +6.97579756e-02 -8.56264755e-02 +8.23637247e-02 -7.12363943e-02 -8.20689052e-02 +2.23387796e-02 +8.32712948e-02 +8.45170468e-02 -5.21601140e-02 -5.60469516e-02 +3.25441323e-02 +1.29085835e-02 +8.76493193e-03 +2.17631739e-02 +4.39844951e-02 -5.01294695e-02 -4.19915169e-02 -2.38961130e-02 -3.07895560e-02 -7.71520212e-02 -3.89339104e-02 +3.21622044e-02 -2.14257855e-02 -6.13622069e-02 +3.87844779e-02 +5.85410073e-02 -6.41451553e-02 -7.80777708e-02 +4.89472225e-02 +8.00948590e-02 -8.70526433e-02 +6.00949079e-02 +4.11059670e-02 -3.46872807e-02 +6.00578589e-03 -1.61128789e-02 +4.76230718e-02 -4.26113605e-02 -8.77274945e-02 -3.76895666e-02 -4.55647595e-02 +8.55287611e-02 -2.04899479e-02 +6.83526620e-02 
#Parameter# /b3 {20} 321 ZERO_GRAD
+6.49169385e-02 -8.03276300e-02 +8.81824195e-02 -4.20683697e-02 -5.46758994e-02 +4.04010303e-02 +2.56114956e-02 -5.02905697e-02 +7.07829744e-02 +4.29677293e-02 +5.95592223e-02 -8.35768133e-02 +8.61979946e-02 -2.15522144e-02 +9.13088992e-02 -8.29530880e-02 -2.50310116e-02 -7.99018741e-02 -2.69204695e-02 +8.70728195e-02 
#Parameter# /W4 {20,20} 6401 ZERO_GRAD
+9.63441804e-02 -5.82945384e-02 +5.31225763e-02 -7.33294487e-02 +6.89710155e-02 -7.37526044e-02 +9.24511030e-02 -5.99604100e-02 +4.60713962e-03 -2.52184346e-02 +2.64357049e-02 +7.93874636e-02 -5.24404412e-03 -9.22464132e-02 -8.46812949e-02 +4.06590477e-02 +6.80363402e-02 -7.61706457e-02 +4.07862552e-02 +4.59631421e-02 +2.13359855e-02 -3.07127926e-02 +2.49329563e-02 -6.33302853e-02 -8.18349347e-02 -7.71874981e-03 +6.37581497e-02 +3.17884907e-02 -4.16509993e-02 -6.13570139e-02 +7.81171694e-02 +4.36216928e-02 +4.00638282e-02 +1.40119977e-02 +4.95555028e-02 -1.05116926e-02 +8.43831748e-02 -4.35295887e-03 -9.09037292e-02 -3.82506736e-02 -7.28786886e-02 +6.26648515e-02 +2.00155601e-02 +4.97360155e-02 -9.20612663e-02 -3.46083529e-02 +2.91523468e-02 -7.38280565e-02 -1.48983663e-02 +2.41771806e-02 -5.09352572e-02 +7.76376650e-02 +4.16068546e-02 -3.84654775e-02 -8.66915360e-02 -1.90392090e-03 +5.46245351e-02 -5.81805967e-02 +1.83441155e-02 -7.91906342e-02 -2.75905933e-02 -8.25362280e-03 -8.98278058e-02 -8.47114921e-02 +7.44661242e-02 +1.78514309e-02 -5.14817052e-02 -1.73430201e-02 +6.42231330e-02 -7.00324178e-02 +6.27878159e-02 -2.38293153e-03 +7.24120438e-02 +6.16946071e-02 +1.60355307e-02 -7.80696720e-02 -8.16444755e-02 +6.19361103e-02 -2.55342778e-02 -7.62478784e-02 -2.48430520e-02 +3.95555189e-03 -4.22225185e-02 -4.90413159e-02 -5.66647165e-02 +4.66392040e-02 -8.23261514e-02 +5.16648265e-03 +6.14045933e-02 -4.19542082e-02 -3.15334066e-03 +2.78192293e-02 -2.14782115e-02 +2.44932584e-02 -7.54538774e-02 +1.90568287e-02 +3.61918248e-02 -2.71469876e-02 -6.17305823e-02 -4.33332175e-02 -1.40552735e-03 +8.22547004e-02 +4.40356880e-02 -8.24277522e-04 +6.36736024e-03 +5.41571528e-02 -9.27944407e-02 +7.04232305e-02 +2.66697984e-02 -3.41975056e-02 -8.46409947e-02 +7.35135078e-02 -9.08912439e-03 +3.39203812e-02 -6.58946782e-02 -5.78851253e-03 +9.58902687e-02 +9.49416161e-02 -5.93990162e-02 -8.35404620e-02 -2.79964600e-02 -9.16658565e-02 +8.78188536e-02 -9.52689797e-02 +5.09174019e-02 +9.31153297e-02 +1.70361008e-02 -6.74232692e-02 -4.21498790e-02 -1.14551866e-02 -4.10633087e-02 -3.89289074e-02 -1.76668949e-02 +4.83025069e-04 -4.88687083e-02 +7.95869455e-02 +3.49834673e-02 +2.01488510e-02 +3.82599630e-03 -3.64050381e-02 -7.48061463e-02 +3.20577733e-02 +6.17542081e-02 +1.45937335e-02 -2.96169966e-02 -8.05366561e-02 -3.10167987e-02 +7.06738755e-02 +4.61942777e-02 -2.57041249e-02 +8.15491751e-02 +7.69279599e-02 -3.20489630e-02 -9.33965221e-02 -8.12151432e-02 +4.89967987e-02 +8.11146721e-02 -8.72399807e-02 +6.40481189e-02 +8.32749084e-02 +1.24158105e-02 +2.23041195e-02 +2.77591888e-02 +2.81821527e-02 -7.02085793e-02 +6.77882284e-02 -7.07427934e-02 +7.45638832e-02 -2.88787875e-02 +7.66257942e-02 -8.00989643e-02 -1.14116548e-02 +6.86686486e-03 -1.80616733e-02 -4.23706090e-03 +9.22382772e-02 -9.43047702e-02 +2.82766651e-02 +5.28987916e-03 +4.46060859e-03 -8.88173878e-02 +2.08557900e-02 -4.95546684e-02 -6.90202275e-03 +6.73334375e-02 +2.13589780e-02 -1.87988542e-02 -4.00044546e-02 -2.72651426e-02 -7.88290799e-02 +3.68483402e-02 +3.40269431e-02 +6.59626573e-02 +7.05742911e-02 +6.33282959e-02 +8.44075382e-02 -3.58890221e-02 +5.01586637e-03 +4.69878912e-02 -6.17131479e-02 +7.85126463e-02 +7.77295604e-02 +7.56473318e-02 -5.79769872e-02 +8.94377902e-02 -5.19471662e-03 +7.06774443e-02 -1.37425382e-02 -8.86658020e-03 +2.80094203e-02 -3.29830274e-02 -6.06563687e-02 -7.16719851e-02 -7.79060125e-02 +9.00148004e-02 -7.83112645e-02 +5.05456626e-02 -2.09948290e-02 -4.87618968e-02 -9.20611992e-03 +2.86312625e-02 -8.41767639e-02 -4.57995906e-02 -3.70664187e-02 +9.81114134e-02 +3.41452248e-02 -3.01346611e-02 +1.16889039e-03 +1.99766010e-02 -4.99934666e-02 +3.10754739e-02 +6.40287846e-02 +1.00733742e-01 -5.75131327e-02 -8.47756043e-02 +6.35060146e-02 +2.51081642e-02 +8.67240727e-02 +4.21366245e-02 +6.44276571e-03 -4.37563434e-02 -8.31998587e-02 -8.90184641e-02 +3.81380208e-02 -4.06395458e-02 +2.68297624e-02 +6.61076456e-02 -6.38013408e-02 -9.52610523e-02 -1.72336400e-02 +1.30019719e-02 -5.36327511e-02 +3.84889431e-02 +5.01549542e-02 -1.98483914e-02 -3.41162495e-02 +2.07015406e-02 +4.97461185e-02 -2.95370873e-02 +7.56684542e-02 -4.13378514e-02 +8.24984163e-02 -8.87238011e-02 +8.32250416e-02 +2.54267268e-03 +6.74088076e-02 -2.85158250e-02 +4.77707461e-02 -1.26373647e-02 +6.32212982e-02 -6.83992133e-02 -5.21116517e-02 -6.31508008e-02 +5.24741188e-02 +2.88193189e-02 -2.57398728e-02 +8.94758031e-02 +4.45301607e-02 -2.26166192e-02 +2.32244972e-02 +7.84812346e-02 -3.84586789e-02 -2.43556220e-02 -9.50034857e-02 +9.53491256e-02 +7.53978863e-02 -6.95650131e-02 +1.68534797e-02 -1.66052133e-02 -2.65504308e-02 -8.46109316e-02 -6.48224577e-02 -8.48872066e-02 +6.98406175e-02 +4.47181314e-02 -3.34536918e-02 -2.26569697e-02 +1.94378607e-02 +6.77724332e-02 -7.69158155e-02 -1.43643958e-03 +7.99685568e-02 -1.32782543e-02 +6.86501712e-02 +2.79084705e-02 -1.29295774e-02 +2.30762027e-02 -6.24033809e-03 -5.13343327e-03 -4.37855199e-02 -2.58944985e-02 -2.43347231e-02 -7.62355179e-02 -3.95300873e-02 +6.30106952e-04 -4.36520614e-02 +3.32509726e-02 -2.72673164e-02 +3.95844951e-02 +3.69735584e-02 +8.03872272e-02 +6.19724281e-02 +4.87599485e-02 -7.45847309e-03 +8.15017000e-02 +6.07127361e-02 +3.73916216e-02 +4.67117839e-02 -7.52559006e-02 -7.17914626e-02 +8.97499267e-03 -8.44822973e-02 -3.38810235e-02 +2.04159487e-02 +1.71029940e-02 -7.29900226e-02 +3.59415263e-02 -3.57680842e-02 +2.37399470e-02 -7.97855631e-02 +5.26841357e-02 +4.03261594e-02 -3.07114944e-02 +8.89819860e-02 -5.82865812e-02 +3.40525843e-02 +9.01182815e-02 -4.74542901e-02 -9.50628668e-02 +2.78776661e-02 -5.40134218e-03 +3.90222371e-02 -1.94946602e-02 -6.79344609e-02 +2.01570690e-02 +1.34416507e-03 -2.22602785e-02 -4.41979663e-03 -9.67486005e-04 +6.12432882e-03 -7.21582621e-02 +5.27859442e-02 -7.05280453e-02 -2.78294738e-02 +1.86448023e-02 +7.85276480e-03 +1.46327456e-02 -7.16980919e-02 -6.31960481e-02 -5.16099855e-02 +3.45114693e-02 +5.92413247e-02 -3.83895226e-02 -5.27472496e-02 +1.49559090e-02 +7.88248330e-02 -8.57046526e-03 -3.07341423e-02 -6.49970630e-03 +7.35227466e-02 -2.04649977e-02 +3.66137922e-02 +5.26711382e-02 +9.02147368e-02 +6.63459376e-02 -2.15935782e-02 -6.21026717e-02 -4.89784293e-02 -5.18011190e-02 +8.51151645e-02 +8.31107795e-02 -3.41249742e-02 +6.63464814e-02 +4.73336950e-02 +6.15334511e-02 -5.05409837e-02 -5.13896532e-02 +3.91917489e-02 -9.30031389e-02 +4.48617190e-02 
#Parameter# /b4 {20} 321 ZERO_GRAD
-4.90900725e-02 -9.12998095e-02 +1.33104436e-02 +6.61163926e-02 -3.80164236e-02 +9.01898667e-02 -3.89017016e-02 +8.08381364e-02 -6.36440590e-02 +7.18189403e-02 -3.02769546e-03 +7.27523565e-02 -5.43614961e-02 +3.58894840e-02 -9.48437955e-03 +8.11133981e-02 +4.11412157e-02 -7.20650032e-02 -3.05356830e-02 +5.12484722e-02 
#Parameter# /W5 {20,20} 6401 ZERO_GRAD
-5.91188632e-02 +9.72083136e-02 +8.14338177e-02 -4.85550575e-02 -2.97017060e-02 +3.74293327e-03 -6.78085387e-02 -6.61354735e-02 -8.30558967e-03 -5.43927513e-02 +7.36318156e-02 -3.64140868e-02 +1.78553686e-02 +2.86337174e-02 -4.75551672e-02 -2.73411535e-02 -4.10530083e-02 +5.48716336e-02 +5.11028059e-02 -8.43041316e-02 -4.65323813e-02 +4.41375263e-02 -8.29263330e-02 +7.08380863e-02 +2.41901577e-02 +2.62012929e-02 -4.03498160e-03 -8.88373107e-02 -9.41089019e-02 +5.84734604e-02 -5.81832379e-02 +8.69255662e-02 -3.38242501e-02 +2.03094142e-03 -4.50051837e-02 +3.05954516e-02 -6.65437654e-02 -7.60527253e-02 +4.07835133e-02 +8.72933194e-02 +4.04883660e-02 -4.75515500e-02 -1.07070636e-02 +8.44585150e-03 -5.84389642e-03 +3.64330821e-02 -4.97977883e-02 -2.07993388e-02 +6.90777674e-02 -4.60572690e-02 +4.59847562e-02 -3.47680040e-02 +7.88701177e-02 -8.83512124e-02 +7.00009912e-02 -8.31864402e-02 -2.67595127e-02 -3.25162546e-04 -1.76503435e-02 -7.00789467e-02 -3.09854839e-02 -2.63635758e-02 -1.40012251e-02 +7.11108893e-02 +6.45683557e-02 -5.45145869e-02 +1.67027730e-02 -8.99104178e-02 -6.04673624e-02 -7.86867440e-02 +2.97930604e-03 -6.14903159e-02 -5.64273112e-02 +7.77876526e-02 -9.58283618e-03 -5.07404059e-02 +4.09552045e-02 +5.16439453e-02 +8.12363029e-02 +2.05813348e-02 +9.37381294e-03 -3.72853689e-02 -4.31938693e-02 +1.03770597e-02 +8.09287578e-02 +8.79876465e-02 +8.25759470e-02 +5.14445603e-02 -7.56745040e-02 +7.11254478e-02 +3.92808532e-03 +4.62968834e-02 +3.49669494e-02 +8.57749805e-02 +8.70781764e-02 +9.59594324e-02 -8.84351432e-02 +5.35462275e-02 +8.86636302e-02 -2.74562035e-02 +4.47665453e-02 -5.61608113e-02 -4.36398089e-02 -2.92570218e-02 -2.06337720e-02 +1.12208417e-02 -4.18879166e-02 +2.92171631e-02 -1.91241857e-02 +1.60793383e-02 -4.10398021e-02 -5.24651483e-02 +4.02606577e-02 +6.73758015e-02 +1.78618252e-03 -5.93246408e-02 -2.07599308e-02 +1.45573355e-02 +2.54426920e-03 -3.18786614e-02 +8.60377029e-02 +6.59004003e-02 -7.97114149e-02 -2.61313803e-02 -4.61566634e-02 -5.24054505e-02 -4.21250649e-02 +9.23328176e-02 -2.99178623e-02 -8.36365893e-02 -6.24718592e-02 -6.65037036e-02 -4.99324054e-02 +4.15490493e-02 -8.44306201e-02 +5.39063476e-02 +3.45295481e-02 +2.04892922e-02 -8.50162804e-02 -5.89392632e-02 -6.33167103e-02 -5.79484329e-02 +7.77882338e-02 +4.61910702e-02 +4.72046211e-02 -5.17478101e-02 +5.59630468e-02 -8.09442028e-02 +2.68929843e-02 -1.23824487e-02 +2.49711312e-02 +4.24415944e-03 -8.86816308e-02 -4.89683524e-02 -8.56972709e-02 +9.92706418e-03 +8.96179080e-02 +3.35361883e-02 +5.79395443e-02 +7.67187551e-02 +7.80562731e-03 +7.06300363e-02 +1.81725528e-02 +2.62078047e-02 -8.67059231e-02 -6.32990375e-02 +1.27895297e-02 +1.34180393e-02 -3.15208063e-02 -3.43535729e-02 -4.32862565e-02 +5.48242852e-02 -2.71590762e-02 +1.31305242e-02 -8.51398706e-02 +5.66971824e-02 +3.85122001e-02 +7.15934783e-02 -5.06843850e-02 -3.22276866e-03 -5.48910685e-02 +2.40400340e-03 -1.99799370e-02 +5.71295545e-02 -6.22826889e-02 +5.84544130e-02 -5.59512898e-02 +5.01628704e-02 +8.55720341e-02 -7.49709904e-02 +2.12791283e-02 -3.56596000e-02 +6.84023201e-02 +5.41948043e-02 +5.93717545e-02 -1.19186556e-02 +8.33544210e-02 +8.85582939e-02 +8.57166946e-02 +2.56097391e-02 -4.13652956e-02 -1.68603640e-02 +1.20123550e-02 -2.50699595e-02 +1.65665541e-02 -6.11449517e-02 +2.97485888e-02 +3.73571143e-02 +8.47733691e-02 +5.65602928e-02 -8.44060928e-02 -7.38458857e-02 +6.96589798e-02 -7.39971250e-02 +1.93128624e-04 +9.41448733e-02 +3.23340483e-02 +8.83396044e-02 -8.11375380e-02 +1.11104306e-02 -9.24510695e-03 -3.03804949e-02 -9.26987082e-02 -3.12865041e-02 +1.77675523e-02 +4.97566871e-02 +2.91412771e-02 -7.66727701e-02 +4.70173266e-03 -1.02045797e-02 +6.46559522e-02 +1.51210111e-02 +5.74451406e-03 +7.00439811e-02 -1.74942967e-02 -4.42656241e-02 +8.52997825e-02 -3.11062485e-02 -4.40535210e-02 -1.70015711e-02 +6.07867949e-02 -3.07213012e-02 +1.90668348e-02 +5.65914065e-02 +1.82255991e-02 -5.60296364e-02 +2.86583207e-03 +4.19665985e-02 +4.62506562e-02 -8.89198408e-02 -3.42817865e-02 -5.29818842e-03 +5.57703823e-02 +9.14536566e-02 -5.92890522e-03 -6.30156770e-02 -4.93588299e-02 +9.45029408e-02 +3.90939824e-02 -7.67679811e-02 -5.20992046e-03 +6.22675642e-02 +9.23022032e-02 +1.30923931e-02 +4.84219305e-02 -8.78872350e-02 +7.53288642e-02 -9.37967673e-02 -5.51376082e-02 -5.77459596e-02 -7.94764757e-02 +8.71401057e-02 +9.19803232e-02 +8.38823058e-03 +1.32140154e-02 -8.24626237e-02 -2.38359720e-02 +8.54556933e-02 -6.69038743e-02 +1.73582248e-02 -4.76046242e-02 +1.87231377e-02 +1.20319016e-02 +4.76070866e-02 +4.09596004e-02 +2.98831388e-02 +4.08050455e-02 +7.19189569e-02 +7.74221569e-02 -6.04325309e-02 +6.14241660e-02 -7.78604532e-03 -8.77417400e-02 -3.05799246e-02 +7.49685019e-02 -6.24642000e-02 +4.33119610e-02 -6.44728318e-02 +1.18396180e-02 -1.78759694e-02 -8.72734040e-02 +3.43494043e-02 -1.51893292e-02 -8.94063413e-02 +1.81034636e-02 -3.66956443e-02 +1.59375910e-02 +7.64764473e-02 -5.13334982e-02 -1.14475265e-02 -5.70889236e-03 +9.27026644e-02 +3.29252370e-02 +8.62073079e-02 +2.35255472e-02 +4.73980196e-02 -5.99606000e-02 +6.24203533e-02 +7.22664222e-02 -6.85323924e-02 -9.37128142e-02 +8.60685185e-02 -7.89119676e-02 -6.56593367e-02 +6.88916817e-02 -6.56776354e-02 -1.82967857e-02 +6.20991513e-02 +3.76631469e-02 +8.47004578e-02 -6.23694248e-02 -8.01813230e-02 +1.16063571e-02 -2.52128039e-02 +4.37121280e-02 +7.45321363e-02 +6.24120273e-02 +5.62563762e-02 +6.36961162e-02 +2.10980307e-02 +1.51217906e-02 -9.12829563e-02 +4.73985374e-02 -4.43669893e-02 -7.15486780e-02 +1.96191133e-03 +5.35905287e-02 +3.54208425e-02 -7.35751987e-02 -3.67651656e-02 +8.98145884e-02 +3.12362928e-02 -5.62258475e-02 +6.18469119e-02 +8.18443447e-02 -3.03674657e-02 +3.92351560e-02 +5.38618937e-02 +7.69108459e-02 +6.75221393e-03 -4.30793650e-02 +8.67863148e-02 -5.97325973e-02 -2.05840971e-02 +3.46594560e-03 +1.28625995e-02 -4.07434627e-02 +4.17763293e-02 -8.05186853e-02 +6.03099877e-04 +5.74062988e-02 +2.62531936e-02 +7.99570829e-02 +5.09013906e-02 +3.38427573e-02 +5.52675314e-02 -4.44876626e-02 +2.51342170e-02 -6.66868221e-03 +6.83436170e-02 -5.49564660e-02 -5.60937542e-03 -7.93864951e-02 +6.01102635e-02 +4.40518260e-02 +7.35742301e-02 +4.62675318e-02 +6.95312247e-02 -1.15136718e-02 +1.49180042e-03 +3.00672855e-02 -7.05229118e-02 -4.62374352e-02 -2.94342190e-02 +4.94114049e-02 -8.48902911e-02 +5.50553165e-02 +4.29975763e-02 +8.33804905e-03 +9.10241231e-02 
#Parameter# /b5 {20} 321 ZERO_GRAD
+4.60396782e-02 +3.86118665e-02 +1.46168899e-02 +6.75528944e-02 +7.39408731e-02 +9.17796269e-02 +5.61781377e-02 +9.58433449e-02 +4.53864085e-03 -3.36141996e-02 -5.40498458e-02 -6.59128726e-02 -4.92465831e-02 +8.41322243e-02 +2.11406983e-02 +3.54026891e-02 +4.42881621e-02 +7.20931962e-02 -3.16150635e-02 +3.91536392e-02 
#Parameter# /W6 {20,20} 6401 ZERO_GRAD
+4.78648115e-03 +8.52621272e-02 +5.90781793e-02 +4.50228602e-02 -3.80793773e-02 -7.21131777e-03 -6.20284826e-02 -4.49751541e-02 +1.64975449e-02 +7.47517645e-02 -5.85764311e-02 -8.08815006e-03 -8.43034685e-02 +4.35255952e-02 -8.32906887e-02 +8.15196335e-02 +8.14769119e-02 +7.70186782e-02 -7.43997619e-02 -4.65083644e-02 +8.68863910e-02 -1.21479435e-02 +7.75331035e-02 +7.81607404e-02 -4.88416441e-02 -2.07529813e-02 +1.05652297e-02 -4.86853309e-02 +5.56814820e-02 -3.21555845e-02 -5.27068926e-03 +7.75543824e-02 -7.98480958e-02 -2.10186765e-02 +2.73809675e-02 -9.43946466e-02 -3.11140642e-02 -6.25889078e-02 +6.47603497e-02 +3.21195051e-02 +8.11489448e-02 -4.10847031e-02 +2.18040477e-02 +3.63215385e-03 -8.49866569e-02 -8.19977373e-03 +1.42718283e-02 -5.20936139e-02 -3.66548039e-02 +1.20805139e-02 +6.22139461e-02 -8.88752490e-02 -3.96320261e-02 -2.04633381e-02 +8.73026159e-03 -7.78021738e-02 -8.73870328e-02 -3.67625989e-02 +2.74241883e-02 -2.62183957e-02 +6.28421828e-02 -1.15657086e-02 -2.19348278e-02 +3.80606912e-02 -7.57299662e-02 -6.84267282e-02 -5.36940619e-02 -2.78754756e-02 +7.56669566e-02 +3.15955095e-03 +8.90520886e-02 +3.91459316e-02 +3.86839174e-02 -4.99189552e-03 -2.18948517e-02 +7.67931268e-02 -1.61332265e-02 +7.43614510e-02 +8.55439827e-02 -5.78601025e-02 -3.69243920e-02 -9.20602381e-02 +5.73108308e-02 -8.18137079e-02 -6.30068183e-02 +6.01081597e-03 +7.37660900e-02 +4.45194542e-02 +2.62528472e-02 -1.76501665e-02 +4.92463969e-02 -4.70119864e-02 -5.34321368e-02 +8.58085230e-02 -9.28476304e-02 -5.01933172e-02 -4.12751958e-02 +4.16314825e-02 -1.39469206e-02 +5.78488559e-02 +4.94686142e-02 +2.86325216e-02 -3.87178995e-02 -9.61570651e-04 +1.58581175e-02 +4.52378653e-02 -5.37265390e-02 +8.76764134e-02 +9.00449678e-02 -6.09678589e-03 +8.51176083e-02 -9.14195627e-02 +4.99319620e-02 +1.48824565e-02 -6.53078919e-03 -5.89165762e-02 -1.76935289e-02 +2.31694523e-02 +9.45543498e-02 +7.47945830e-02 -2.46767309e-02 -8.59839395e-02 -1.73367150e-02 -8.78271982e-02 -2.00492926e-02 +2.27518268e-02 -8.00508820e-03 +1.78579502e-02 -3.20347995e-02 -3.48507166e-02 +3.23601291e-02 +5.89178950e-02 -6.00300469e-02 -2.64120903e-02 +1.40871378e-02 +8.53244737e-02 +9.57682543e-03 +8.57135132e-02 -6.58348873e-02 -2.96985195e-03 +7.58468360e-02 -1.48491738e-02 +5.17934747e-02 +1.01085547e-02 -1.17903408e-02 +9.21040494e-03 -4.29232344e-02 -1.05804475e-02 +1.06691672e-02 -6.34814426e-02 +7.44509473e-02 -2.12467313e-02 +4.26716730e-03 +9.10407156e-02 -9.33382064e-02 +8.77880007e-02 +4.64060530e-03 -2.33386736e-03 -4.17951383e-02 -8.30942690e-02 +3.51700708e-02 +6.64284527e-02 +2.04948690e-02 -9.13429335e-02 -7.59304166e-02 -4.19702716e-02 +9.24906954e-02 +9.41797271e-02 -5.36426380e-02 +2.36909408e-02 +8.67257565e-02 +7.88742453e-02 +9.50976536e-02 +6.76885769e-02 +9.34497714e-02 -4.89524938e-03 -6.47750571e-02 -7.29411021e-02 +4.17172275e-02 +3.42929289e-02 -7.01135248e-02 -8.06068629e-02 +5.95398843e-02 +7.41811469e-02 +8.98346007e-02 +5.41050918e-02 -1.22634042e-02 +1.42938958e-03 +4.00224552e-02 +2.32617334e-02 -1.03268139e-02 +3.01157124e-02 +7.00827390e-02 +6.68231547e-02 -3.26704159e-02 +9.55037493e-03 -4.19724882e-02 -9.25907027e-03 +2.86735184e-02 -3.29454951e-02 -7.67354965e-02 +3.70359570e-02 -2.68925391e-02 +4.80064191e-02 -4.72152196e-02 -2.29789391e-02 -6.42347857e-02 -8.02161843e-02 +4.78418060e-02 +9.03652608e-02 -2.01274622e-02 +6.65736273e-02 -7.75730088e-02 -7.11520314e-02 -2.57936660e-02 -6.76162913e-02 +9.06320941e-03 -5.67746162e-02 -1.67916287e-02 -3.18782814e-02 -3.00127617e-03 -3.36640775e-02 -1.40364338e-02 +4.80465312e-03 +5.48710190e-02 -3.32923159e-02 +5.99893890e-02 -2.73200683e-02 +3.33307870e-02 -9.04885828e-02 +6.00228161e-02 +7.67268687e-02 +8.11622143e-02 +4.64593479e-03 -2.80295331e-02 +5.74250445e-02 -6.10409789e-02 +4.65520704e-03 +3.91996801e-02 +7.13478178e-02 -3.71899903e-02 -4.06625159e-02 -7.95412734e-02 +1.48577597e-02 -8.36576745e-02 +6.30110949e-02 -8.42023566e-02 -6.90811798e-02 -9.16274488e-02 -1.59119572e-02 +8.54641572e-02 +7.58449733e-02 +6.80553243e-02 +3.88661511e-02 +7.55551830e-02 +2.15058886e-02 +2.90338937e-02 -3.10391318e-02 +8.11633393e-02 -4.81312536e-02 +1.07672818e-01 -2.41655055e-02 +5.05543547e-03 +6.03107810e-02 -2.25685257e-02 +7.62208849e-02 -1.19011970e-02 +3.31657901e-02 -3.34524103e-02 -2.44041309e-02 +8.79921839e-02 -1.74017325e-02 -1.79508980e-02 +8.00351650e-02 -8.30272660e-02 -9.64555442e-02 -5.08350022e-02 -6.54819533e-02 -3.06919012e-02 +8.68213177e-02 +2.76496653e-02 -2.12789699e-03 -1.43044884e-03 +9.18468311e-02 -8.94414037e-02 +5.05491458e-02 +7.95130879e-02 +3.07404660e-02 +7.61819258e-02 -9.17902961e-02 +2.16489434e-02 -7.08828121e-02 -8.18840712e-02 -6.70699999e-02 -7.07883239e-02 +7.82992244e-02 -5.54261133e-02 +2.19418742e-02 +9.23295319e-03 +7.48365000e-02 +1.62999108e-02 +8.51108804e-02 +4.70457375e-02 +6.81982711e-02 -3.24511938e-02 -3.69120054e-02 +8.89542326e-02 -9.26324651e-02 -1.94704672e-03 +7.38426000e-02 +2.10209768e-02 -2.57987808e-02 -4.89565842e-02 -1.92439817e-02 +6.64105341e-02 -1.72168501e-02 -6.67973608e-02 -9.49270204e-02 -5.14419600e-02 -2.42792722e-02 -3.85532193e-02 +3.61240394e-02 -6.64399266e-02 -5.82408123e-02 +2.39617713e-02 -3.93979698e-02 -7.71291554e-02 -2.12985240e-02 -4.01634574e-02 -5.16550913e-02 +7.15534985e-02 -2.68336553e-02 +7.43094012e-02 -8.43263045e-02 +1.81839801e-02 -3.73878926e-02 -6.38999697e-03 -2.46011149e-02 +2.22979262e-02 +7.37138689e-02 +6.32461160e-02 -7.65826479e-02 +8.65107849e-02 -2.36257836e-02 -7.99805075e-02 -8.92378241e-02 -9.05675367e-02 +5.29261492e-02 +4.76663411e-02 -7.17211515e-02 -8.16657320e-02 +8.57053045e-03 -4.97662872e-02 -3.15791974e-03 -5.74164987e-02 -2.52481233e-02 +4.54682484e-02 -8.54628161e-02 -7.09428117e-02 +7.64996186e-02 +9.76716280e-02 -1.34538263e-02 -8.07343572e-02 -6.05093129e-03 -9.29450169e-02 -2.84691062e-02 +3.59448157e-02 -1.74374320e-02 +7.80717516e-03 +6.40587211e-02 +9.63388979e-02 +6.92381635e-02 +3.82196456e-02 +8.94144326e-02 +3.07862498e-02 +4.87954989e-02 -2.48992238e-02 -7.60620013e-02 -9.70164500e-03 +1.06460799e-03 -6.00574799e-02 -6.97753578e-02 +4.97878436e-03 +1.67400688e-02 +3.03132366e-02 +2.96782721e-02 -6.35875463e-02 -9.45211202e-03 +6.44152761e-02 -5.63297188e-03 -6.58515990e-02 -7.79509842e-02 +3.42519842e-02 +3.96393687e-02 +8.43087658e-02 -2.51404345e-02 +2.07683425e-02 +2.86557451e-02 -7.11095110e-02 -1.10750170e-02 
#Parameter# /b6 {20} 321 ZERO_GRAD
-8.65544453e-02 -3.37637067e-02 -3.27218398e-02 +2.58259885e-02 +9.12700966e-02 +5.61147556e-02 -3.96495592e-03 +2.10656561e-02 -3.50860618e-02 -3.57993990e-02 -6.26357347e-02 -7.10754171e-02 -8.38316306e-02 +5.78965098e-02 +7.96217546e-02 +7.79025853e-02 +9.45338681e-02 +2.93727517e-02 -1.44525217e-02 -8.57575834e-02 
#Parameter# /W7 {20,20} 6401 ZERO_GRAD
+1.17935752e-02 +5.59153594e-02 -9.54686627e-02 -2.57891044e-02 -5.56703769e-02 -2.31951438e-02 +5.68928756e-02 -4.64818552e-02 -4.20176871e-02 -4.76940386e-02 +9.09369066e-02 +6.91998750e-02 -4.18224446e-02 +9.08014998e-02 -5.89166060e-02 -6.76284656e-02 -3.99153382e-02 +6.86832517e-02 +8.98994505e-02 +1.45106278e-02 -4.45970930e-02 -5.00116311e-03 +8.72028098e-02 +2.78647430e-02 -5.63653372e-02 +9.37681645e-02 -5.15117031e-03 -2.62342282e-02 +4.61069345e-02 -8.74154493e-02 +9.23688151e-03 +7.97675699e-02 -9.01446715e-02 +6.06697127e-02 -6.02331273e-02 +3.02178543e-02 +3.26483441e-03 +1.84164755e-02 +7.80752748e-02 +7.38571286e-02 -6.17413111e-02 +4.48030196e-02 +7.39419321e-03 +5.35567850e-02 +3.59851643e-02 -3.27533931e-02 -1.43161407e-02 -6.65413439e-02 -2.57418249e-02 +6.27108067e-02 +5.15866093e-02 -5.80395348e-02 +2.53786594e-02 +4.74482961e-02 -2.38008741e-02 +6.26527742e-02 +1.87892187e-02 +2.87852790e-02 +2.85383477e-03 -6.10873513e-02 +6.01521134e-02 +3.87077630e-02 -4.61493954e-02 -4.26257141e-02 -6.49241805e-02 -6.14206344e-02 -7.20629981e-03 -2.79640164e-02 +6.19480237e-02 -9.60024167e-03 -8.72140676e-02 +9.27452892e-02 +2.80710938e-03 -2.35435832e-02 +5.35056815e-02 +5.98546043e-02 -3.50422114e-02 -1.25532504e-02 -2.73155887e-02 -1.05845621e-02 +8.39014426e-02 -3.65439965e-03 -1.53425252e-02 +2.47663353e-02 -2.35006344e-02 -4.61859629e-02 +4.43772040e-02 +4.59542572e-02 -8.95507052e-04 +4.54107933e-02 +1.25265224e-02 +1.49006173e-02 +3.28043080e-03 -2.01336797e-02 +1.25096161e-02 +7.75056053e-03 -2.89316252e-02 +3.72894667e-02 +4.70079333e-02 -6.02424145e-02 +3.82002294e-02 -1.36133004e-02 +7.72777200e-02 +4.76989076e-02 +5.66503666e-02 -6.33230433e-02 +2.42236312e-02 -6.77283481e-02 +1.63333174e-02 +3.18079293e-02 -3.24855074e-02 +3.24019417e-02 +5.08807003e-02 -5.91426203e-03 +8.14871714e-02 +8.75542089e-02 -4.37566405e-03 +4.49902713e-02 +7.27126747e-02 -6.33915514e-02 -5.43691851e-02 +6.95303408e-03 -7.59395212e-02 +1.39326621e-02 +4.75356821e-03 +1.43762799e-02 +6.57436438e-03 +6.22389913e-02 +4.70149368e-02 +5.74530698e-02 -4.87429462e-03 +7.68783614e-02 -4.17919978e-02 -1.34152444e-02 +3.55259702e-02 -7.55823925e-02 -9.22620222e-02 -2.27409136e-02 -2.66670086e-03 +5.25921136e-02 +6.76039308e-02 +9.49281007e-02 +9.62928031e-03 +7.86739066e-02 +6.40985966e-02 +2.37844791e-02 -2.20124200e-02 +3.08481958e-02 +2.14865338e-02 -1.23664578e-02 +7.36822635e-02 +2.90989242e-02 -7.09712505e-02 -8.05073902e-02 +4.45121005e-02 -6.70370832e-02 +2.35856958e-02 -4.30988241e-03 -8.25296938e-02 -6.31434545e-02 -1.00626983e-02 +5.05075045e-02 -8.00731331e-02 -4.44697253e-02 -6.73310691e-03 +3.36770754e-04 +6.12470433e-02 -1.05359731e-03 +8.19708481e-02 -7.53869787e-02 +2.25930270e-02 -3.70550714e-02 -1.67869832e-02 +5.60854934e-03 -8.43991488e-02 +3.72552802e-03 +5.97775243e-02 -2.81682163e-02 -5.25220037e-02 +1.43058214e-03 +2.49582455e-02 +3.38068232e-02 -4.18086462e-02 -1.13074183e-02 -4.89349104e-02 -8.94716755e-02 -5.20654432e-02 +7.82781988e-02 -3.50225694e-03 +3.66097945e-03 +4.47340822e-03 -3.82908769e-02 +3.50871906e-02 +6.57905936e-02 -6.69565573e-02 +9.05425921e-02 -9.14583281e-02 -1.33763375e-02 -3.56222130e-02 -5.02728932e-02 -3.59559022e-02 +4.47391383e-02 -7.37193450e-02 +7.96671286e-02 -3.68390232e-02 +3.45413387e-02 +9.18464959e-02 +4.54144403e-02 -3.44291776e-02 -3.47546907e-03 -8.40661377e-02 -3.52184586e-02 +7.57128149e-02 +6.65530041e-02 +3.01856678e-02 -8.80741607e-03 +4.86171804e-02 +1.59594268e-02 +7.48220235e-02 -5.04934490e-02 -5.30767851e-02 +8.24850351e-02 +3.56670916e-02 -1.09847523e-02 +4.49121110e-02 -5.60099557e-02 -8.27568695e-02 +1.50441602e-02 +7.90013596e-02 +9.33270827e-02 +4.99986596e-02 -6.45800903e-02 +4.67490479e-02 +7.98788741e-02 +4.06215638e-02 +1.83386244e-02 -8.01538453e-02 -7.97465965e-02 -7.06192181e-02 +1.15287770e-02 +4.99032848e-02 +5.82596585e-02 +1.35357783e-03 -2.82266783e-03 -9.05909464e-02 -6.28915578e-02 -3.53901759e-02 -2.69104466e-02 -4.53283563e-02 +8.23053997e-03 +2.68204026e-02 +2.33678725e-02 +3.54276411e-02 -8.20001662e-02 +6.30135611e-02 -7.87781610e-04 +5.57160079e-02 +2.27677505e-02 +6.51976420e-03 +3.02058440e-02 -7.67062604e-02 +4.25992720e-02 -2.54951715e-02 +8.30602646e-02 +5.70438653e-02 -6.01841025e-02 +6.96838126e-02 -3.83590348e-02 -1.52651286e-02 -2.97323950e-02 +6.13894127e-02 -9.36011076e-02 +4.30943780e-02 +8.66571292e-02 +2.15586536e-02 -5.19791283e-02 +6.90994710e-02 -1.55708010e-04 +1.70261525e-02 +3.83922011e-02 +8.86409879e-02 -1.39662006e-03 +3.44104953e-02 +7.05154985e-02 +9.02075991e-02 +1.73189119e-02 +8.97037145e-03 +8.29861537e-02 +3.57635729e-02 +5.37719689e-02 -9.01311412e-02 -8.69631842e-02 -2.44879685e-02 +6.44927323e-02 +5.49968183e-02 -6.77548647e-02 -4.75636460e-02 +2.68164054e-02 +2.39510741e-03 +5.26596345e-02 -8.20758194e-02 +8.99265409e-02 +4.62219380e-02 -1.28780613e-02 +1.23926438e-04 -7.07659870e-02 -8.93377662e-02 -3.28242071e-02 -4.30841409e-02 -7.91826025e-02 -4.52268645e-02 +7.98321664e-02 +8.11845437e-02 +4.77392189e-02 -6.03298582e-02 -1.18413297e-02 +6.68710023e-02 +2.16453001e-02 +3.61476094e-02 -2.40453202e-02 -4.46746014e-02 +2.15104055e-02 -4.85491529e-02 +9.49658304e-02 +6.25481606e-02 -8.36384520e-02 +5.72513975e-02 -1.12709878e-02 +3.35075296e-02 -4.53707092e-02 -1.56606641e-02 -8.61166045e-02 -4.03832607e-02 -6.02569506e-02 +8.75436664e-02 +2.73428462e-03 +2.08053142e-02 +1.83427474e-03 +5.53744510e-02 -4.86611947e-02 -4.49552089e-02 -3.62005197e-02 +6.85170591e-02 +5.06338403e-02 -7.63606057e-02 +4.35971171e-02 +2.99795773e-02 -2.59960052e-02 +6.88117510e-03 +8.71817954e-03 +6.45823255e-02 -1.58704855e-02 +9.01854858e-02 -8.96225199e-02 +2.47171465e-02 +2.46174987e-02 -8.38495120e-02 -8.87795761e-02 +7.47717395e-02 +2.02869880e-03 -1.77650638e-02 +1.29243871e-02 -7.88411275e-02 +5.45929410e-02 -7.06517696e-02 +8.55140463e-02 -6.08378090e-02 -7.74181038e-02 -6.92283288e-02 -4.40522842e-02 -6.46319836e-02 -1.00024343e-02 -8.06547031e-02 +2.59043183e-02 +4.68707178e-03 -6.35710061e-02 -6.62505850e-02 +6.11491017e-02 -2.92965472e-02 -1.95024963e-02 +4.72344123e-02 -2.77506784e-02 +2.60363203e-02 +7.07749948e-02 -1.83626171e-02 +4.34482880e-02 -5.69115393e-02 -6.59452379e-02 -4.46615480e-02 -8.08643475e-02 -5.09475619e-02 -1.17281852e-02 -6.95574582e-02 +2.75695343e-02 -9.21430662e-02 +1.17932903e-02 +3.04854289e-02 +7.97214359e-02 +6.66382462e-02 -6.41016010e-03 
#Parameter# /b7 {20} 321 ZERO_GRAD
+8.31218809e-02 +9.01724547e-02 -1.73514765e-02 +1.43645692e-03 +7.05176592e-02 +2.07937248e-02 -4.60059009e-02 -8.18294585e-02 -6.36256412e-02 +7.82025382e-02 -9.17326286e-02 +4.54567932e-02 +4.53464538e-02 +6.61079288e-02 -7.33479187e-02 -4.90627289e-02 +2.20035762e-03 -9.54198372e-03 -9.32406634e-02 -3.12101077e-02 
#Parameter# /W8 {20,20} 6401 ZERO_GRAD
-3.71719897e-02 +5.66411540e-02 +7.22772107e-02 +3.65382433e-02 -3.20471004e-02 +4.42517251e-02 +7.78749883e-02 -1.30218668e-02 +5.60475979e-03 -2.73399204e-02 +1.65618733e-02 +6.37768805e-02 -8.39586544e-04 +7.23504322e-03 -7.28326812e-02 +6.56298622e-02 -3.91483016e-04 -2.55146213e-02 -1.98256900e-03 -9.16642174e-02 +6.25894889e-02 +4.93819304e-02 +4.43561859e-02 -8.82872641e-02 +9.46902037e-02 +8.55480805e-02 -6.76508695e-02 -2.00280678e-02 -1.54577726e-02 -5.60051471e-04 +5.73921762e-02 -7.35821053e-02 -4.48998176e-02 +1.09222811e-02 -6.93884939e-02 +3.14042084e-02 +2.45166253e-02 -9.47986320e-02 +1.66151915e-02 -5.86004183e-02 +1.91585477e-02 -7.68945366e-02 -7.29127303e-02 -9.50321704e-02 -7.55864754e-02 -7.46694207e-02 +2.14778371e-02 -1.52606824e-02 +1.18761063e-02 +2.82506663e-02 -2.50363722e-02 +2.76744645e-02 +3.92947160e-02 -2.47991607e-02 +2.88425535e-02 +6.00151196e-02 -7.59466141e-02 +8.20474327e-02 -7.98822641e-02 -4.22848901e-03 -7.70124570e-02 -4.63155173e-02 -8.92442763e-02 +1.59609318e-02 +4.18314002e-02 +2.29786560e-02 +6.43850863e-02 -8.96581635e-02 +3.81368175e-02 +2.48251036e-02 -7.40293339e-02 +6.00336527e-04 -9.79125034e-03 +8.88197869e-02 +2.89528929e-02 -5.91600463e-02 -3.99782695e-02 -6.76890463e-02 +2.80064996e-02 +1.88186262e-02 +6.67140782e-02 +2.91718580e-02 -1.20662088e-02 +4.60840799e-02 +4.78718057e-02 -8.88897702e-02 +3.65996286e-02 -1.48121295e-02 -7.92621821e-02 +5.49570732e-02 -5.12010790e-02 +2.37479527e-02 +2.81886887e-02 -5.62043255e-03 +6.71353936e-02 -6.45029843e-02 -7.23026246e-02 +4.54597957e-02 +1.09367436e-02 -3.41260433e-02 -3.86088453e-02 -8.94692168e-02 +7.79573619e-02 -7.67078176e-02 -8.54611117e-03 +7.23811053e-03 +3.79148312e-02 -2.30382010e-02 -7.35589489e-02 -3.94355468e-02 +7.79011324e-02 -8.51194337e-02 -2.13802140e-02 +1.00679426e-02 +6.62858263e-02 +7.69018158e-02 -1.71636627e-03 -9.06459540e-02 +6.35569766e-02 +7.74170905e-02 -3.70538533e-02 -1.47592928e-02 +5.24322614e-02 +2.55717821e-02 +9.37620476e-02 -2.51216106e-02 +5.89189716e-02 -5.82464747e-02 +3.92009206e-02 -8.84809047e-02 +4.36314382e-02 -7.81301931e-02 -6.72844276e-02 -1.61846611e-03 +8.39046985e-02 -9.37693119e-02 +7.12362900e-02 +8.43459666e-02 -1.62777938e-02 -8.43542591e-02 +6.29054531e-02 -2.91518401e-02 -8.67631882e-02 +3.99733447e-02 -6.17521815e-02 +4.94756885e-02 +8.78777057e-02 -6.87555736e-03 +6.89934790e-02 -4.52419147e-02 +8.49717483e-02 -4.80964035e-02 +6.05294481e-03 +8.41837451e-02 -2.47349981e-02 +3.45039330e-02 -7.30599165e-02 -1.41038783e-02 -2.06418931e-02 +4.07967903e-02 -2.92671844e-02 +5.05435700e-03 -3.55045386e-02 -1.18266027e-02 +7.63601288e-02 -5.87716252e-02 -3.63730267e-02 +3.78373563e-02 +8.90223384e-02 +3.50166025e-04 +5.54299690e-02 -1.48746986e-02 -5.63271604e-02 -9.71817411e-04 -7.66783953e-02 +5.67459613e-02 +8.69037360e-02 -2.98411138e-02 +4.05519046e-02 +4.84289527e-02 +4.70208004e-02 +6.56783879e-02 +7.28375539e-02 -4.56017666e-02 -4.70562242e-02 +6.51841313e-02 -9.09395516e-02 -1.59129910e-02 -8.84286985e-02 -8.49193707e-02 -1.63103808e-02 -5.19860685e-02 -4.85397279e-02 -4.14563827e-02 +2.26489198e-03 -5.03115281e-02 +1.85240936e-02 -6.54291362e-02 -6.31671771e-02 -1.98377017e-02 -3.66035141e-02 -6.36931136e-02 +8.27210173e-02 +2.94412300e-02 -3.92844854e-03 +3.41226608e-02 -4.20901133e-03 -9.17553902e-02 -2.61507323e-03 -7.04288706e-02 -3.82264401e-03 +8.45419690e-02 +8.83915573e-02 +3.83738019e-02 -6.52725250e-02 -4.38455120e-02 +5.84627762e-02 -5.68012111e-02 -8.72379243e-02 -3.84971104e-03 +7.23690465e-02 +5.62890293e-03 +2.01313123e-02 -3.68956849e-02 +1.91529114e-02 +1.31433113e-02 -1.18743873e-03 -4.67690144e-04 -3.35933454e-03 +1.51250307e-02 -4.18375507e-02 +6.85586184e-02 -1.49597898e-02 -7.37326443e-02 -6.85390979e-02 -7.88756758e-02 -9.49120373e-02 +7.14734495e-02 -8.17406252e-02 -4.37167138e-02 -7.58633367e-04 -6.52012825e-02 -7.28569329e-02 -6.31899536e-02 -1.21306805e-02 -3.99785712e-02 -2.20256764e-02 -6.00471385e-02 +5.48370034e-02 +3.18118818e-02 +3.01788747e-02 +3.54650766e-02 -1.96866016e-03 -1.40464241e-02 -6.63729152e-03 +1.03687365e-02 +5.76415136e-02 -8.45880881e-02 +5.71025684e-02 +7.16410801e-02 -9.16233808e-02 -5.57564609e-02 -8.60959664e-02 +8.73315632e-02 -1.93488076e-02 +5.00737317e-02 +8.88915174e-03 +4.66760844e-02 +8.39345083e-02 -1.91028739e-04 -1.32315466e-03 -7.63239935e-02 -1.92030910e-02 +8.08480456e-02 -9.20868814e-02 -1.40646193e-02 -8.61899257e-02 +8.51762742e-02 +2.61794180e-02 -5.34616187e-02 +6.59356713e-02 +7.15914145e-02 +4.67194095e-02 +8.88196304e-02 -6.47931099e-02 +5.34360856e-02 -6.40228167e-02 -7.48024955e-02 +8.47968981e-02 +5.44374548e-02 +3.45178060e-02 -8.24499801e-02 +8.54422804e-03 +4.81235795e-03 -8.00869800e-03 -2.03165356e-02 -3.95417586e-02 +6.84316270e-03 -1.83111709e-02 +4.73404042e-02 -4.06146944e-02 +8.79027843e-02 +2.41870638e-02 -6.86327145e-02 -8.97737518e-02 -3.12868617e-02 -2.07823068e-02 +1.23378821e-02 +5.29459193e-02 +6.93135858e-02 -3.30984890e-02 +6.67132577e-03 +5.21167880e-03 -7.47211128e-02 -4.55192439e-02 -9.46595743e-02 -4.82941680e-02 +1.48887970e-02 -2.82269064e-02 +9.06186737e-03 +7.74981827e-02 -5.56956045e-02 +5.98255619e-02 -6.99073225e-02 +8.00709426e-02 -6.98637813e-02 +8.88187066e-03 +4.37895358e-02 -1.93250563e-03 -2.29079649e-02 -6.70058802e-02 +9.34910178e-02 -1.73791181e-02 +2.18811408e-02 -8.49660337e-02 +9.43272784e-02 +2.29648985e-02 +4.49430645e-02 +8.32369551e-03 -1.93380583e-02 -9.28367302e-02 -9.16714668e-02 +5.16955778e-02 -9.44049433e-02 -3.21050845e-02 +1.00783594e-01 +3.85467634e-02 -4.53428775e-02 +8.47884491e-02 -4.36228029e-02 -9.49106440e-02 -4.11040932e-02 +6.78234547e-02 +7.17983618e-02 -5.87241910e-02 +6.30526394e-02 +1.76121341e-03 +8.03139284e-02 +5.15936036e-03 -6.00736402e-02 -5.39847873e-02 +5.75364046e-02 -8.92068222e-02 -4.18694206e-02 -1.85805839e-02 +7.19110444e-02 -3.81225208e-03 -3.93737927e-02 +4.11768928e-02 +5.65395206e-02 +2.99821817e-03 +5.66740185e-02 +8.20186660e-02 -7.80100003e-03 -9.23079550e-02 +8.46880600e-02 +5.48104569e-02 -8.50804746e-02 -7.70959184e-02 +3.12658167e-03 +5.93035594e-02 +2.61826906e-02 -8.38664323e-02 +8.40507597e-02 -1.37188109e-02 +1.81167573e-02 -3.60247269e-02 -7.72105604e-02 -9.17641819e-02 -7.77155012e-02 +3.62734646e-02 -7.55627453e-02 +6.96686953e-02 -2.57444736e-02 -7.92483985e-02 -3.31268385e-02 +7.02253729e-02 +1.33102515e-03 -6.35593385e-02 +3.63186486e-02 
#Parameter# /b8 {20} 321 ZERO_GRAD
-3.59449945e-02 -1.15262149e-02 +6.74972311e-02 +4.62374985e-02 -8.03217757e-04 +1.39833905e-03 -7.33820722e-02 +3.68321389e-02 -1.92254521e-02 +2.33128760e-02 +2.75127813e-02 -1.92728452e-02 -9.71599575e-03 +1.38098607e-02 -4.80282232e-02 -9.04653892e-02 -1.57324299e-02 -2.91307122e-02 -5.57775870e-02 +4.65640575e-02 
#Parameter# /W9 {20,20} 6401 ZERO_GRAD
-9.27490443e-02 +5.32041192e-02 -8.53936225e-02 -7.90664926e-02 -3.55109666e-03 +7.27984235e-02 -7.29371188e-03 -4.65247743e-02 +2.31833532e-02 -3.85759473e-02 +9.05784965e-03 +6.32132962e-02 +7.14153871e-02 +1.44008277e-02 +6.22821450e-02 +4.72207274e-03 -6.86338842e-02 -3.55559913e-03 +5.66193052e-02 -1.97348353e-02 -2.72979736e-02 -9.49852839e-02 -7.43691996e-02 -3.99669670e-02 -1.83875300e-02 +2.15762071e-02 +3.72912697e-02 -6.00826088e-03 -9.17620286e-02 -7.49136806e-02 +5.14173806e-02 -7.39465579e-02 -7.48485550e-02 -9.02229026e-02 +8.27690139e-02 +4.98061329e-02 -1.66580435e-02 -4.24121041e-03 +3.63406055e-02 -1.45263399e-03 +3.03106755e-02 +7.47883692e-02 +5.98739535e-02 -8.42467323e-02 +5.48788719e-02 +5.25058433e-02 +1.45696914e-02 -4.48449627e-02 +4.82677519e-02 -3.93967889e-02 -5.73069677e-02 +9.29684043e-02 +9.31448191e-02 -5.32561727e-02 +5.88362738e-02 -7.82279670e-02 +4.63904953e-03 +7.00645596e-02 -5.75479679e-02 +7.20675811e-02 -4.23027091e-02 +1.61724165e-02 +1.04836039e-02 -6.45506894e-03 +7.75246695e-02 -9.39580947e-02 -6.27038479e-02 +1.38974963e-02 +8.68334919e-02 +7.39101619e-02 +7.20357671e-02 +8.44273418e-02 +1.37445237e-02 -4.35947767e-03 -6.17625862e-02 -7.66354278e-02 +4.59357165e-02 -5.49778529e-02 -5.40445782e-02 -3.28956991e-02 -8.57092664e-02 +5.92144690e-02 -1.35391410e-02 -7.41718337e-03 -6.77018054e-03 -4.77409968e-03 -6.82904571e-02 +2.29287837e-02 -8.36414248e-02 +8.14386904e-02 +3.17539237e-02 +3.73151973e-02 -3.28359194e-02 +8.36563408e-02 +9.32771340e-02 +5.50069883e-02 -1.90229714e-02 +4.82567251e-02 +7.45003391e-03 +9.62091517e-03 -3.16014551e-02 +8.53405055e-03 +9.24890414e-02 -1.34160342e-02 +2.18423568e-02 -5.83158135e-02 -4.70325090e-02 -7.02982247e-02 +8.91333446e-02 +6.58800229e-02 +3.20903882e-02 -7.63021186e-02 +7.40799010e-02 -3.51983272e-02 +6.54975697e-02 +9.11985114e-02 +4.64724787e-02 +1.83120929e-02 -8.57783854e-02 +4.77234535e-02 +6.15488701e-02 +8.84683281e-02 -7.65353441e-02 -3.34937163e-02 +7.89747313e-02 -5.69038764e-02 +5.34128733e-02 +6.06376231e-02 -6.21622056e-02 -4.29259688e-02 -9.64402407e-02 -6.81818351e-02 -7.23574907e-02 +6.02900574e-04 +1.97523292e-02 -5.96176051e-02 +6.45255372e-02 -1.92447787e-03 -6.02845214e-02 -1.46677662e-02 -2.31245738e-02 +1.45805171e-02 -4.89477180e-02 -6.95325062e-02 -7.17428029e-02 +1.92638561e-02 +6.88218921e-02 -8.48693401e-02 +2.25135032e-02 +3.90276276e-02 -8.35901573e-02 +8.97203684e-02 -8.33736435e-02 +2.42606876e-03 +2.91074533e-02 -5.19132689e-02 -4.06773537e-02 +1.46198282e-02 +9.39464122e-02 -1.04760509e-02 -2.94190105e-02 -4.56701145e-02 +8.18669274e-02 -3.10344696e-02 +1.35614295e-02 +2.61967257e-02 -6.30283058e-02 -5.42039461e-02 -4.50512394e-02 +8.33181888e-02 +5.67297302e-02 -8.63683075e-02 +3.89407575e-02 +8.06869119e-02 +6.91227568e-03 +7.81958271e-03 +5.91349751e-02 -7.90036172e-02 +4.77924161e-02 +5.24102636e-02 -1.58809908e-02 +7.09703490e-02 +1.57172754e-02 -6.59794584e-02 -7.64551088e-02 +3.69939618e-02 +7.53485635e-02 -5.26120923e-02 +1.44479889e-03 +2.86355428e-02 -2.86334269e-02 -6.29568193e-03 +1.76955014e-02 +8.85100290e-02 -7.37133771e-02 +8.84212740e-03 -2.18101032e-02 +2.13415492e-02 -2.55246852e-02 -4.26903926e-02 -8.39887261e-02 -1.43632451e-02 +7.93729350e-02 -1.14057697e-02 -3.62936147e-02 -2.89609190e-02 -7.82419369e-02 -3.67171057e-02 +3.79350260e-02 +4.19160798e-02 +5.31144328e-02 -2.20125634e-02 -2.71502659e-02 -7.02690426e-03 -9.11816861e-03 -1.05884774e-02 +8.47972482e-02 +8.61968193e-03 -4.64004315e-02 +5.11027612e-02 -8.06012973e-02 -5.48761040e-02 -5.71323708e-02 +5.26347794e-02 +3.11073437e-02 -8.75231028e-02 +8.58441517e-02 +1.55386450e-02 -5.72255328e-02 -4.16946933e-02 +7.82137141e-02 -4.69471440e-02 -1.46224918e-02 +2.07348298e-02 +4.91747595e-02 -1.44997900e-02 -7.67515227e-02 -7.33094104e-03 +6.27886970e-04 +4.50871848e-02 -3.40675674e-02 -9.21023563e-02 +7.55329803e-02 +3.00616864e-03 -4.23003845e-02 +3.37262154e-02 +2.13303734e-02 -7.96370730e-02 +6.97778538e-02 +3.91141400e-02 -1.57927070e-02 -8.34279507e-02 -1.73424296e-02 +4.02354933e-02 +6.76647946e-02 +4.75861356e-02 +6.30939901e-02 -1.36253042e-02 +8.44737813e-02 -6.07626364e-02 -9.28300247e-02 -9.12427008e-02 -5.60914539e-02 +1.04557358e-01 -1.07065383e-02 -7.60047734e-02 +5.50503992e-02 -8.14020261e-02 +3.51482444e-02 +7.59076402e-02 +9.04848278e-02 +4.25170921e-02 -1.78795513e-02 -9.84155312e-02 -5.63276857e-02 -2.46598981e-02 +7.53073394e-02 +7.88713172e-02 -6.42012656e-02 +3.05546820e-02 +6.30900115e-02 -2.79765446e-02 +1.67186670e-02 +4.22134958e-02 -3.10444720e-02 +8.32562447e-02 -7.68293813e-02 -4.63974364e-02 +4.62231487e-02 +3.03420238e-02 +6.48164675e-02 +5.76486439e-02 +7.03468844e-02 -1.42796664e-02 -2.11749710e-02 -2.48964168e-02 +6.53782263e-02 +1.60667934e-02 -2.06658840e-02 +8.65280554e-02 +1.77523643e-02 +4.28925119e-02 +6.90069571e-02 -3.24499831e-02 -4.67380472e-02 -7.82411397e-02 -2.37067863e-02 +2.35925652e-02 -5.59598282e-02 -3.80298533e-02 +8.27733725e-02 +7.74788558e-02 -4.66159880e-02 +8.15982372e-02 -4.95002568e-02 +5.37072644e-02 -5.20140491e-02 -7.97174964e-03 -2.99330037e-02 +6.77200556e-02 +3.49702165e-02 -8.97133574e-02 +6.70103505e-02 -7.17334524e-02 +4.33712378e-02 +6.47242740e-02 +6.16979897e-02 +6.03264943e-02 -7.79143199e-02 +1.31563945e-02 +4.46851924e-02 +8.32265690e-02 -5.46644069e-02 -6.28094748e-02 +7.07718823e-03 +8.58960487e-03 +4.97362874e-02 -5.97204603e-02 +8.37110505e-02 -8.24187398e-02 +6.25813454e-02 -3.62746902e-02 -3.99437209e-04 +2.11133137e-02 -1.45888822e-02 -7.54825100e-02 +6.08496033e-02 -6.18521012e-02 +6.45226240e-02 -8.47566053e-02 -1.38844317e-02 +5.58896810e-02 -8.78788978e-02 +8.44549201e-03 +6.21126294e-02 -2.88915522e-02 -2.28370391e-02 +5.94727471e-02 -7.06840083e-02 -8.50896835e-02 -2.36551072e-02 +1.86116504e-03 -7.43040293e-02 -4.45146225e-02 -4.82804179e-02 +3.48469317e-02 -8.65652710e-02 +3.16857873e-03 +8.67452696e-02 +7.15331212e-02 -1.27287433e-02 -8.96181986e-02 +5.77910654e-02 -4.09373501e-03 -4.62144241e-02 +2.60805488e-02 +6.47418946e-02 +7.11024627e-02 -1.95430629e-02 +8.83800909e-02 -7.38787875e-02 +5.33256270e-02 +1.07955718e-02 +4.89005148e-02 +2.16875207e-02 -8.86382461e-02 -5.05823130e-03 -9.11929086e-02 -7.90857151e-02 -1.01471860e-02 +4.12666127e-02 +8.76045972e-02 +3.47261392e-02 -4.95381840e-03 -4.82066395e-03 -7.35129863e-02 +9.13888961e-02 +2.23024338e-02 +6.91677034e-02 +2.21450552e-02 
#Parameter# /b9 {20} 321 ZERO_GRAD
+2.70991065e-02 -6.06160760e-02 -7.25102797e-02 +3.19545679e-02 -4.27092006e-03 +2.65766643e-02 +4.30005565e-02 -5.93485832e-02 +4.15014811e-02 +8.59522521e-02 -5.61861843e-02 +7.41921216e-02 +8.61872956e-02 +7.51233324e-02 +3.14643830e-02 +9.53626726e-03 +5.26107959e-02 -8.78642723e-02 -7.43728727e-02 -3.95581573e-02 
#Parameter# /W10 {20,20} 6401 ZERO_GRAD
+9.38635916e-02 -7.33298957e-02 +2.25205887e-02 +5.20318002e-02 +6.95151240e-02 -5.70497252e-02 +4.97677661e-02 -4.67664413e-02 -7.85567760e-02 +7.14452788e-02 +5.17527461e-02 +3.10009569e-02 -5.51253604e-03 +8.28972980e-02 -6.15867004e-02 -6.04191460e-02 +8.92675519e-02 -8.08035061e-02 -7.05444515e-02 -4.47628275e-02 +6.42408803e-02 +9.99598484e-03 +7.00328499e-02 -3.13985534e-02 +4.03206609e-02 +8.45732093e-02 +2.64218096e-02 -4.75619510e-02 -8.14588889e-02 +3.68963070e-02 +7.00369924e-02 +5.23484424e-02 +6.91218153e-02 +9.11446661e-02 -5.78293279e-02 -9.02663842e-02 +8.12660083e-02 -4.85137887e-02 +1.87729448e-02 -5.49624860e-02 +8.66300911e-02 +2.83852760e-02 -8.71105418e-02 +6.33943975e-02 +5.80227152e-02 +7.92516917e-02 -1.92420539e-02 +1.25811184e-02 +1.49677359e-02 -2.26585418e-02 -8.63721296e-02 +4.11250293e-02 -4.51484807e-02 +6.24910481e-02 +2.42690388e-02 -8.68300647e-02 -8.16541091e-02 +5.35321496e-02 +3.16931610e-03 +1.95281077e-02 -6.45346269e-02 +4.41785716e-02 -4.61819321e-02 +4.29588705e-02 -4.08085324e-02 -6.78499863e-02 -1.74389575e-02 +1.54859507e-02 +8.47150609e-02 -4.96624969e-02 -9.46520343e-02 -3.24166417e-02 +8.00293032e-03 -6.53647110e-02 +6.55402541e-02 -2.85709240e-02 +6.21545874e-02 +9.61012393e-02 -3.50727662e-02 +3.40394638e-02 -2.48613916e-02 +4.58377264e-02 -6.09466434e-02 +6.93438351e-02 -6.26472896e-03 -4.32871841e-02 -1.20659973e-02 -7.38809481e-02 +1.19191054e-02 -9.53904018e-02 -6.55558258e-02 -7.79281855e-02 -7.63687342e-02 -6.41896278e-02 -5.88256456e-02 +9.07935575e-02 +5.75967021e-02 +2.06652693e-02 -9.71777458e-03 +8.49753022e-02 -7.68114254e-02 -8.88290033e-02 +1.76190697e-02 -7.90851265e-02 -8.77577290e-02 -7.98798800e-02 +8.35183635e-02 -7.45310783e-02 -3.63815390e-02 -5.64530045e-02 +2.13239063e-02 -8.67165998e-03 +6.90547079e-02 -6.99301809e-02 -5.59472144e-02 -1.69643946e-02 +8.63378942e-02 -1.58547368e-02 -7.23384367e-03 +5.68447337e-02 +4.43747118e-02 +8.50876123e-02 -5.48564903e-02 +9.32324156e-02 +2.07451172e-02 +5.83432205e-02 -3.73330601e-02 +5.67024201e-02 +1.23452293e-02 -7.64315808e-03 +6.68901131e-02 -3.93735841e-02 -3.80733646e-02 +4.42502424e-02 +6.65424764e-02 +1.29786236e-02 +8.14283192e-02 -2.34828163e-02 -7.00504631e-02 -8.10707137e-02 -2.13817740e-03 -8.75315666e-02 -2.66478714e-02 -8.83513689e-02 -4.74249907e-02 +2.40177307e-02 +8.60965550e-02 +5.93592487e-02 -5.31618074e-02 +3.64656677e-03 +6.17042705e-02 -4.06601653e-02 -2.52536274e-02 -7.79513344e-02 +2.12263297e-02 -2.11869515e-02 -7.49733113e-03 +2.83557307e-02 -9.11851674e-02 +1.46977082e-02 -9.15145427e-02 -2.81282309e-02 +6.90109655e-02 -8.15885663e-02 -5.21889366e-02 +4.34037745e-02 +4.47436534e-02 -4.48420011e-02 -8.99174437e-02 -2.55459864e-02 -9.33422744e-02 +1.18914284e-02 -6.31718412e-02 -9.28615108e-02 +3.89807373e-02 -1.68416053e-02 -5.03385365e-02 -8.36560950e-02 +1.55497361e-02 +6.30040094e-02 -7.06443191e-02 -8.24637562e-02 -1.50764938e-02 +7.15878084e-02 -4.22085188e-02 -3.77774090e-02 +8.18335712e-02 +6.01320639e-02 -3.20291333e-02 -2.40477975e-02 -1.77184995e-02 -4.84410152e-02 +5.48067316e-02 -8.97637159e-02 +4.89068590e-02 -3.57704423e-02 -2.38878634e-02 -3.95869724e-02 +8.19638669e-02 -3.32383662e-02 +5.19773364e-02 +2.05834936e-02 -3.64945643e-03 +1.61992088e-02 -3.37446784e-03 -1.37903274e-03 -6.76165568e-03 +7.16764927e-02 +5.84910661e-02 +5.57265170e-02 +3.27706821e-02 +3.01556159e-02 +6.63026348e-02 +2.55128965e-02 +5.13692312e-02 +1.08029470e-02 -7.47140050e-02 +7.95832127e-02 +6.92041218e-02 +1.63267031e-02 +6.64429963e-02 +3.79909091e-02 -4.65030447e-02 -5.97700365e-02 +3.13697532e-02 +1.27499802e-02 -4.70251814e-02 -6.95973635e-02 -7.76097327e-02 +2.00252775e-02 -8.37830827e-02 +4.53684032e-02 -8.03679079e-02 -2.39361990e-02 +1.03340624e-02 -6.65817130e-03 -8.23707581e-02 +6.61543608e-02 -6.27796799e-02 -7.25371242e-02 +4.38198857e-02 +7.01387003e-02 -7.35096857e-02 -8.00310224e-02 -1.57910734e-02 -8.28730240e-02 -5.32744229e-02 +5.57386912e-02 -7.40673998e-03 +6.24022726e-03 +2.24107243e-02 -8.96437019e-02 +1.54630858e-02 +5.93575696e-03 +7.09137395e-02 +2.08342075e-02 -6.72525018e-02 +1.55081749e-02 -1.46478387e-02 +2.59361006e-02 -5.32162301e-02 -2.46164780e-02 +5.44354953e-02 +6.60155043e-02 +2.02741418e-02 -6.87209144e-02 -7.13881925e-02 -2.61545908e-02 -5.19023463e-03 -3.75238582e-02 +3.46437991e-02 +2.79132649e-02 +3.13788094e-02 +4.17721085e-02 +9.21366662e-02 -8.25493857e-02 +6.85129240e-02 -2.55211275e-02 -2.68753283e-02 -9.22169685e-02 -9.44734663e-02 +2.61550117e-02 -1.65327173e-02 -8.67022425e-02 +8.15821961e-02 -8.71011838e-02 -5.74912764e-02 +1.92040261e-02 -1.47860339e-02 +1.48558747e-02 -9.44427922e-02 +5.94908334e-02 -8.18972215e-02 +1.78932250e-02 +7.90087283e-02 +4.82544191e-02 +6.08048104e-02 +5.92092723e-02 +1.06689660e-02 +5.23653738e-02 +6.05091192e-02 -1.84864700e-02 -5.78022525e-02 -9.39490050e-02 -1.85085945e-02 +6.11650608e-02 -5.53358570e-02 -5.90041652e-02 +4.94831130e-02 +4.41201441e-02 +1.06006991e-02 -4.77538779e-02 +7.45622814e-02 -2.97060665e-02 +4.38413844e-02 +2.12119389e-02 +2.06403621e-02 +1.76480599e-02 +7.33103231e-02 -4.19111624e-02 -1.16342085e-03 +7.82080591e-02 -1.51846511e-02 +4.89596352e-02 +2.99059041e-02 -9.43110660e-02 -6.89774528e-02 +7.32777342e-02 +3.20143849e-02 -6.08015694e-02 +2.13210881e-02 +4.74726036e-02 -4.58133966e-02 +1.38788987e-02 -4.92198505e-02 -7.55864680e-02 +7.35482946e-02 +1.17818592e-02 +4.52903844e-02 +8.71766657e-02 +8.16704780e-02 -7.20705092e-02 +2.58088261e-02 -1.30992820e-02 +5.48591744e-03 -8.23000968e-02 +8.00525397e-02 -9.03195217e-02 -5.59216551e-03 -4.01011668e-02 -2.87798923e-02 -7.02377856e-02 +5.74236698e-02 +8.74193832e-02 +8.44099820e-02 +9.09589604e-03 -5.84677979e-02 +7.46074095e-02 +8.69717225e-02 +1.42038176e-02 +4.74984460e-02 -1.10596577e-02 -6.64940327e-02 +3.67654674e-02 -5.86474827e-03 +6.24167025e-02 +2.97867246e-02 +7.52759352e-02 +2.89889593e-02 -6.04055524e-02 -7.74669126e-02 +3.85051332e-02 +5.33722341e-02 -2.71203481e-02 -5.09456098e-02 +5.36804907e-02 -3.96877639e-02 +8.76681954e-02 -8.18083659e-02 -2.18027662e-02 +3.00609153e-02 -2.17110422e-02 -6.95450902e-02 +3.77841145e-02 -4.44304533e-02 -3.15928459e-02 +3.19797732e-02 -6.48056343e-02 -4.79304828e-02 +6.20833552e-03 +5.47832390e-03 +2.00086366e-02 -2.29808837e-02 +8.16803053e-03 +7.52539262e-02 +1.09932730e-02 +5.25152730e-03 +4.15787660e-02 -6.12655096e-02 +9.49551687e-02 
#Parameter# /b10 {20} 321 ZERO_GRAD
-1.67932101e-02 -1.83668118e-02 +6.81273565e-02 +4.92695495e-02 +1.13756258e-04 +8.49907398e-02 +9.22433846e-03 +2.98549719e-02 -3.29466211e-03 +8.49144235e-02 -2.54014619e-02 -1.04884086e-02 -7.30297063e-03 +1.77150965e-02 +1.02912508e-01 +5.25519326e-02 +5.80271445e-02 +9.25623532e-03 +3.22292596e-02 -4.84300703e-02 
#Parameter# /W11 {20,20} 6401 ZERO_GRAD
-2.94924695e-02 +9.18295234e-02 +7.28677586e-02 +3.88676152e-02 +4.44143638e-02 -4.33055637e-03 +2.89255809e-02 +1.71086639e-02 +6.20696731e-02 +9.03392807e-02 -6.31494671e-02 +3.31607577e-03 -7.49931717e-03 +4.70410287e-03 +9.10739750e-02 -9.47655439e-02 +9.07634050e-02 +3.44254673e-02 -3.04170251e-02 +7.06078857e-03 -5.14210835e-02 -2.69829128e-02 +1.16978819e-02 +7.52465278e-02 -1.96513180e-02 +2.67367195e-02 +7.50701316e-03 +2.39659492e-02 +3.23034674e-02 +7.61117786e-03 +1.08544603e-02 -4.57380787e-02 +5.94363920e-02 +3.46756689e-02 +8.41750801e-02 -9.07849446e-02 -8.24149698e-02 +6.69590309e-02 +8.77362713e-02 -7.22599030e-02 -2.96367109e-02 +1.94301400e-02 -8.28866195e-03 -5.79542257e-02 +8.81694332e-02 +8.19592699e-02 -8.94056074e-03 +7.93255046e-02 +1.17348870e-02 -4.85057831e-02 -6.43573254e-02 +1.11813424e-02 -5.74448816e-02 +7.28608621e-03 -1.85916517e-02 -7.85127133e-02 -5.62131638e-03 +8.54572356e-02 +7.41052181e-02 -3.15013453e-02 +2.22703628e-02 +8.58089700e-02 +2.90091359e-03 -3.49657759e-02 -9.00389180e-02 -8.62909481e-02 -1.77783594e-02 +4.35431898e-02 +6.92328066e-03 -2.00112108e-02 -8.29637051e-02 -9.85193998e-02 -6.24720566e-02 +8.29383284e-02 +8.38931128e-02 +1.15534347e-02 +3.05329952e-02 +8.67720097e-02 -1.14955865e-02 -1.33369621e-02 -9.50325951e-02 +3.66105624e-02 -8.87582973e-02 +2.39083078e-02 +9.44418609e-02 -8.72191191e-02 +4.31366265e-02 -6.35243133e-02 -4.16203104e-02 +6.17293119e-02 +7.38804117e-02 +4.81452458e-02 +2.25277282e-02 +6.40561283e-02 -4.04620357e-02 -6.16661832e-03 +2.18934696e-02 -8.62464532e-02 -3.91017366e-03 +6.20074163e-04 -3.07899974e-02 +6.54130876e-02 -5.66865951e-02 -5.66392317e-02 -6.87327683e-02 -7.33660534e-02 +8.27972740e-02 +8.03979263e-02 +4.81014587e-02 -7.26963878e-02 -4.99030687e-02 -1.56598687e-02 -2.76784500e-04 -5.57093043e-03 -4.55351286e-02 -2.62252782e-02 +7.47800991e-02 -6.15320429e-02 -2.74269772e-03 -8.05203021e-02 +6.85105622e-02 +2.05585989e-03 -4.29675765e-02 +8.64897072e-02 +2.53256341e-03 -4.65464368e-02 -8.73160455e-03 -5.78877516e-02 +1.81407128e-02 +7.33378483e-03 +1.98697373e-02 +1.13343326e-02 +8.48744588e-04 +7.00008348e-02 -8.61961693e-02 -2.92412210e-02 -5.77149168e-02 -4.21697795e-02 +5.12751751e-02 +6.05459549e-02 -7.12175220e-02 -1.03847915e-03 +6.13517202e-02 -8.71868208e-02 +7.08084628e-02 +3.26935761e-02 +1.89409684e-02 -6.94573149e-02 -2.93932669e-02 +3.22489962e-02 +8.16516504e-02 +7.70583749e-02 +3.87530215e-02 -9.15421620e-02 -8.51515085e-02 -7.13994130e-02 +4.67016548e-02 -7.52732679e-02 +3.25672179e-02 -4.23831418e-02 -4.58029322e-02 -5.19933812e-02 -6.13919422e-02 -6.57939836e-02 +5.32135218e-02 +4.62495051e-02 +3.05610262e-02 +5.41844778e-02 -8.60990211e-02 +6.99020326e-02 -6.39792234e-02 +2.93953484e-03 -4.39048372e-02 -1.72618181e-02 -1.83102246e-02 -9.53383967e-02 +5.12373000e-02 -7.04362243e-02 -2.30082087e-02 +4.15316410e-02 +2.00805441e-02 -8.07242692e-02 +7.97695443e-02 +2.97237411e-02 -2.79720873e-02 +6.05183765e-02 +8.77165273e-02 +3.05793528e-03 -7.89903775e-02 -7.79182911e-02 -5.03673106e-02 -6.78580999e-02 +1.73968151e-02 +3.31902131e-02 -4.16764319e-02 +8.42931345e-02 +1.57735962e-02 -4.90955636e-02 +8.80380273e-02 +9.15493593e-02 +8.47272575e-02 +2.21372824e-02 -1.67319477e-02 -2.04097689e-03 -6.04746826e-02 -3.57422866e-02 +9.05297399e-02 +4.95248102e-02 +8.89724270e-02 -9.03860331e-02 -7.30185732e-02 +1.55959651e-02 -2.63539571e-02 -2.61287726e-02 -1.93318129e-02 -9.21734199e-02 +7.34676272e-02 +4.45377007e-02 +7.30199041e-03 -5.72745875e-02 -4.25822660e-02 -4.36934084e-02 +5.08034788e-02 +2.67638899e-02 +7.72693381e-02 -8.17498341e-02 -7.00550526e-02 +5.24866022e-02 +5.44481874e-02 -4.11650389e-02 +3.27597894e-02 +3.29821110e-02 +2.35091290e-03 -1.17051229e-02 -1.84918288e-02 -3.17301080e-02 -7.96111673e-02 -8.58443677e-02 -2.73195822e-02 +9.51009691e-02 -1.48928417e-02 -8.35613683e-02 -3.00817192e-02 -4.13338095e-02 -1.01970676e-02 +1.83545351e-02 -2.81786360e-02 -1.23927314e-02 -6.35745674e-02 -2.47526392e-02 -6.64733797e-02 -5.26746921e-02 +4.46448438e-02 -5.36863729e-02 +7.76752755e-02 -3.14926803e-02 +8.28300714e-02 -9.89370141e-03 -6.29638582e-02 +1.93045009e-02 -4.79039038e-03 +6.16416289e-03 +6.42539337e-02 -9.47615206e-02 -6.54117018e-02 -9.24792439e-02 -4.73029260e-03 -6.26237690e-02 -9.23386365e-02 -1.24501064e-02 -5.30166328e-02 -7.39235803e-02 +6.58248216e-02 -7.49411955e-02 -9.47049409e-02 -6.28039837e-02 -6.48630708e-02 +7.53548145e-02 +6.12744242e-02 -3.98819186e-02 -7.55954161e-02 -1.05687961e-01 +4.83285040e-02 +5.78817241e-02 -9.53909233e-02 +4.90641333e-02 -5.14827259e-02 -2.45777834e-02 -6.99092820e-02 +7.18460009e-02 +5.96673898e-02 -4.56822999e-02 -7.65914610e-03 +8.07050020e-02 -2.98354644e-02 +1.33815175e-03 +6.14511920e-03 -1.55323101e-02 -8.69890302e-02 -4.35934588e-03 +4.59719868e-03 +8.35979581e-02 -3.76900285e-02 +3.72251458e-02 +2.19898205e-02 -5.42299859e-02 -5.38094603e-02 -5.84197082e-02 +9.48398747e-03 +7.19840601e-02 -6.98032081e-02 +1.65602546e-02 -9.27844048e-02 +7.03950524e-02 +7.84386024e-02 +2.53915172e-02 +5.98725602e-02 -2.01164763e-02 -2.34610308e-02 -5.06640077e-02 +4.64666337e-02 +6.24475777e-02 -4.22541313e-02 +4.43817712e-02 +3.20379287e-02 -8.22203606e-03 +1.75952576e-02 -5.64398430e-02 +8.21032971e-02 -3.28993984e-02 -4.08773422e-02 -5.85561767e-02 +9.72292647e-02 +2.65017356e-04 +5.54339476e-02 +5.61687909e-02 +1.05606047e-02 -5.85669372e-03 -6.08099923e-02 +7.40333349e-02 -1.57606080e-02 -6.68982938e-02 -6.58828467e-02 -3.43295038e-02 -3.41345109e-02 -6.85196221e-02 +2.81209275e-02 +6.28773123e-02 +7.83364400e-02 +1.75845325e-02 +6.31924123e-02 -2.60010269e-02 +1.84386428e-02 -1.90371252e-03 -8.51872936e-02 +9.35764909e-02 -5.55077009e-02 -8.67435243e-03 +8.62169489e-02 +9.28513333e-03 +5.12467846e-02 -8.59478638e-02 +7.85353109e-02 +5.93785662e-03 +7.46819824e-02 -6.33316562e-02 -1.67851076e-02 -9.35076550e-02 +5.01934625e-02 -3.94847756e-03 +4.96701859e-02 -4.77802940e-02 +3.31831835e-02 -9.56787243e-02 +7.79370144e-02 -1.52873667e-02 +9.91705898e-03 -2.66261324e-02 +2.59005483e-02 +9.22402069e-02 -5.83552718e-02 -5.24999388e-02 -4.24191765e-02 -6.77521601e-02 +8.41455087e-02 +8.69441852e-02 +8.66248384e-02 +4.44663353e-02 -1.00894310e-02 -1.08507127e-02 -5.34444340e-02 -4.25436869e-02 -7.78030679e-02 -7.02236742e-02 -9.11746845e-02 +4.97421075e-04 +6.38426393e-02 +1.48885921e-02 -2.55267937e-02 -4.04844992e-03 
#Parameter# /b11 {20} 321 ZERO_GRAD
+4.60187979e-02 +5.96857704e-02 -7.16168433e-02 -2.46719811e-02 +1.85381435e-02 -7.79192755e-03 -5.01888506e-02 +7.13669881e-02 +3.59585769e-02 +1.05171785e-01 +7.28758471e-03 +6.67072609e-02 +4.76451926e-02 -2.33930815e-02 -1.62124187e-02 -4.87155877e-02 +3.97979394e-02 -8.33967775e-02 -1.69402845e-02 +3.40612531e-02 
#Parameter# /W12 {20,20} 6401 ZERO_GRAD
-8.17565694e-02 -7.37092318e-03 +1.38980532e-02 -1.49397785e-02 -8.60728025e-02 +4.69047017e-02 +1.65046994e-02 -7.41713047e-02 +3.36564109e-02 -9.52837542e-02 +3.30965668e-02 +3.69149931e-02 +7.89159760e-02 +5.20132929e-02 -9.45492983e-02 -5.69931939e-02 +5.96573390e-03 -9.54416115e-03 +6.42757304e-03 -1.00605271e-03 -5.61517142e-02 +8.72487873e-02 +5.46803884e-02 +2.62177214e-02 +6.41330481e-02 -2.08962802e-02 +8.08188915e-02 -1.63414571e-02 -5.62221520e-02 +1.17756035e-02 +8.90706033e-02 -2.79493034e-02 -1.89673118e-02 -2.65807919e-02 -6.82368129e-02 +7.78327361e-02 -9.22094360e-02 -9.11753774e-02 +4.12270091e-02 -2.35543493e-03 -4.92113270e-02 -8.09253287e-03 +6.73273355e-02 +5.72723858e-02 +3.90306674e-02 +6.82251975e-02 -7.11078867e-02 -2.96892282e-02 +4.98921610e-02 -4.46442105e-02 -8.16955566e-02 -6.92119310e-03 -2.71490812e-02 +1.09256143e-02 -5.67458346e-02 -3.14481258e-02 -8.20894837e-02 +3.80957611e-02 +4.29954473e-03 -6.28062710e-03 -4.39860709e-02 -6.02381937e-02 +8.34279135e-03 +5.79912178e-02 +6.72185719e-02 +7.04785436e-02 -7.65075162e-02 +4.56196778e-02 +3.22244801e-02 -1.66145097e-02 +4.78402339e-02 -3.96102034e-02 +4.92447093e-02 +7.10431561e-02 -6.99180961e-02 +4.56675552e-02 +5.75148799e-02 -2.57506855e-02 +6.05178103e-02 -2.65421513e-02 -1.65227465e-02 -4.93922047e-02 +3.01728193e-02 -8.24461058e-02 +1.33947032e-02 +3.82722802e-02 +3.83131206e-02 +7.26586431e-02 -4.86882366e-02 -2.06131414e-02 +6.51247278e-02 +6.64842082e-03 +4.14758027e-02 +5.61503880e-02 -7.08322078e-02 +7.04112928e-03 +6.37831539e-02 +5.24176024e-02 -8.63495246e-02 +4.23818454e-03 -3.31406258e-02 +7.78124705e-02 -3.71040516e-02 +6.60481304e-02 +1.13253230e-02 -5.36899045e-02 -4.79500890e-02 -5.97616918e-02 -9.13430452e-02 -7.27896988e-02 -8.33060127e-03 +6.64527118e-02 +4.65761200e-02 +6.92460462e-02 +6.86972961e-02 -9.43798497e-02 +4.47899178e-02 +3.61330993e-02 -5.17024770e-02 +3.95717137e-02 +6.59947395e-02 +3.86642739e-02 +3.68753336e-02 +4.93504703e-02 -8.43319148e-02 -2.44859345e-02 -8.25385451e-02 +1.33654773e-02 -5.28296232e-02 +4.10609655e-02 -4.48957607e-02 +8.82200226e-02 +3.72857898e-02 +6.78891912e-02 +1.04929274e-02 -8.59159753e-02 -1.11619812e-02 +2.10645460e-02 -3.54889482e-02 +3.99915455e-03 +2.55420841e-02 +2.78101321e-02 +6.29297793e-02 +5.59102744e-02 +4.94160615e-02 -5.41429408e-02 +7.18450025e-02 -6.86594993e-02 -5.00009246e-02 +9.36274827e-02 -8.34577456e-02 -2.75615491e-02 +8.01981241e-02 +6.46174550e-02 -3.18686590e-02 -7.21217319e-02 -2.93939956e-03 -3.31294760e-02 -5.53324334e-02 +1.20177735e-02 +6.66161254e-03 -7.39715397e-02 +1.98216662e-02 +6.55990392e-02 +8.51550028e-02 +8.57705101e-02 +7.52482982e-03 +4.26072627e-02 -3.80026037e-03 -1.03332102e-02 -8.73357058e-03 +1.29188122e-02 -7.04238564e-02 -1.25979371e-02 +6.76130950e-02 -3.68917212e-02 -2.87201777e-02 -2.46923417e-02 -7.19520822e-02 +7.86142237e-03 +2.49038823e-02 +5.81732839e-02 +8.84955898e-02 -3.40732150e-02 -9.18926373e-02 -7.82145560e-03 -6.95034713e-02 -4.79580387e-02 +7.16609284e-02 -8.79979134e-03 -9.55481157e-02 -3.68189206e-03 +1.81559995e-02 +1.70163251e-02 +7.48091340e-02 -5.60614839e-02 +5.92817776e-02 +1.46647459e-02 -6.41004816e-02 +3.87536958e-02 -5.13860025e-02 -3.12544890e-02 +5.42712323e-02 +8.64153728e-02 +2.85684280e-02 +6.35728836e-02 +9.35707018e-02 +3.64484414e-02 +9.15905982e-02 +2.58529617e-04 -6.23836033e-02 -8.84978473e-02 +6.55531138e-02 +3.51575739e-03 +4.04233523e-02 +3.09449574e-03 -4.18539122e-02 +3.07964999e-02 -7.30730686e-03 +1.21606160e-02 -1.93688255e-02 -8.89111310e-02 -9.42298174e-02 -3.42464931e-02 +8.24040696e-02 -6.49092123e-02 +5.97662739e-02 +6.25648275e-02 -6.83629811e-02 +4.09118310e-02 +3.25371884e-02 +6.74883053e-02 +5.26088290e-02 -7.61109544e-03 -1.51444850e-02 -2.10202727e-02 -6.22447245e-02 -8.29437673e-02 +8.90316293e-02 +5.65685853e-02 -4.18655016e-02 +7.01051280e-02 -3.64507176e-02 +3.22190449e-02 -6.58524781e-02 +9.95254591e-02 +4.87064756e-02 +3.64090167e-02 -3.97927873e-02 -6.48371130e-02 -3.43170911e-02 +6.64855324e-05 +7.79348910e-02 +5.15280254e-02 -2.07860246e-02 -1.20282499e-02 +7.14762285e-02 +6.48142621e-02 -6.69960082e-02 -2.37650285e-03 +5.66464756e-03 -9.02928710e-02 +7.79538825e-02 +2.49833185e-02 +2.95150895e-02 -5.60629591e-02 +9.27151665e-02 +7.40872547e-02 -9.54251662e-02 -1.35326236e-02 +1.62454303e-02 +8.93899053e-02 -1.89840477e-02 -1.32533228e-02 -4.02803440e-03 +2.66189259e-02 +3.07963304e-02 +6.20108061e-02 +9.15079862e-02 -3.96973193e-02 +8.09418410e-02 -7.49068484e-02 -6.45285621e-02 -8.45192745e-02 -5.92900813e-02 -8.21602717e-02 +7.89572448e-02 +2.26388462e-02 +6.88259602e-02 -1.27933742e-02 +7.04556629e-02 -2.62302421e-02 +4.74476926e-02 -8.02616403e-02 +3.24619375e-02 -7.74084255e-02 -3.00816093e-02 -2.76051443e-02 -8.57242942e-02 -4.90423329e-02 +1.96561739e-02 +8.54978431e-03 -5.64948954e-02 -6.74134642e-02 +5.58235683e-03 -5.44083305e-02 -7.18449727e-02 -3.79014686e-02 +2.72454079e-02 -3.00979633e-02 -3.08010522e-02 -1.60011500e-02 -5.39111160e-02 +6.01603538e-02 -5.76657020e-02 +7.71640837e-02 +4.44518849e-02 +5.66494651e-02 -8.23134035e-02 -9.01036412e-02 -7.92931095e-02 -5.42366654e-02 +4.12860550e-02 +8.50820467e-02 -8.98244977e-02 -5.44705167e-02 +4.52685822e-03 -2.71354597e-02 +8.81255716e-02 -2.17298716e-02 -1.71966739e-02 +5.66171370e-02 -1.17525691e-02 -6.25598803e-02 +8.87058750e-02 +8.20327625e-02 +7.02280179e-02 -3.66407707e-02 -5.38808294e-02 +6.32394478e-02 -2.32845042e-02 +3.55784409e-02 +4.26635332e-02 +8.81122276e-02 +1.13883265e-03 +5.79828210e-02 -5.10994568e-02 -5.35997786e-02 +4.01923917e-02 +9.41536874e-02 +1.82817876e-02 +1.34971840e-02 +4.22098860e-02 -5.56022534e-03 +8.24229978e-03 -8.27822983e-02 +4.81734984e-02 -6.99092001e-02 +8.99425223e-02 -7.98206702e-02 -2.98492257e-02 -7.25998729e-02 +6.10097498e-02 +9.40903053e-02 +4.20199260e-02 -6.09699637e-04 -9.13753919e-03 -1.55194337e-02 -1.69273876e-02 +7.34775662e-02 +1.70846768e-02 +2.92138639e-03 +5.77775501e-02 +2.90855207e-02 -2.17368584e-02 +5.78924082e-04 +6.86800182e-02 +2.46028928e-03 -8.68814066e-02 -6.11145906e-02 +6.92695156e-02 +2.24790294e-02 +6.88518509e-02 -5.68483099e-02 -5.80149516e-02 +1.57144815e-02 -1.89048070e-02 +3.96666117e-02 +4.90428396e-02 +6.81287125e-02 +6.60505937e-03 -7.19674921e-04 -7.81199932e-02 +6.17728680e-02 +9.64512378e-02 +5.53583615e-02 +3.13317776e-02 +8.66341069e-02 -1.37980748e-02 +6.12774119e-02 
#Parameter# /b12 {20} 321 ZERO_GRAD
+9.22663510e-02 -7.52192512e-02 -5.27014062e-02 +2.59537669e-03 +6.89222515e-02 +3.76104116e-02 +3.03496458e-02 -8.40640143e-02 +6.15814850e-02 -7.67582189e-03 +5.67428581e-02 +4.50331084e-02 -3.16658393e-02 -3.36968079e-02 +1.12331934e-01 +2.01896429e-02 +6.40038624e-02 +1.06724249e-02 -8.86005014e-02 -3.19986343e-02 
#Parameter# /W13 {20,20} 6401 ZERO_GRAD
-3.82760214e-03 -6.54630810e-02 -5.40315136e-02 -7.45530576e-02 +2.44439989e-02 +4.85952422e-02 -6.61744997e-02 -8.13039914e-02 -7.70326927e-02 -9.12099332e-02 -7.36919791e-02 +4.23412845e-02 +3.24830115e-02 +9.02476758e-02 -3.13586257e-02 +1.70366261e-02 +3.07793124e-03 +7.09674433e-02 +4.13043192e-03 +4.91457693e-02 -7.43198544e-02 +6.70585707e-02 +7.46680945e-02 -9.51039791e-03 -1.41307293e-03 +8.89846683e-02 +7.41378544e-03 +4.50456291e-02 -5.96842058e-02 -9.29526612e-03 -4.43801694e-02 -7.76694342e-02 -3.74799641e-03 -7.39743412e-02 -4.27308418e-02 +3.95517088e-02 -3.74305397e-02 -3.05284392e-02 -4.44704201e-03 -6.25720546e-02 -4.83500846e-02 +4.98126894e-02 +7.86692277e-02 +8.00145790e-02 -1.99383833e-02 +4.58353013e-02 -4.74542901e-02 -1.64599828e-02 -6.63832948e-02 +8.47843885e-02 -6.81498498e-02 -8.67863819e-02 -4.09402698e-03 -2.91508511e-02 -1.11006759e-02 -9.60015133e-02 -5.33169769e-02 +7.91278481e-02 -4.15607244e-02 -5.09171151e-02 -8.14707130e-02 -6.75060079e-02 -4.01827097e-02 -7.35517889e-02 -6.39352202e-03 -9.43977982e-02 -5.91866858e-02 +1.30164181e-03 -4.09746990e-02 -8.13914612e-02 -1.78807173e-02 -8.14105123e-02 +5.76725826e-02 -6.16453178e-02 +4.11615260e-02 -6.80422336e-02 +5.58705477e-04 -4.52510938e-02 -8.83107334e-02 -8.96552354e-02 +5.99174425e-02 +3.50464811e-03 -4.28982414e-02 +4.19780649e-02 -6.27025217e-02 -8.84466767e-02 +1.87902839e-03 +7.42433295e-02 -4.61512022e-02 +2.47619413e-02 +8.67419392e-02 +6.72996491e-02 -2.58056764e-02 -3.69750001e-02 -2.32974924e-02 +1.02756070e-02 +7.14825988e-02 +3.77634801e-02 +6.51698709e-02 +8.68474599e-03 +1.83867607e-02 -5.17863519e-02 +2.78357714e-02 -8.25320855e-02 +7.84389034e-04 -4.56764922e-02 +1.55370403e-02 +8.28599259e-02 -2.88388152e-02 +9.06880498e-02 -3.83320823e-02 +1.02255359e-01 -6.55167922e-02 +4.78007570e-02 +7.53117427e-02 +6.06201962e-02 -8.79553929e-02 -3.00795753e-02 -4.35654968e-02 -3.59954238e-02 +6.67723417e-02 -6.97287992e-02 -5.99737056e-02 +5.33615239e-02 +8.12745541e-02 -5.06932288e-02 +5.42615205e-02 -2.75907181e-02 +4.87420075e-02 +1.91364158e-02 +4.76385430e-02 +6.20064475e-02 -3.85220684e-02 -3.79020609e-02 +8.47060829e-02 -5.14400303e-02 -6.37241267e-03 -6.93298802e-02 +4.77317013e-02 +5.96587323e-02 -5.46163879e-02 +4.03256714e-02 -6.68020621e-02 -4.94005419e-02 -2.68996991e-02 +2.74832509e-02 +6.28750250e-02 +1.99619047e-02 -5.98143265e-02 -8.52332488e-02 -8.92723575e-02 +5.97808622e-02 -7.60692656e-02 +4.00090730e-03 -6.86357170e-02 -9.10301879e-02 -2.38747299e-02 -7.00952187e-02 +9.52633694e-02 +4.58321124e-02 -8.74995440e-02 -4.33906727e-02 +4.49803658e-02 +2.85327565e-02 -6.25360981e-02 +6.93287700e-02 +6.29338771e-02 -6.14074841e-02 +1.14605960e-03 -2.31123585e-02 -3.58444713e-02 +7.84749016e-02 -5.07989675e-02 -8.83025900e-02 -6.25629723e-02 +3.24149206e-02 +9.27214697e-02 +2.04771385e-02 +2.06362586e-02 +8.39400142e-02 -6.02389723e-02 +1.96307767e-02 +8.95823166e-02 +9.49143544e-02 -8.72112587e-02 +5.51004075e-02 +6.90153055e-03 -3.09002250e-02 -7.80322850e-02 -8.18188265e-02 -3.58439349e-02 +6.40675500e-02 +4.97162528e-02 -3.71501520e-02 -3.56283113e-02 -7.36243501e-02 -4.50191125e-02 -5.17401993e-02 -6.90634102e-02 +5.40590137e-02 +2.30208952e-02 +4.41707931e-02 +3.29406969e-02 +6.93585947e-02 -1.94128156e-02 -5.79262339e-02 -5.10087349e-02 +4.27306257e-02 -6.64349273e-02 +5.82573861e-02 +5.66454008e-02 -6.30227998e-02 +5.43748066e-02 +4.42103036e-02 -1.91225223e-02 -1.13393078e-02 -5.21600991e-03 +7.46535435e-02 +6.00960925e-02 -9.41817239e-02 +7.74691924e-02 +1.67545844e-02 +3.51500884e-02 +3.83436382e-02 +4.61852597e-03 -4.41124626e-02 +3.29277366e-02 -4.25897986e-02 -7.64327198e-02 -1.35428850e-02 +6.13321643e-03 +1.31219123e-02 -5.30605912e-02 -4.63193702e-03 +7.22996965e-02 -8.69830847e-02 +1.16517022e-02 +9.75435749e-02 +4.93612960e-02 +4.96353470e-02 -5.07011637e-02 +4.02720049e-02 -3.82929072e-02 +5.64781129e-02 +3.20434123e-02 +5.52017726e-02 -1.02483470e-03 -3.32168750e-02 -6.74560294e-02 +5.26490174e-02 -9.48755741e-02 +3.25684361e-02 +9.05662328e-02 -5.98824471e-02 -6.69571385e-02 +4.59537581e-02 +8.31419416e-03 -1.99163705e-02 -5.14989793e-02 -4.38678265e-02 -6.52078837e-02 +6.51436523e-02 +1.50762880e-02 -5.72803691e-02 +6.05861656e-02 +3.03462939e-03 -2.32717507e-02 +9.53296795e-02 -1.81033909e-02 +3.01139522e-02 -5.15260508e-05 -2.30367575e-02 -3.56212780e-02 -8.39475989e-02 +2.86832284e-02 +5.95718324e-02 +2.82686986e-02 +6.07200973e-02 -7.68771544e-02 -6.74377829e-02 -5.68642467e-02 -9.45239067e-02 -9.27478895e-02 -3.91658135e-02 -9.06569660e-02 -9.37949866e-02 +7.93295801e-02 -3.84633546e-03 +3.33996527e-02 -8.66456479e-02 +3.42492722e-02 +7.25587457e-02 +5.97335473e-02 -2.60865260e-02 +2.23609507e-02 -2.46651638e-02 -7.33863981e-03 +5.20376712e-02 +7.69940540e-02 -6.23814762e-02 -1.75318643e-02 -7.61976913e-02 -5.36548235e-02 +2.42015235e-02 -5.82277291e-02 +9.40018818e-02 -1.03586698e-02 -7.77923390e-02 -3.56620774e-02 +1.84616968e-02 +5.78184314e-02 +8.45338553e-02 +9.02622864e-02 +9.25007612e-02 +8.64753723e-02 +7.11892024e-02 +7.99602941e-02 -4.28307317e-02 -1.37341587e-04 +4.89405803e-02 +4.01516184e-02 -7.33178258e-02 -3.18319239e-02 +7.27713630e-02 -4.86755967e-02 -9.25083160e-02 -5.48681431e-02 +2.13003179e-04 -5.38648702e-02 -2.70942152e-02 -5.17927110e-02 +9.51801762e-02 -6.88680187e-02 -7.51427189e-02 +7.41193220e-02 +3.79128531e-02 +9.59513932e-02 +9.00602341e-02 -5.75336516e-02 +6.64206594e-02 -2.72044167e-02 +4.64913659e-02 +3.42040174e-02 -8.33624676e-02 -7.90636241e-02 +1.52694564e-02 +8.68840516e-03 +7.92766586e-02 +2.01042425e-02 +3.87575775e-02 -5.73907755e-02 -1.55857820e-02 +3.06142843e-03 -6.88977912e-02 -7.30831400e-02 -1.93046797e-02 +7.18172938e-02 -5.59968017e-02 -6.16057497e-03 +4.81204316e-02 +9.46615487e-02 -6.61257207e-02 +2.56070346e-02 -5.47636859e-02 -6.72216639e-02 +5.87334223e-02 -2.22417489e-02 +4.12234329e-02 -6.20769188e-02 -1.31373778e-02 +9.08547342e-02 -6.33510649e-02 +4.59020138e-02 +8.21044147e-02 +3.49577926e-02 -8.33696872e-03 -4.93890680e-02 +9.53247994e-02 -6.88618869e-02 +4.13481072e-02 -2.27459390e-02 -7.38569126e-02 -7.23412111e-02 -3.30832005e-02 -4.77344096e-02 -9.24825147e-02 -4.69899811e-02 -3.59101705e-02 +5.18727973e-02 -1.28138915e-03 -3.99827920e-02 -6.36871383e-02 -3.49771157e-02 -3.93415205e-02 +6.76794583e-03 +9.89735499e-03 -8.97881985e-02 -6.96730614e-02 +7.25818751e-03 -8.70245248e-02 
#Parameter# /b13 {20} 321 ZERO_GRAD
-4.18921337e-02 -4.62437421e-02 -6.15433380e-02 +7.52634183e-02 -1.95616833e-03 +4.03691418e-02 -1.07681779e-02 -3.23294811e-02 +1.79883968e-02 +5.73046803e-02 -6.79811686e-02 -6.18647859e-02 -1.01405336e-02 -9.23101008e-02 -7.00108260e-02 +2.23865006e-02 -1.52808297e-02 +6.81799874e-02 -5.10268286e-02 -7.28784651e-02 
#Parameter# /W14 {20,20} 6401 ZERO_GRAD
